2708 40
163 0.19920601 -0.10076022 0.19226125 -0.00053278904 0.4355886 -0.12504505 -0.3063072 0.063673235 0.24574947 0.27795413 -0.3263926 -0.087291546 -0.2621635 -0.22482605 0.008098207 -0.05594864 -0.6604524 -0.27558205 0.42265308 0.5257261 0.42057815 0.7905139 -0.03738537 0.053457357 0.31218815 0.31104353 0.22851557 0.46278235 0.05218168 0.09508873 0.65145725 -0.3772513 -0.37512803 0.16725114 0.1651847 -0.20515233 0.41011977 -0.12719639 0.98155445 0.2640446
747 -0.20779563 0.7958686 -0.17867695 -0.1649015 -0.011166127 -0.60924494 0.030702062 0.078202955 -0.11656546 -0.33646435 -0.35852605 0.19199218 -0.33650345 0.63007957 -0.7723665 0.1245193 -0.6009415 -0.78475636 -0.08483443 0.66153425 0.1374394 -0.063882604 0.2888713 0.12162009 -0.61997867 0.33406115 0.9067139 0.5013054 -0.117267676 0.2709621 0.3442146 -0.14734682 -0.12000458 -0.10235837 -0.31154615 0.5444272 0.041667547 -0.6772202 -0.11678132 -0.287361
427 0.1919654 0.17969681 -0.12535918 -0.47960964 0.16798052 -0.24283823 -0.07528786 0.19327368 -0.19081146 -0.48028812 0.102758154 0.29111445 -0.47325572 0.5798546 -0.65537566 0.31690204 -0.16776885 0.19151229 0.0692958 0.588707 0.79684436 -0.10583038 0.06907095 -0.030837333 -1.0893924 0.052363362 0.6140246 0.58904487 0.20973785 0.43267077 0.34238398 0.14014903 0.1055134 0.030193962 -0.5219592 -0.089561805 0.15797876 -0.55636626 0.34853435 0.43871075
565 -0.20928252 0.35847688 -0.20556378 -0.14649785 -0.17418931 -0.1653368 0.096899614 0.47713193 0.01728812 -0.4136705 -0.47460684 -0.81564575 -0.23767938 -0.35342202 -0.26904017 -0.16217163 0.15600945 -0.77728975 0.30685347 -0.023808226 0.36337966 0.24906343 -0.0043368666 0.614659 -0.4603448 0.39947498 0.98983693 0.6023936 -0.18806957 -0.70729214 -0.023485702 0.43700564 0.23756438 0.75131583 0.07862244 -0.53660554 -0.42378458 -0.3704899 0.12155522 -0.027763681
611 -0.42331445 -0.52441233 -0.65232545 -0.31412497 0.03743488 0.10272574 -0.7377917 0.6311369 -0.19902557 -0.12903702 -0.7728195 -0.23062013 -0.37891072 0.16134253 -0.70055026 0.11315813 -0.28187338 -0.20904392 -0.2130797 0.22993107 0.570441 -0.48785818 0.51870686 0.6877225 -0.035671204 0.32136753 0.8512361 0.33768794 -0.404852 0.23093317 0.4738605 0.50339645 -0.3779951 -0.41406375 -0.49704328 0.59784997 -0.5337284 0.2898692 -0.068872645 -0.27766547
74 -0.039421603 0.8327516 -0.42041737 0.3322664 0.18265392 0.3299489 -0.21732 1.0421957 0.113835625 -0.38163188 -0.16227753 -0.49875745 0.21999598 0.36259744 -0.09521304 -0.028434172 -0.8229215 0.15668456 -0.3469728 -0.8213533 1.0329269 -0.18131164 0.002136312 0.29130524 0.022601694 0.44705763 0.3072761 0.53025013 0.25936136 0.06206542 0.07735495 -0.174094 0.15065658 -0.14484479 -0.5066733 0.3336869 -0.015629016 -0.64027935 -0.40112072 -0.18846835
552 -0.6169687 -0.27242726 -0.38331813 0.0047948333 -0.17944086 -0.099586226 0.45427763 0.5264356 0.015240399 -0.7731458 -0.5492168 -0.5141991 -0.61203 -0.3619576 0.020703774 -0.12679027 0.21448821 -0.56045246 0.64475703 0.18902257 0.3844735 0.3585423 -0.20263025 0.6418928 -0.33800888 0.24366498 1.1300497 0.5882692 0.02755831 -0.8866258 0.04663707 0.5853793 0.2783373 0.6976289 0.036068354 -0.45926055 -0.5823313 -0.2773997 0.05752727 0.1396136
745 0.24113296 0.25600648 0.20011657 0.07331261 0.8069957 -0.015652854 0.003203791 0.2755252 -0.5219502 -0.38560095 -0.6026798 0.064870514 -0.77178437 0.69390506 -0.7064336 0.54036283 -0.41396013 -0.116445616 -0.048699826 0.80588776 0.4903822 -0.06494445 0.39268252 0.8670762 -0.35575828 0.26198363 1.1027267 0.07804954 -0.034545776 0.60377693 0.2726824 -0.18234591 -0.53250337 -0.2949135 -0.222364 0.50100917 0.4358962 -0.7037416 -0.25658965 -0.36693105
430 -0.50642496 0.14253539 0.7230638 -0.44868228 -0.07122625 -0.11619163 0.05525505 1.1351568 0.755115 -0.038968425 -0.346717 -0.033495203 0.02353972 -0.008710691 0.50249743 -0.61400497 -0.23230211 0.11219894 -0.9294703 -0.11795337 0.15997021 0.39998254 0.3510503 0.0011911594 -0.25186062 0.19619831 0.6368806 0.34286404 0.30458447 0.9054344 -0.16531967 0.20689239 -0.47652784 -0.12559998 -0.65212494 -0.3492971 0.38149735 0.034623835 0.6855329 0.57357734
638 -0.15297002 -0.16445182 0.8100609 -0.14476137 -0.49284464 -0.74922323 -0.4461683 0.061833892 0.68707395 0.20503514 0.14459066 -0.2100678 -0.44849238 -0.21200733 -0.09038247 0.33075345 0.04858549 -0.6681017 -0.48182812 -0.04149393 0.12962086 0.776021 0.016750397 0.41834697 -0.624488 0.46032602 0.5412485 0.17257804 0.15030394 0.29956183 -0.01116642 0.17371175 0.41419983 0.077319466 -0.6035634 0.018013123 -0.14434737 0.14619702 -0.19578283 0.08072341
344 -0.53211105 -0.62928456 0.9007301 1.1031895 -0.26373434 -0.39191312 -0.475636 0.8121072 -0.08046418 0.30284944 0.01549347 -0.8794812 -0.279771 0.1390537 0.4301219 0.45663768 0.30945832 -0.78008777 -0.26818278 -0.39197958 -0.35113806 0.63621676 0.029108196 -0.012941729 -0.47789994 0.073250815 0.65520537 -0.026732007 0.71695036 0.14797024 0.5686591 0.6271967 0.029168945 0.4360724 -0.7335269 0.47861725 0.7074196 -0.09162278 0.22332183 -0.0027136935
157 -0.010481441 -0.5268795 -0.6896895 -1.069922 -0.5382435 -0.11030693 -0.5719466 1.3795892 0.07594929 -0.20564362 0.30459255 -0.28647977 0.03241398 0.5978892 -0.4022525 0.24451812 -0.3194162 -0.116144285 -0.6536415 -0.3348019 1.1553183 -0.12599707 -0.047955707 0.002275856 0.0039828205 0.26992053 0.6913617 -0.26761705 -0.03054328 0.16507219 0.6280548 0.5373168 -0.1967045 -0.3975625 0.007103952 -0.32542086 0.04760034 -0.22051755 0.20481215 -0.20936587
1354 -0.16846365 -0.6900125 0.7350081 0.69872236 -0.25883007 0.22944632 -0.2758961 0.75528145 0.4707266 -1.3766901 1.0239785 0.64553136 0.06610995 -0.10271929 -0.13560265 -0.64394253 -0.50615424 -1.4969715 -1.070951 0.09197387 0.53886694 0.29233333 -0.12970415 -0.58953834 -0.17813899 -0.115720324 0.6646174 0.98767203 1.2028937 -0.73201215 0.87856084 0.050121203 -1.3079526 -0.10852628 0.30639404 0.3311498 0.075660065 0.582881 -0.44257423 0.1210486
576 -0.7994779 0.49447492 -0.5731153 -0.4119473 0.17836969 -0.81689715 -0.65862894 0.2664633 0.54086536 -1.2306368 0.089808986 0.115048215 -0.7464661 0.97611773 0.122893885 0.09270191 -0.7397012 -1.1535714 0.09081755 0.55369735 0.24194542 -0.19163224 0.7708414 1.2548666 -0.72247154 -0.43918902 0.07702935 -1.5015252 0.4671692 -0.19999596 1.3168685 -0.58919525 -0.7738472 -0.2429897 -0.7803977 0.605049 0.16562589 -0.76674205 0.7077098 -0.02712342
566 -0.21777187 0.10032138 -0.014443539 -0.021646118 0.13263077 -0.16309284 0.6014892 0.07596372 -0.13186869 -0.32244778 -0.4119986 -0.5664846 -0.5110443 -0.3957943 -0.34043553 0.19972268 -0.23257102 -0.5383662 0.1859062 0.30309087 0.26771173 0.27785295 -0.28018323 0.6106864 -0.77498657 0.16245435 1.2859526 0.206571 0.02599635 -0.47058898 0.07333941 0.65273726 0.060402647 0.46955538 0.057787925 -0.3387226 -0.144794 0.0677147 -0.09919575 0.37503028
523 0.21718329 0.20511864 0.02310995 0.14994231 -0.18000735 -0.22905481 -0.1225985 -0.021286245 -0.41654888 -0.0179587 -0.4360048 -0.7871601 -0.46392366 -0.5020012 -0.0018388545 -0.22670123 -0.1331083 -0.521199 0.14254068 -0.3402631 0.35487956 0.44755325 0.02266083 0.24857807 -0.60703343 -0.030233985 0.7772743 0.7575075 0.123855725 -0.59260935 -0.20641857 -0.5732939 -0.32670057 0.2962329 0.15762128 -0.3954294 -0.10988623 -0.37385732 0.7745745 0.42368823
294 -0.07391546 0.0269677 0.060464986 -0.19292426 -0.20460294 -0.17771111 0.37785894 0.049345348 0.25887194 -0.24765128 -0.7935056 -0.22310767 -0.41222337 -0.13315845 -0.5846956 0.52676374 -0.21296735 -0.91863346 0.24663886 0.3209769 0.49974334 0.34522346 0.2952326 0.5759071 -0.50187236 0.54990786 1.1449981 0.47444108 -0.35186356 -0.3145633 -0.07708882 0.49045786 0.06793368 0.45554817 -0.09048057 -0.29504323 -0.23012479 0.016122598 -0.025948886 -0.17816302
378 0.2272409 -0.2796878 0.86367154 0.7069185 -0.33764908 -0.4997307 0.062579766 0.8436949 0.2625347 0.26132503 0.37751728 -0.06634029 -0.46867156 -0.46012208 0.6302178 0.11783156 -0.5069282 -0.5397178 -0.7069431 -0.4750237 0.0065033208 -0.007817114 0.24885105 -0.08474094 -0.6647441 0.7063844 0.39102572 0.47897196 0.6413181 0.48503762 0.6651817 -0.011833248 0.16821001 0.938588 -0.67828304 -0.031395074 0.27307612 -0.07500014 -0.060864925 -0.04856912
453 -0.70684654 -1.3341811 0.1371823 0.56080085 -0.6306568 0.33063745 -0.644024 -0.2693688 -0.071274824 0.46893618 0.1452472 0.01759279 -0.85468256 -0.39346486 0.51582336 -0.25876147 -0.037216786 0.09479397 -0.63443315 -0.34293512 0.40857542 -0.15431105 -0.13709259 1.4303374 -0.4601795 0.20847394 0.14870463 0.772595 0.37889758 0.50613755 1.2446799 0.23226663 0.4578245 -0.59303313 -0.040066242 -0.4366229 0.683682 -1.094407 -0.3810319 0.026727503
793 -0.16703199 -0.33111262 0.19068931 0.25437877 0.554402 -0.09306432 -0.6522514 0.34609076 -0.042208835 0.67863876 -0.921476 0.14316425 -0.07187374 -0.39108878 0.30109692 -0.12613317 -1.1814294 -0.6906976 0.5762166 0.24250528 0.4132261 1.0535313 0.051112913 -0.016719028 0.6923817 -0.36585182 0.49143246 0.64738834 -0.54670006 -0.24461827 1.0680867 -0.41649604 -0.37552086 0.29086837 0.080694735 -0.3905554 0.7296976 -0.8668657 0.69541895 0.053293232
635 -1.226887 0.2002674 0.8070977 -0.41163 -0.11825099 0.095177576 0.064697415 0.73826796 0.80458355 0.106239974 -0.07409839 0.076552995 -0.26890737 0.26812854 0.59642017 -0.25938788 -0.20221381 -0.12541333 -0.71405286 -0.31204808 0.26382002 0.81371003 0.0048498786 -0.019744145 -0.1903804 0.14840373 0.39511213 0.37304428 0.21113943 1.0305145 0.21644005 0.3035482 -0.08396447 -0.040109336 -0.6896843 -0.56666505 -0.058233738 -0.18584989 0.13002926 0.22259116
14 -0.38365936 -1.0160936 -1.2500974 0.23058991 0.59924436 1.1166265 -0.47971132 0.672792 -0.08139591 -0.7207295 1.4282048 -0.392963 -0.5592585 0.17947331 0.6032138 0.93330574 0.11466402 -0.070756845 -0.25350526 0.4683361 0.61264974 -0.22580633 -0.12696579 1.1263776 0.29362905 0.35531738 0.86060077 0.64318866 -0.3344159 0.00805897 0.73226917 0.2766276 0.36618587 -0.5412119 -1.6458443 -0.66613543 0.2918741 -0.1855715 -0.29836956 0.7161912
136 -0.31616703 0.15886517 -0.0080094645 0.4235591 -0.5965356 -0.5638381 0.45577103 0.6681158 1.1529062 0.032681827 0.88244486 -0.38183838 -0.9731855 -0.43770853 -0.2547328 -0.8290774 0.4706807 -0.64687693 -0.37497002 -0.09621812 -0.58048254 0.24996965 0.5438359 0.3909322 0.3010689 0.23913142 0.5283877 0.84784 0.049308535 -0.528399 0.36005506 0.86731225 0.03904976 0.058113575 -0.6639205 0.3436939 0.6109621 -0.17752586 0.36579213 -0.060943194
569 -0.020048928 -0.63846546 0.42639384 0.119453564 -0.29655617 -0.25186595 0.25258136 0.32077658 0.20489644 -0.16471583 -0.08897465 -0.44257554 -0.045967523 0.28982878 0.8048 0.18264933 -0.2434701 -0.08311329 -0.38566136 -0.11960345 0.5796162 0.17533678 0.72959906 1.0164155 -0.29855314 0.18121429 -0.26494086 1.1940833 0.43342254 0.8675183 0.9995683 0.5996865 0.7246987 -0.7436425 0.38732833 -0.34575 0.6091727 -0.76910657 -0.65880656 0.19794104
109 -1.2757447 -0.13394608 0.3115323 -0.5520129 -0.15480718 -0.06652856 -0.6932937 0.033059727 0.5692117 0.5055478 0.081121616 0.1847467 -0.26706246 -0.11201688 0.43889403 -0.5387531 0.40380418 -0.4390154 -0.32320765 -0.18870224 0.30884486 0.48825133 -1.2176541 0.7148725 0.43997496 0.53414166 0.60888517 0.63668394 0.8043943 0.5132456 1.1662699 0.6770239 0.24398324 -0.106208876 -0.37806085 -0.4371205 0.27625617 -0.42962408 -0.18129581 -0.507411
1136 -0.086883344 -0.4368128 0.19015802 -0.0062062484 0.24809627 -0.24802434 -0.15206434 0.48843935 0.277542 0.517439 -0.45996842 -0.3230905 -0.41376638 -0.18301772 0.5681748 0.41154596 -0.7366117 -0.09374316 0.7907584 0.7432127 0.24679862 0.6589828 0.2097885 -0.18141139 0.9798252 0.12480511 0.5774705 0.89859056 0.15011609 0.17330678 1.4523501 -0.2969147 -1.1281239 0.3176254 0.011629337 -0.12185546 -0.097133294 -0.3331709 1.32515 0.44415903
1644 -0.056653004 -0.8357712 0.37106124 0.29528147 0.070962064 -0.43255055 0.3103498 0.6485267 0.6021818 0.27103594 0.18239519 -0.06577236 -0.8834859 -0.22042967 -0.23007959 -0.08668343 -0.4421065 -0.17537841 -0.61448467 -0.63445175 -0.13828824 -0.07677032 0.031750344 0.002426355 0.00034706725 1.0520308 0.46526605 0.33091542 0.117644876 0.2678187 0.7533105 0.5075628 0.3381506 -0.19732685 -0.22402894 0.53808314 -0.47776046 -0.0077269226 0.012148134 0.59673876
66 -0.28736174 -0.78626674 -0.103708126 -0.47345802 0.3349603 -0.37231973 0.6005786 0.5938479 0.23649232 -0.73330927 0.07015103 0.05675834 0.057149183 -0.33751115 0.43156657 -0.10594073 -0.24610716 -1.3690597 -0.021644885 -0.27946463 -0.45916018 0.89419836 0.43472964 -0.3774066 -0.6375337 -0.16375896 0.6333896 0.1461805 -0.11102164 0.1309149 0.6069675 0.03887672 -0.5192807 0.23195714 -0.1462632 -0.040461324 -0.052455824 -0.296455 -0.7659653 0.79743284
910 -0.5296625 -0.2399021 0.21610005 -0.61671686 0.57901925 -0.09314465 0.18461223 0.75429845 -0.44554418 -0.07617463 0.012019286 -0.82885575 -0.15635327 -0.8724343 0.4514486 0.38780126 -0.14076395 -0.92041224 0.42968 0.33481598 0.3956697 1.0918752 -0.07090629 0.5113846 -0.13637434 0.48037514 -0.05811037 0.8771462 -0.30830255 -0.18216467 0.5821682 -0.8714236 -0.122483455 0.6061878 0.3953641 -0.57583237 0.015202771 -0.16805735 0.9768271 -0.49401608
1527 -0.29123524 -0.57399726 -0.36165658 0.3275505 0.79769206 0.6910149 -0.5461058 0.79529375 -0.041271072 -1.0810021 0.7171022 0.3955553 0.9595705 -0.2779883 -0.9114785 -0.08448737 -0.46382245 -0.4760014 -0.58260757 -1.1205796 -0.16760606 0.7158175 0.8040925 1.7736653 -0.3664578 0.116095714 0.86609304 -0.13973288 -0.36360705 0.40036604 0.48181635 0.08528344 1.0810443 0.31250522 0.1958062 -0.005519221 -0.64796335 -0.7417749 0.53391343 0.66569906
672 -0.7592481 -0.30480382 0.31737766 0.20260584 -0.35029268 -0.010860211 -0.9523765 -0.44520724 0.57560194 0.5590549 -0.13701998 0.13780393 -0.36498705 -0.035232153 0.523985 -0.31855416 0.1977254 -0.2500879 -0.0031423778 0.0772029 0.37109 0.11993792 -0.48003432 0.36915937 0.1965244 0.20161015 0.9977692 0.5696954 0.4099714 0.1436402 0.9267947 0.51433027 0.28216338 -0.5917525 -0.17046347 -0.5004184 0.36808518 -0.8654345 -0.93956953 0.47028974
2499 -0.9223483 -0.59605384 -0.65343314 -0.36171585 -0.24319963 -0.36723894 -0.6693629 0.28217694 0.105210766 -0.1966539 0.03951342 -0.5818868 -0.6416217 1.4121457 -0.3165629 -0.3999676 -1.5993017 -1.738245 -0.044837713 0.1496667 0.82447344 -0.5871824 -0.5745844 0.87675333 -0.68581396 -0.37351936 0.8308105 -0.3802986 -0.7481306 0.7871807 0.96793944 -0.20730257 -1.2239456 0.012613844 -1.3045138 0.62352085 -0.4833638 -0.087893344 0.42388988 -0.40419897
478 0.22707069 0.2063772 0.14983597 0.050042275 -0.23359233 -0.62737465 -0.25749388 0.45726565 0.2769534 0.007786386 0.47010735 -0.3452177 -0.44705978 0.18206629 -0.06307831 -0.24005009 -0.12893875 -0.6189044 -0.50088286 -0.25676242 -0.3731096 0.45465603 0.48556703 0.1907024 -0.9497859 0.13321447 0.70263505 0.85241586 0.108231194 -0.079948686 -0.114653654 0.013336814 -0.09597497 0.97615063 -0.66658074 -0.6772501 0.38589695 0.13008377 0.05633606 0.17586288
1328 -0.426358 -0.4403732 1.2755812 -0.4993942 0.34011388 -0.20672299 0.46805385 0.9982367 0.66457915 0.07296802 0.69587547 -0.14954896 -0.47555414 -0.21445686 0.53921413 0.35878325 -0.2225369 -0.33340698 -0.8312036 -0.47474638 -0.13318779 -0.45809084 0.18295495 0.95090663 0.22932242 -0.07126936 0.73054534 0.9889047 -0.10835819 0.36273706 0.6410335 0.4662395 0.04145325 -0.45221353 -0.71676517 0.526812 -0.9284182 -0.2685169 0.48435363 1.1934779
76 -0.096984595 0.60021144 -1.0349935 0.1638096 0.3696854 0.40392438 -0.52835894 1.4305897 -0.00606393 0.08448423 0.33554268 -0.91543293 -1.0726254 0.48068935 -0.47838348 -0.112389736 -0.93669283 0.48793638 -1.0057231 -0.30792058 0.9724584 -0.11137723 -0.3711264 0.9968118 0.1685732 -0.13373488 0.43120527 0.089758635 -0.026927352 0.5142159 0.5653991 0.01578463 0.4942808 0.20959693 -0.21228495 -0.33804703 0.15754268 -0.61203736 -0.6906214 -0.10255179
1290 -0.112112395 -0.5389958 0.62181 0.5113674 0.1749075 -0.51677215 -0.3753066 0.81880355 0.10468756 0.4248241 0.23878849 -0.58486587 -0.3235524 -0.18068923 0.3684608 0.5471015 -0.21834172 -0.3183777 -0.5746917 -0.44005963 0.35288665 -0.20080902 0.57015574 0.21562535 -0.068557575 0.45301908 0.19691385 0.3545426 0.15566398 0.40716627 0.6912106 0.936038 0.6182756 0.61298686 0.13733263 0.054545358 0.05850068 -0.7870012 -0.48221728 0.1362497
591 -1.0356281 -0.6574951 0.23781244 -0.08313571 -0.24292159 0.22972664 -0.7580762 0.062230736 0.63697726 0.4099261 -0.59744555 0.3280919 -0.55096483 -0.029657569 0.84322613 -0.43344766 0.12257492 -0.24278098 -0.072736464 0.26276472 0.40721074 0.42295083 -0.2809997 1.1518495 -0.06031561 0.12636118 0.6366289 0.71563596 1.1177373 0.5270798 0.70079297 0.40394396 0.1964453 -0.123731725 -0.09734037 -0.4608503 0.30441463 -0.27583686 -1.2183409 -0.3063524
41 -1.2426507 0.8418095 -0.029351596 -1.3401386 -1.8596528 -0.10489519 0.56292975 0.4022883 0.011941324 -0.8392466 0.39666736 -0.3611172 -0.2693522 -1.5914254 -1.5840795 0.39047885 -0.6779105 0.55077136 -0.3218326 -0.7069008 0.3289923 0.30006778 -0.49532542 1.1820512 0.4519544 0.061915148 -0.15721588 0.11490188 1.4534202 0.14035214 1.7117785 0.06705838 -0.62116504 1.5550061 -0.5774167 -0.04596063 0.3390187 -1.0374101 -0.17651893 0.45278
188 0.28079346 0.17944786 0.0996839 0.5687116 0.24837933 0.3294125 -0.18474309 0.06845559 0.37954617 0.15997875 -0.63064146 -0.48819566 -0.7706499 -0.3702055 0.14928076 -0.5681034 -0.87743115 -0.16689591 0.47972313 0.0965867 0.6538583 0.86409163 -0.17893748 0.3439293 -0.12930329 0.568171 0.35226345 0.12736769 -0.035051443 -0.50486344 0.41092926 -0.250765 -0.5632046 0.122736566 0.22606874 -0.10438074 0.5325301 -0.29528347 1.1360623 0.37040663
686 -0.34390715 0.07774562 0.9135942 -0.8901922 -0.123046294 -0.0677247 0.38760266 1.1376269 0.6473047 -0.047910415 0.098834954 -0.07840147 0.10089262 -0.1976568 0.947204 0.18816592 -0.6501883 -0.3688908 -0.28130397 -0.5348705 0.26292625 0.16880684 -0.0029953658 -0.08903739 -0.19502558 0.29891863 0.7903265 0.05414606 0.5409851 1.1006731 0.13767615 0.07851885 -0.17741472 -0.3020921 -0.7205521 -0.5722817 0.104178086 -0.115272656 0.73254555 0.65836525
1569 -0.76076704 0.65344846 0.92239803 -0.8799705 -0.013791743 0.05575327 -0.6371938 1.1304085 0.4133721 0.07447797 -0.12177612 -0.29688933 0.32832542 -0.10111272 0.5323836 -0.4220105 0.510081 -0.5990889 -1.4291775 -0.18720545 -0.14103666 1.2126282 0.77064794 0.08611044 -0.33741355 1.2833514 0.3864861 -0.15973558 0.2000511 0.32212004 0.2184981 0.16604106 -0.7855169 0.20906831 -1.0989977 0.14581724 1.1979545 -0.50538605 -0.09075805 1.1310058
2421 -0.20514727 1.179255 -0.51651496 -0.23658107 -0.056610823 1.2570189 -0.087870575 1.163564 0.2589617 -0.30339798 0.20361044 -0.5371781 0.07743061 -0.092697375 -0.15838832 -0.0074459813 -0.7534286 0.18161792 0.078607336 -1.3875097 1.1272299 -0.36199224 -0.24275824 0.91215676 -0.50395983 0.27720612 -0.1689914 0.6269465 1.0082155 -0.06354564 0.54092544 -0.50721204 -0.19792023 0.154362 -0.91953766 0.8385326 -0.15799177 -1.688768 0.0025135963 -0.3564898
1459 -0.82448065 -0.31687826 -0.304764 -0.112486385 0.15448457 0.34077948 0.005278021 0.08390405 -0.015699107 -0.9554302 -0.45086256 -0.6345122 -0.46987447 -0.52615076 -0.14272895 -0.20118855 -0.15765522 -0.71936184 -0.022323642 0.45135885 0.45679593 0.40577242 -0.4523344 0.621909 -0.51632935 0.10911418 1.1534122 -0.18987758 0.48608688 -0.84942317 0.30240586 1.1687795 0.45281306 0.580235 0.30095124 -0.6257489 -0.5410188 -0.10448541 0.060266115 0.22047898
250 0.16354707 -0.1638518 -0.6991932 0.08599248 0.55167115 0.41467193 -0.74153614 0.41903096 -0.7305916 -0.70738757 0.81133795 -0.22936067 -1.2119436 0.13472284 -0.68638986 0.44265866 -0.6846459 0.023182252 -0.5252291 0.36233363 0.79880214 -0.39616567 -0.12240239 0.6434406 -0.12269493 -0.37995306 0.85331684 0.09959322 0.35763967 0.62793165 0.3056977 -0.074686304 0.8686535 -0.012673805 -1.0625296 -0.36941895 0.4647124 -0.18972054 -0.18239067 0.05893296
1520 -0.9469353 0.8991788 -0.76885927 0.27805415 0.06099917 -0.50960606 -1.6215736 0.23077622 0.9008433 -1.6244935 -0.06390564 0.833669 -0.27556047 0.39164254 0.39299816 0.4910445 -0.91135645 -1.8066789 0.27142876 0.20499042 0.6986186 -0.11032024 0.8805202 1.2986822 -0.900728 -0.05334316 0.5406435 -2.1483815 0.93304527 -0.33006382 1.6654558 -1.293841 -0.6440199 -0.8422941 -0.68296057 0.7502485 0.27206925 -0.4415047 0.7325987 0.13411044
1240 -0.025753142 -0.8665068 -0.24212079 0.4548297 -0.050515823 1.2220944 -0.9811019 0.81663847 0.5307654 -1.2856104 0.14255756 -0.039933287 0.39730003 -0.33858177 -0.49973205 -0.3231069 -0.47865474 0.44738021 -0.35194653 -1.0010707 0.5653368 0.43795198 0.71713495 0.1881133 -0.35500786 -0.5954604 0.49224886 -0.44716087 -0.07774331 0.34069955 0.73227364 -0.26760206 0.75866526 0.31564286 -0.38820875 0.31793782 -0.35924917 -0.8034616 0.60089195 0.4330063
1153 -0.38044643 -0.021561027 0.13704559 -0.113687575 0.5128141 -0.12220202 -0.5445228 0.4275235 0.16713619 0.46536833 -0.30409828 -0.01621815 -0.295537 -0.04338465 0.0015811722 0.3867714 -1.27194 -0.43287745 0.27312985 0.69478863 0.50138515 0.8679427 0.27604297 0.31445944 0.7382206 -0.56309885 0.098004416 0.6419092 -0.3787984 -0.4177119 1.000203 -0.27769652 -0.6464887 0.3265154 0.619691 -0.4904747 0.6890305 -0.15304331 0.832434 0.63911635
1713 -1.2076125 0.62400764 0.2172561 -1.1470221 -1.5419468 1.1362205 0.42766294 0.37433335 0.35596767 -0.018827777 -0.0035366684 -0.35706803 -1.0855479 -1.6267093 -1.4512154 0.5332904 -0.6889813 1.0547743 -0.1271014 -0.83877766 -0.004479885 0.3793302 0.43463132 1.3350062 1.086766 -0.07716705 0.05337231 0.32915518 0.87801605 0.11195985 2.2597682 -0.49820128 -0.97086006 0.9148771 -1.1771586 0.20994443 -0.025873592 -0.70823056 -0.35047066 0.73940635
2153 -1.2486266 0.6409392 0.19839334 -0.95087 -1.5479016 1.4480073 0.6921598 0.48230904 0.15159553 0.016322192 0.37723634 -0.24190985 -0.65495247 -1.6572512 -1.4017522 0.65077335 -1.1475548 1.447096 -0.20664051 -0.27542898 -0.20751983 0.5600148 0.5681052 1.3366393 0.76151067 0.39111453 0.07142504 0.68953174 0.8465727 0.20146354 2.7627704 -0.41854924 -1.0454333 1.2834872 -0.9443947 0.61086863 0.034231573 -1.2129596 -0.48671657 0.61469835
570 -1.1838276 1.0481626 -0.9341476 -0.40913853 -0.07951981 -0.75552046 -1.238575 0.38626096 0.6152699 -1.5160772 0.06746888 0.8026613 -0.77940005 0.4402781 0.65151 0.1382353 -1.1158705 -1.6229392 -0.07656646 0.75360286 0.42744532 0.014729063 1.0392544 1.8045634 -0.9213164 -0.07672072 0.32769018 -2.347828 0.87770504 -0.71559274 1.836268 -1.204449 -0.44251558 -0.8135973 -0.6062625 0.7003211 0.30907738 -0.7449297 0.6800403 0.39774787
809 1.3814423 0.702697 -0.04970763 0.7048048 -0.55317795 0.120114885 0.38502264 -0.09226213 -0.11859604 0.5205306 0.9720634 -0.7966685 -1.2791344 0.3527105 0.74216163 0.89348143 0.99189377 -0.7415439 -0.8132897 0.78767157 0.70089877 1.7993553 -0.679904 1.1147698 -0.25874677 1.5581269 1.2756889 0.026461774 -0.2616153 -0.6478938 3.076323 -0.47939563 -0.018630384 0.46846116 -0.806036 1.1376733 0.25531965 1.5351456 -0.43358877 1.7985307
426 -0.45309904 -0.3873471 0.85726196 0.40423733 0.09373884 0.050234746 0.5737021 0.37116972 0.38111904 0.34270516 -0.039853543 -0.23448667 -0.23067333 -0.21199849 0.25350368 0.41809565 -0.14682491 -0.6025007 -0.56125516 -0.1785245 -0.46407416 0.721747 0.514086 -0.23278232 -0.32919616 0.96606916 0.44620067 0.07713483 0.8990131 0.46283484 0.5383114 0.46147403 -0.4636113 1.024684 -1.4593472 0.012857259 0.7815715 -0.43055248 -0.31228924 0.46931157
99 0.040136788 0.16467439 -0.8088405 -0.49184895 -2.6753633 -0.7373957 -0.6982463 0.57617116 -0.4084177 -1.4870894 -0.74818724 -2.0906234 -0.029882751 -0.82112473 -1.0133871 -0.8367832 -0.75612324 1.0300678 0.53736526 -1.3964247 1.4681027 1.6059829 0.8691762 0.18061087 -0.054847505 -0.044408396 0.9540127 -0.81041545 0.056836553 0.71420634 2.567961 -0.55271405 0.16895689 1.6431363 -0.9123169 0.2182517 -0.046694145 0.7432889 -0.5931818 0.24620748
359 -1.2981586 0.047601976 -0.6237066 -0.27839252 -0.4102791 -0.8359487 -0.49544647 -0.14951007 0.23931278 -0.07340631 0.27645823 -0.41757873 -0.7775433 1.1570762 -0.3228914 -0.3932195 -1.5369647 -1.7673705 -0.09072673 0.23050593 0.8596483 -0.5879571 -0.68248856 1.2105936 -0.7940625 -0.50480646 0.62416095 -0.2710738 -0.6090244 0.5795349 1.0275394 -0.10785584 -1.3681837 0.18438853 -1.2654482 0.89011997 -0.32554787 -0.04786766 0.4613086 -0.33366358
640 -1.4894546 -0.5092093 0.31685302 -0.4272002 -0.3517037 0.13950346 -0.65835536 0.12390705 0.9041237 0.4921014 -0.55867195 -0.012924428 -0.37321943 0.19003147 0.88976955 -0.46472597 0.23143914 -0.21248321 0.16120732 -0.15463309 0.25360292 0.68447816 -0.7207083 0.8023649 0.23759313 -0.3211087 0.7562697 0.8500954 0.790157 0.5307018 0.91310567 0.30194402 0.09489285 -0.2347 -0.6464131 -0.41530332 0.11528792 -0.5609893 -0.9149429 -0.14115295
1178 -0.10818717 0.46444106 0.09545985 -0.35526004 1.3880941 -0.3965051 -1.0175436 -0.23697054 0.3810792 0.60100603 -0.031867974 -0.17657568 -0.3069481 -0.0076902756 0.5724878 -0.7836696 -0.73418784 -0.7031529 0.34755042 -0.80991113 0.70450675 0.59731996 0.28685957 -0.101865195 0.38424322 1.0032592 0.66195655 0.64081633 0.5909899 -0.46076947 1.1285156 -0.6434243 0.2541332 0.49030638 -0.11763244 -0.23411223 -0.30485252 0.19268064 1.0419699 1.3252852
881 -0.22385079 0.6835882 -0.29054976 1.1003319 -0.15709966 -1.2669218 0.36220405 0.38070783 -0.10681891 -0.22821692 0.06531513 0.6546191 -0.98611003 0.07714578 -0.15623637 0.272731 -0.89541703 -0.14997381 -0.031522367 -1.3073517 1.087598 -0.15611745 0.4791576 -0.06743371 0.06332452 0.73643845 0.3877554 0.3792705 -0.32651561 0.07590057 0.45278153 -0.016297827 -0.2324767 -0.29259306 0.022679148 0.3767876 0.34146324 -0.66182977 0.27379474 0.070463695
1484 -0.08858285 -0.59221053 0.25704974 0.36265415 -0.23825882 -0.25250694 0.116719574 0.8430512 0.7607197 -0.50147986 -0.25799802 -0.95737755 0.3013974 1.1042266 0.75940806 -0.31169716 -0.5326326 0.2652762 -1.0875642 -0.5388594 0.16127613 0.4362532 1.2392621 0.36696512 -0.031801697 0.3092714 -0.026056755 1.1546383 0.33074224 0.6031816 1.0315381 0.44209558 0.64036906 -0.28532916 0.24345703 0.18910897 0.4477885 -0.16470733 -0.3359467 0.41321307
1252 -0.13642466 0.42878598 0.029840166 1.5925636 0.3068639 -0.6178859 0.5586524 -0.18128923 0.5485421 -0.60711145 -0.74011093 -0.30423006 -1.2995942 1.7050294 -0.08299012 -0.82281095 -0.61523944 0.7988535 -0.35853475 -0.22791041 2.6277854 1.4752401 0.79523563 1.1469761 0.86287344 -0.11152505 1.1115662 -0.13900597 0.53565586 -0.3281879 0.056061514 -1.0269077 -0.6330793 -0.2726121 -1.5101794 -0.54738575 -0.61617476 -0.8656271 0.39661995 -1.1312152
438 0.5209511 -1.0223482 -0.2378861 -0.0075626415 0.28495753 -0.68507195 0.42072904 -0.05360595 0.5017982 0.23054892 0.15450297 -0.05570706 -0.41318494 -0.06451295 -0.23386036 0.05976778 -0.00031196146 -0.91399 -0.32604557 0.10121203 1.131957 0.043792516 0.7029113 1.0441846 -1.1602747 0.48147684 -0.17148396 0.60457087 0.20886081 0.5358826 0.26438808 0.16441941 0.0018213645 0.17028932 -0.89486474 -0.80001414 0.22957782 0.0001454528 -0.59211546 0.20686786
129 0.41093612 -0.19871016 0.20236424 -0.13229603 -0.037912536 0.2248736 -0.0806985 -0.46381176 0.15292734 0.2910573 -0.49749783 -0.6576377 -0.8101963 -0.06771229 -0.26683828 -0.05799984 -1.1248689 -0.61500174 0.09113552 0.3768558 0.18466435 0.10318472 0.42918786 0.58559144 -0.13973674 0.62195474 -0.12507947 0.61733776 0.20492555 -0.3208643 0.6715121 -0.35128623 -0.61069816 -0.14947551 0.44863024 -0.07988284 0.85004205 -0.5398947 1.2269851 0.5405265
1910 -0.43258783 0.3886695 0.21868548 -0.62765 -0.4054305 0.29846653 -0.9157366 0.38488942 -1.448077 -1.6833775 -0.5978559 -0.50372714 -0.2097363 0.7427651 -0.84240127 0.53724897 0.68886715 1.2357467 1.325042 -0.2075012 1.0539086 -0.12673838 1.3753104 1.2422295 -1.4096646 2.08224 0.88102674 1.1255131 0.86524504 0.6841123 1.80982 -0.07747887 -0.54866916 0.15060773 -0.7080027 1.1642185 -0.1728283 0.014981497 0.5576406 -0.17614397
219 -0.0953567 -0.19367176 0.47593 -0.04650473 0.09484019 -0.21600226 -0.35284477 -0.54381394 0.40321073 0.18362351 -0.0036929979 -1.229449 -0.20086291 -0.25634053 -0.44087335 0.23946398 -1.4533914 -0.35871753 -0.27408406 0.6017671 0.55138904 0.80776006 0.6248732 0.26190868 0.5962137 1.0847176 1.0026399 0.14641115 -0.03637493 -0.3464163 0.35838166 -0.49752644 -0.19030012 -0.4715526 0.54351526 -0.24694388 0.39766926 -0.34466982 1.8231089 0.24504751
967 -0.20482388 -0.42459393 0.34165087 -0.47809622 -0.7065414 -0.04672519 -0.4277475 0.28843296 0.66288525 -0.57642764 -0.35355216 0.12905824 -0.22955066 -0.26205674 0.23975302 -0.27153787 0.14373878 -0.6334249 -0.6487659 0.5579996 0.3868838 0.82738775 -0.6123611 0.95390725 0.21206011 1.1152856 0.18796535 1.0472887 0.5885872 0.097546004 0.30282113 0.30727613 0.89309704 -0.015143533 0.3566229 0.19623765 -0.57973367 -0.10487531 -0.38605675 -0.28483784
519 -0.69689167 0.5332569 -0.41876292 -0.5205659 0.36400902 0.51081234 -1.2378141 -0.15040253 0.41590273 -1.3945546 -0.3942662 -0.49260128 0.78883487 0.48180363 -0.9061711 -0.31388333 0.608275 0.22861046 0.091582745 -1.5244938 0.103802204 -0.24486768 0.19540352 0.28050548 -1.3512429 0.18501335 0.43094066 1.5532484 0.97368014 -0.17806093 1.6545606 0.53412324 -0.07854275 0.23231815 -1.1064719 1.232416 1.4159164 -0.74523866 0.4225282 -0.5699978
2175 -0.038766086 0.26485395 0.28182948 -0.20380141 0.86654055 0.8271064 -1.0295451 0.062964685 0.81157255 0.33261177 0.17669138 -0.055930972 -0.31217456 -0.029807808 -0.24616449 -0.6566151 -0.38815618 -0.1917034 0.61592007 -0.13521911 1.7384982 0.8354143 0.1760558 0.42901814 -0.081634276 0.51265335 0.09692328 0.6194564 -0.46189487 -0.14284807 0.7995971 -0.18360765 -0.96165705 0.21933363 0.6073222 -0.082789816 0.6196952 -0.21415903 0.6971263 0.061758075
558 -0.3563929 0.1703482 -0.56984454 -0.10755753 -0.039608274 0.69629145 0.15388297 0.26346147 -0.26865438 -0.37341422 -0.037380695 -0.5989274 -1.2523284 -0.65286404 0.40603545 -0.19725996 0.32245913 -0.17160858 -1.5082273 0.11227152 1.2547415 0.073465034 -0.033360623 0.9452636 -0.28524765 -0.5290372 0.43259996 -0.09029911 0.2867112 -0.10542881 0.2585208 0.22482869 1.1309181 0.7402738 -0.1729492 -0.11390382 0.27741262 -0.6724692 0.25843892 -0.17629465
2220 0.8251865 0.11719539 0.21661893 -0.6742314 0.44955796 1.1614066 -0.49968895 -0.59038854 0.37223735 0.18933754 -0.03726588 -1.0890161 -1.4220401 -0.09910695 -0.05073862 -0.40833542 -0.47223195 -0.80043435 0.4715882 -0.22345206 1.1172782 0.18033828 0.6353108 0.22898442 -0.19702847 0.33177015 0.019822108 0.5286 0.89451796 0.15140434 1.0326713 -0.34965652 -0.65456814 0.040623255 0.589939 0.18207511 0.39234227 -0.1361063 1.1886212 0.39866126
1550 -0.082215 -0.43745673 0.19916186 -0.53620297 -0.55850095 -0.15654224 -0.48422426 0.51733375 -0.36609566 -0.8716335 0.14524657 -0.28449437 -0.4831691 -0.13949011 0.3921562 0.43980128 -0.6960326 -0.039146572 -0.7755975 -0.65012777 1.3158139 0.1079176 0.22094068 -0.35113516 0.0036311115 0.12864287 0.094218075 -0.94846874 0.03551583 0.45536318 1.5716553 0.87656033 0.82086414 0.2356341 0.28915626 0.36545828 0.08539526 -1.2365623 -0.07884897 -0.120085225
649 0.23638007 -0.17326997 0.02365135 -0.18699482 -0.7189419 -0.40659335 0.19633093 0.20018883 -0.33057415 -0.21203199 0.8248164 -0.046065763 0.15921137 -0.79974043 0.28865182 -0.29214886 -0.1534334 -1.570192 -0.14765638 -0.2586141 0.18917397 0.7770243 0.60632145 1.1340445 0.04622814 -0.016842145 1.3053921 0.5141347 0.4402952 -0.26669928 -0.47222823 0.60573035 -0.87969494 0.40179121 -0.35208195 -0.17955478 0.89824826 0.65695167 -0.3822441 0.06012366
84 0.43888754 -1.3054966 -0.44877127 0.51119727 -0.5822509 1.6469798 -0.53487194 0.8041318 -0.018411707 -1.4973117 -0.15497155 -0.5930929 -0.25404993 -0.8180297 0.011945031 -0.48328373 -0.41978928 0.63030833 0.2032635 -1.0705956 0.67394656 0.66754276 0.6936384 -0.02180133 -0.33294562 -0.35591617 0.28749776 -0.9672703 0.026890557 0.83127326 1.3967978 -0.2395212 0.6731348 0.77662647 -0.5238698 0.44613358 -0.35153928 -1.2570713 0.27413028 0.43904206
1498 -0.25224552 -0.11268873 0.38233864 0.46571633 0.3635449 0.05016332 -0.0034990008 0.18006535 -0.2255988 -0.8483216 0.8580322 -0.6310513 -0.6367851 -0.47581884 0.44522843 -0.9326886 0.43840995 -0.4818199 0.21687059 0.27940866 -0.14977007 0.67154855 0.07320677 0.030974887 0.6162037 -0.073292345 0.46179676 0.4734157 0.8925794 0.7925687 0.52694046 -0.4812097 -0.24197482 -0.39324307 0.11695553 -0.23451152 1.1548201 0.37069774 0.833667 0.7369888
342 0.21243009 -0.15495035 0.59158105 -1.1069572 -0.40088788 0.39294633 0.7915412 0.66145533 -2.1940043 0.39300394 -0.23883046 -0.1737429 0.64490426 0.9518725 -0.4855557 -1.3338034 -0.6962758 -0.35341445 -0.21017042 -0.56084424 0.4163281 1.7098718 1.1176872 2.8274648 0.8713206 -0.16858914 1.4324471 -0.14754182 1.6294364 0.50089073 1.2641698 -0.45637578 1.9012301 0.3694408 0.67303336 0.74187756 1.1195688 0.10876084 0.6509618 0.109686725
145 0.26159036 -0.40645608 0.5791212 0.2963906 0.24845786 -0.39085874 -1.1330742 0.26743916 0.45178378 0.2308319 -0.28798774 0.029643012 -0.3155806 -0.56348926 -0.07572711 0.059912086 -0.86158967 -0.26612538 0.59514236 1.0386857 1.0232507 0.89882106 0.39175856 0.07657956 0.9401145 0.3003476 0.41896468 0.77498925 0.6061008 -0.15628044 0.55987036 -0.47127393 0.03963445 0.67646325 0.21881029 0.06838233 0.159199 -0.39707404 1.3353546 -0.023849484
2208 -1.2591327 -0.11016971 0.54085886 0.7211155 -1.0719578 -0.6825322 1.1876546 0.6850945 -0.70243996 -1.9326178 -0.10812091 -1.0124424 1.1181222 -1.5670756 -0.84379804 1.2203046 -3.3187003 -0.79577196 0.19526261 0.6799067 1.6633837 -0.82495755 -0.11440577 1.7874796 3.312759 1.7375185 -0.5906064 0.32263654 1.1798544 -0.49587932 1.5971301 -0.83835757 0.2850185 1.2744415 -0.96385586 -0.70756006 1.3291643 -1.023822 -1.6758056 0.49521208
2423 0.13043289 -0.63761264 0.39599353 0.7772827 0.16192256 -1.0878205 0.5319681 0.8072562 0.14037275 0.2743441 -0.20195936 -0.27956676 -0.5875005 -0.191429 0.020278754 -0.18598472 -0.79802656 0.19271451 -0.6588076 -0.962373 0.6261561 -0.626167 0.20772496 0.15890048 -0.13987106 0.47663498 0.58670336 0.2435474 0.08056372 0.23356193 0.80188113 0.48175314 -0.12952104 -0.8747129 -0.28901607 0.20698206 -0.2800937 -0.555518 0.37389806 0.37743378
1333 -0.09631318 -0.24814154 0.044119295 0.28388336 0.4162136 -0.34720758 -0.4387621 0.52096957 0.04354169 0.5923671 -0.8671931 0.090428784 -0.102592885 -0.30796498 0.9799039 -0.0251103 -0.5624044 -0.6722816 0.54951805 0.13583669 0.36008266 0.48310944 0.24705793 -0.17708291 0.9347528 0.73738694 0.5368685 0.45908207 0.24879548 0.053346533 0.6783239 -0.21096157 -0.0020703964 0.60732305 -0.25487542 -0.82145584 0.36102974 -0.33518377 0.65770584 0.2659714
995 0.54189503 0.110082895 -0.104052566 -0.14109628 1.3613228 -0.32088986 -0.9645024 -0.28122905 0.653437 0.524664 -0.30412683 -0.26577842 -1.0552328 -0.021897586 0.5267494 -1.3558351 -0.34679186 -0.7319481 0.38746795 -0.35332188 0.4693011 0.56863815 0.4837202 0.2424568 0.30088693 1.225835 0.51347184 0.30108735 0.97448015 -0.14611965 1.2952886 -0.6171764 -0.13888101 0.47829294 -0.37117693 -0.09258342 -0.60501665 0.22414115 0.92131394 1.214756
415 0.36933577 0.12732424 0.21500424 0.21008243 0.17086414 0.03076165 -0.44622192 -0.28004816 0.08524321 -0.5033294 -0.37271905 -0.39839002 -0.7548978 -0.4194603 0.6922216 -0.74930334 -0.77485144 -0.3282029 0.56123024 0.03699232 0.470049 0.44212005 0.23931634 0.6242127 -0.19364768 1.0415237 0.5856807 0.16154656 0.39389253 -0.522809 0.23932052 -0.6192849 -0.61335474 0.58059186 0.3083328 0.015430777 0.121287696 -0.15869793 1.3593521 0.4992218
583 -0.61787283 0.5539582 0.81524837 0.8015559 0.1637912 -0.7107864 -0.41069105 0.36476618 -0.05053024 -0.8978307 0.6980292 -1.9590765 -0.9179934 -0.8208605 -0.8358058 -1.1161636 0.6077901 -1.0623201 0.3827874 -0.58048797 -0.07663369 0.10278655 0.41810212 0.04743747 0.6833827 -0.7076272 0.7852052 0.4601736 0.9170617 0.41042787 0.42937335 -0.4314315 -0.71907735 0.08103892 1.197226 0.34001544 0.56817997 -0.6260961 0.36569685 0.9145221
538 -0.104585215 -0.38972574 0.5117663 -0.21729697 -0.15862983 -0.3571964 -0.29704237 -0.7379561 0.26587623 -0.18953377 -0.31076255 -1.2102094 -0.4269167 0.050919663 -0.464361 0.0781924 -1.7248398 -0.37674 -0.7160695 0.69356626 0.11365589 -0.07515094 0.57931006 0.49800614 0.102252044 0.6066754 0.48406994 0.6963224 -0.19902946 -0.22609328 0.34678772 -0.28912643 -0.33728212 -0.22092713 0.4721414 -0.016404098 0.8878584 -0.36509147 1.6296663 0.8754316
1687 -0.8798896 0.1686688 -0.3172154 -0.18791285 -0.098686956 -0.13261895 -0.56226426 -0.17589773 -0.7021338 -0.38181585 -0.031254258 -0.9265403 -0.75356674 -0.39678174 0.27552325 -0.15658037 -0.5824486 -0.54690504 -0.26633972 -0.15633059 0.08278602 0.6701386 -0.14421822 0.5250761 -0.5982466 -0.22609341 0.9503556 -0.023978299 0.41197398 -0.5827548 -0.29995364 0.60659647 0.40271908 0.44402495 0.07542894 -0.48918694 -0.29762042 -0.27437437 0.42980155 0.48475376
1718 -0.23883371 -0.36053836 -1.1699893 -0.8499103 -0.058326654 -0.35337186 -0.9808252 0.47766152 -0.0767493 -0.08338697 -0.16171858 -0.0034919255 -0.11811331 -0.5299308 -0.83753294 0.13431521 -0.618921 -0.0020004006 -0.352729 0.13059476 1.5211481 -0.22703385 -0.23966877 -0.05040752 0.1443012 0.99519193 0.6277363 -0.23618987 0.45219943 -0.028668493 0.012890178 0.24374892 0.18706906 -0.42109296 -0.31202325 0.3097409 -0.11807996 -0.25025338 -0.24769266 0.84490097
1854 1.3911786 -1.4874632 -0.47898468 0.33431998 -0.89305466 -0.2592075 -0.78761166 1.8861905 0.90089154 -1.5143223 1.3754419 0.34184533 0.8404934 -0.124392785 -0.12569709 -1.2060133 -0.5612687 -2.4960136 -0.85377383 0.53317535 0.16910055 1.4297206 -0.3103026 -0.08917111 0.04863533 0.047973033 0.44827873 0.501369 0.31602517 -0.62326443 0.70660746 -0.66800207 -0.6066325 0.034323603 -0.06598498 -0.46234807 0.7144856 -0.46959242 -1.3657769 0.854937
738 -0.28480217 -0.13947313 -0.14573854 -0.057036493 -0.10671916 0.028587226 -0.17520358 0.56717134 0.18702015 -0.71403533 -0.74270487 -1.3072597 -0.3869598 -0.15039897 -0.06408933 -0.25781453 0.15936054 -0.84559405 0.6213421 0.028634302 0.38048327 0.059007913 -0.050582178 1.015152 -0.11736104 0.44222802 1.1489204 0.6233522 -0.46641412 -0.85061425 0.09949574 0.63921595 0.54608464 0.8001314 0.24665363 -0.63163894 -0.4426001 -0.68918973 0.04711264 0.14132698
1595 -0.025499273 -0.22067346 0.19533658 0.21835814 0.21166989 -0.19217132 0.6748941 0.28597358 0.8368921 0.13170514 0.18160507 -0.12228775 -1.8052686 0.14666623 -0.67595786 0.23094194 -0.22384198 -0.7539849 -1.0023633 -0.50344336 -0.6138663 0.7136726 0.5506787 -0.29991928 0.10168151 1.2609183 0.39503026 0.8128425 0.22905983 0.87155175 0.68031836 0.317493 -0.26759082 0.50431013 -0.46899694 0.13332544 0.1345713 -0.42221543 -0.62693584 0.41291386
1335 -0.25360733 -0.035533458 0.65284336 0.039377954 -0.56887555 0.22388822 -0.17104702 1.1652608 0.8475327 -0.3091145 -0.8610298 0.13540342 -0.122913286 0.41974333 0.7968576 -0.33753297 0.12685224 -0.15703896 -1.1378474 -0.23515658 0.7288241 0.53164595 0.39735505 0.50680965 0.069218755 0.1985378 -0.115073614 0.997452 1.1147829 -0.030414708 0.1275766 0.018118612 0.40121976 -0.3275176 -0.35844076 0.9115508 -0.30701664 0.09513536 -0.19172576 0.5554181
479 -0.26647124 -0.11715459 0.17765735 0.39461055 -0.5907462 -0.572939 0.008371869 0.39563048 0.53143567 -0.15397775 0.6268757 -0.105334416 -0.55659825 -0.21603352 0.104345396 0.027924167 0.094084814 -0.92805994 -0.8740576 -0.4933967 -0.050264318 0.5562278 0.26116523 0.71255815 -0.0470623 -0.4966283 0.71479857 0.8880416 0.34044942 -0.5371197 -0.24481942 0.93213004 -0.5780227 0.22362784 -0.2677715 0.04208285 0.66357416 0.41413563 0.20243026 -0.03601773
15 -0.26831484 -0.42140502 0.45615613 -0.28265923 -0.3788379 -0.7652583 -0.31065574 -0.66058165 -0.0827056 -0.15507112 -0.13122965 -0.3029659 -0.2516846 0.15357226 -0.31610158 0.09360978 -1.0295178 -0.14646533 -0.8083884 0.47947934 0.08240364 -0.29607284 -0.063195154 0.86346537 -0.5415479 0.2713957 0.14138314 1.0931634 0.07565663 -0.44562173 0.42534658 -0.18489948 -0.28634754 -0.13368267 0.045985498 0.7984221 -0.14635962 0.10962542 0.70891523 0.93181694
1234 -0.2885486 -1.5236799 0.8290859 0.68912834 -0.3186873 -0.17077419 0.55400324 0.8135494 -0.13486838 0.16484258 -0.6416867 0.02250852 -0.3612175 -0.043522518 0.5220945 0.6061534 0.2920408 -0.94599855 -0.29556644 -0.13664399 0.14342952 -0.18489619 1.2033858 -0.37715745 0.1706228 0.5600125 0.6866816 0.26013693 0.76845044 0.3113149 0.3315712 0.29913402 -0.47246686 0.9203897 -1.747301 -0.35303938 1.4651976 -0.94214696 0.1015192 0.13255832
1003 -1.1287053 -0.8290889 0.9058786 0.25545594 -1.1373968 -0.23679323 -1.0477028 -0.9223935 1.4845036 0.19665104 -0.22494051 0.48599413 -0.28702974 -0.09637461 0.9315841 -0.08190977 -0.5444809 -0.3612138 0.4518187 -0.62058944 0.67461306 0.67979854 -0.04347431 0.8571457 0.07785565 0.20270944 1.8021953 0.7379654 0.7786374 0.3969114 1.1788318 0.06773814 0.28180856 -1.0850165 -0.41694367 -0.88684857 0.3209415 -0.7510307 -1.2539357 -0.15246835
1016 0.14805332 -0.7599979 0.21904801 -0.35703185 0.12382537 0.11404336 -0.55895543 0.62036103 0.29657763 0.41648227 -1.0055182 0.4550222 -0.511457 0.012803688 0.43569034 0.1845982 -1.3055133 -0.8171998 0.9713688 0.76588917 0.6841306 0.6790986 0.28902274 -0.09756314 0.9366744 -0.5116801 0.45744556 0.945764 -0.012525091 -0.16238573 1.0077665 -0.53259385 -0.93294096 0.8551917 0.24708277 0.3537492 1.188755 -0.8607854 1.0657704 0.6538745
667 0.9683947 0.46214938 -0.19959962 -0.14298756 0.6891501 0.018460149 0.11030228 1.317802 -0.6776583 -0.81931823 0.013475153 -1.3432069 -0.6689834 -0.7936918 -0.26105174 0.4141672 -1.3268523 0.52906555 0.031691853 -0.52175707 0.78496236 0.40766442 -0.35337198 0.7778091 0.073003136 0.67514336 0.96193886 1.7174631 0.13355452 0.08031099 0.5279652 -0.4785286 0.47494352 -0.8804901 -0.7007377 1.0818928 1.4265109 -0.32879013 -1.6124418 -0.45607573
88 -0.16966598 0.358761 0.42197886 -1.3437937 -0.3669384 -0.29044822 -0.25079706 1.4791491 -0.10690066 -0.0058806688 0.41157097 -0.22858793 0.108646005 -0.5549627 0.7311738 0.3130587 -0.20696801 -0.90597665 0.015805567 -0.98071396 1.0769427 -0.32663643 -0.34733978 -0.06118354 -0.049513124 0.3068699 1.2672036 -0.25303787 0.60494137 0.41343498 -0.16963653 -0.14928779 -0.33610877 -0.31529725 -0.98608553 -0.897907 0.6953098 0.0663524 0.6290622 0.48294908
1512 -0.55382276 0.10321615 0.33009005 0.4656343 -0.35289147 -0.08353301 -0.6206745 0.73662174 0.41484967 -0.13736483 -0.26760742 -0.71364254 0.6960323 0.64647907 0.39523375 0.13512067 -0.34148094 -0.13318136 -1.1702852 -0.653967 0.42746902 0.2334577 0.64798856 -0.02407084 -0.34128502 -0.048079 0.32152507 0.37243003 0.71723324 -0.103403054 0.3754107 -0.22351117 0.7365738 -0.5751118 -0.43727663 0.66549504 0.14964615 -0.33621585 0.05780033 0.23893309
477 0.13060938 0.34357625 0.38308755 -0.23927172 0.32798287 -0.2347291 0.42738807 0.31073862 0.10694993 -0.5028775 -0.51004267 -0.33661306 -0.6680194 0.0543631 -0.95682615 0.53242743 -0.13544655 -0.38767323 0.15140478 0.26639447 0.5141476 -0.11927472 -0.038407814 0.5439688 -1.0325539 0.36126053 0.9850915 0.4357994 -0.099715 0.13246752 0.11010888 0.7900521 0.22156417 0.3448252 -0.15724711 -0.05496554 0.17556153 -0.23482853 0.13381305 -0.041473616
848 -0.099883676 -0.637514 0.5359799 -0.07553064 -0.9264832 0.2480089 -0.23933345 0.114428565 0.90429026 -0.40985334 -0.5791254 0.33916348 -0.69655323 -0.268713 0.7448492 -0.17664018 -0.0009067154 -0.5438575 -0.7191519 0.07917546 1.0858008 0.80417776 -0.0721786 1.2105243 -0.023518372 0.72856504 0.23397672 1.0030093 0.97822934 0.47250116 0.084382184 0.2178426 0.7135759 -0.056688383 0.13122633 0.44009086 -0.30483985 0.25270203 -0.9396654 -0.22497752
577 -0.44445938 -0.085036606 -0.19531614 0.2786931 0.49126637 0.62137085 0.2851437 0.1501719 0.2629333 -0.47391927 0.3732809 0.15922533 -1.0627304 -0.27271283 -0.6932321 -0.06885742 -0.20127495 -0.14964817 -1.324817 -0.10781465 0.9691701 -0.22131018 -0.21903433 0.6929395 -0.5744897 -1.0208154 0.29067206 -0.022342399 0.68884003 0.20538153 0.5009328 -0.30935478 1.0647651 0.12057185 -0.57486254 -0.507137 0.67486393 -0.7992727 -0.0011151892 -0.017570138
687 0.21039155 0.6762818 0.060525235 0.4055867 0.50505096 0.20360494 -0.6208644 0.007452151 -0.42675668 -0.34536377 -0.85134304 -0.15731373 -0.7379719 0.7355035 -0.8988752 1.0860882 -0.4895989 -0.19494045 0.007933259 0.510461 1.0642715 -0.08720238 -0.17632525 0.7569388 -0.3051334 0.694207 1.083918 0.13334015 0.18656273 0.57366204 0.39670652 -0.3859022 -0.29659745 -0.687973 -0.17098296 0.72155654 -0.11468439 -1.0325841 -0.37718362 0.123968095
1218 0.10200385 -0.26261017 0.87619036 0.07879817 0.06842646 -0.22735484 -1.1482376 0.52513033 0.5851789 0.42847806 -0.3912408 -0.34675276 -0.5557319 -0.39994627 0.08007851 -0.04216681 -0.5351977 -0.23345672 0.48921838 1.3707036 1.0341685 0.032034546 0.32160142 0.013906924 1.1380674 0.6279688 0.5423607 0.45211536 0.59892505 0.14599417 0.7235426 -0.66782117 -0.53624165 0.8494802 0.3156028 0.36397877 0.22506686 -0.77513963 1.2614504 -0.25238213
1696 -0.192246 -0.17758396 0.09499725 0.23738378 0.9774836 0.8223105 -0.9270913 -0.0185257 0.5686846 0.36321682 -0.4917692 0.38319007 -0.26384825 -0.2411685 -0.19919792 -0.4849155 -0.6120903 -0.68740565 0.46660736 0.23975831 0.8161009 0.3693815 0.1372944 -0.16446951 -0.0754414 0.7297198 0.10080041 0.7077811 0.062981136 -0.31052306 1.0817741 -0.25040415 -0.52446175 0.49998504 0.5376444 -0.07473152 0.29901674 -0.49772114 0.97453994 0.31165847
204 -0.047920972 0.68085545 0.33418238 0.7058434 -0.19534796 -0.00812306 -0.043653525 0.3442615 -0.26236314 -0.14702581 -0.72826344 -0.2579648 -0.79208314 1.1020043 -0.97052556 0.3738623 -0.15794149 -0.51537114 -0.020806704 0.038928118 0.59253925 -0.598706 -0.17808005 -0.32527122 -0.81931126 0.8889622 1.3784562 0.2242038 0.65260196 0.74855876 0.31655717 0.31661794 -0.22274548 -0.011103316 -0.06861458 0.3243027 0.112247266 -0.4731748 0.31568724 0.27590734
2334 -0.042438015 0.055628374 -0.1670015 0.26016986 -0.57626516 0.14702025 -0.6398216 -0.10477178 -0.09215174 -0.68802434 -0.48815382 -0.12635402 -0.42237654 -0.35686392 1.1435645 -0.67276627 -0.54417115 -0.43829432 0.6732001 0.3742208 0.4769228 0.36612126 0.25216833 0.80854356 0.025318928 1.3643234 0.6091292 0.33684987 0.6003993 -0.4892004 -0.030123366 -0.64267474 -0.6460414 0.8266668 0.5000007 0.23577684 0.25779906 -0.6901151 1.2802593 0.5511066
735 -2.2742314 0.47645476 -0.24289238 1.4655874 -1.181299 1.5092996 -0.094457425 0.4172917 0.29881477 0.7652691 0.6035688 -1.2366959 -0.060857147 -0.7028549 -0.17673929 -0.5166131 -0.65664136 -3.4583368 0.6132512 0.4232755 2.61733 0.08949479 1.3612112 0.45597324 -0.8018223 0.2081955 0.01920684 -0.22831538 -1.4419273 1.2676063 -0.24541631 -0.7912883 -0.14945808 0.35196364 -0.28180963 0.2932933 0.2888382 -0.067223296 -0.3097523 2.9991722
2275 -3.1367636 -0.9844016 -0.23727626 -2.4692929 -0.22669242 0.21779227 1.3971107 0.50482666 -0.56731004 -1.0411197 -1.8614651 -0.458091 -1.3070819 0.4993859 -0.0331335 -2.2796326 -1.164873 -1.7259909 -0.18449956 0.52471966 -0.4271153 -0.7720061 -0.53473115 0.5601174 -0.26788127 1.0169686 1.4968035 0.9285328 -0.39339766 1.9446808 0.7131145 -1.8724556 0.86081934 1.188539 0.2273001 1.9479603 -0.0994705 -1.2475257 0.62362194 0.09863283
562 -0.7762613 -0.032011896 -0.31903166 0.24088466 -0.38232443 0.22858705 0.51890767 0.36859754 -0.09088142 -0.9075265 -0.6730699 -0.50897676 -0.14079595 0.12900998 0.61180604 -0.13174316 0.33182296 -0.8883178 0.377025 -0.045933712 0.754326 0.08001342 -0.6675529 0.08963036 0.09799789 1.1827667 0.6668104 0.7061851 -0.2591973 -1.1520643 0.17091109 -0.27627635 0.6079947 0.109913 -0.27387896 -0.16844991 0.13757518 -0.49830082 0.42493594 0.34479514
965 -0.9793111 -0.22935 0.616487 -0.842309 0.67649204 -0.27222762 0.13898972 0.87720406 -0.24045117 -0.18606988 0.37287188 -0.5920718 -0.11092149 -0.91247314 0.46434626 0.41684934 -0.4484127 -0.4341712 0.38342455 0.52326846 0.4076268 1.5652303 -0.09837021 0.49021363 -0.025538715 0.3159176 -0.14240076 1.0407653 -0.261243 0.2638431 0.80336356 -0.74653816 -0.46961346 0.23046564 0.27870908 -0.70185 -0.12412171 0.047213215 1.0241612 -0.5686043
350 -0.45708063 -0.24240996 -1.0005774 -0.5569943 0.3392971 -0.38119435 -0.70629364 -0.092502736 -0.6341036 -0.6525299 -0.30110055 0.48742276 -1.0170286 0.4889626 0.08971338 -0.21162052 0.014595441 0.38540444 -0.28067124 0.30112582 1.2291192 0.4438623 -0.22199738 -0.7300817 -0.7475141 -0.014608003 1.4097569 1.1620455 0.11450699 -0.587421 -0.2607566 0.06713407 -0.053528458 -0.2232081 -0.5497716 0.77318645 0.5369782 -0.72169024 0.08576452 1.4114605
719 -0.80286443 0.084176645 -0.5754365 -0.46296975 0.14501883 -0.57048565 -0.3831809 0.87667876 -0.011062809 -0.6308629 -0.042036887 0.38601467 0.19572052 0.5599663 -0.18547769 0.27376616 -0.11412828 -0.834798 -0.7587644 0.25109994 0.28906074 0.48310795 1.0431235 -0.06588801 -0.6164114 0.46428984 0.87221694 0.47519803 -0.15144178 0.16893768 -0.02868979 -0.29200718 -0.10077516 -0.4121179 -0.31674257 0.41625398 -0.3169904 0.39635828 -0.03231604 -0.528771
1268 -0.21094307 0.47094816 -0.06824449 -0.15562728 0.66573393 0.5021412 -0.30198008 1.3774341 -0.2703225 -0.74046206 -0.118900076 0.6071551 -1.4060318 -0.15520377 0.56002975 0.23107556 0.18726578 -1.0716738 -0.5771963 0.8644755 0.84646976 -0.17168821 1.0314624 0.93540365 0.24856415 -0.7670928 1.3068336 -0.42693338 1.2043107 -0.7492746 0.6847665 0.2892415 1.116897 0.44719824 0.5685493 -0.7095866 -0.06308866 -0.4927778 -0.91646844 0.5335621
258 -0.85288364 -1.0473866 -0.96921295 0.10077945 0.66561323 0.71583664 0.27307668 0.77907014 0.12188651 -0.7387617 1.6906394 -0.2546368 -0.32605052 0.32282758 0.8054709 1.201741 0.3872101 -0.42248753 -0.73519164 0.18354245 0.33372697 -0.20459965 0.44025713 1.507334 0.5646142 0.65360266 0.95501906 1.4943252 -0.44786042 -0.05185563 0.4658126 0.33630672 0.413056 -0.38489792 -1.5240724 -0.7186332 -0.2800857 -0.30212578 0.12308052 1.009268
668 -0.27318403 0.69713795 -1.246352 -0.6981488 0.039536506 -0.32667735 -0.9895365 1.1103152 0.25133786 -0.15039161 -0.41270983 -0.21548255 -0.4110511 0.04142717 -1.0574551 0.71514404 -0.90061766 -0.20346934 -0.34076476 -0.31875053 1.3343272 -0.07629023 -0.040819656 0.7798182 -0.0629865 0.70641875 0.1811199 1.0229565 0.31408665 0.17027311 -0.5134864 -0.025446847 -0.024854666 -0.57639897 -0.5088399 0.20666686 -0.16103503 -0.8014173 -0.284239 0.29527044
1174 -1.0943463 0.37566844 -0.069873855 0.116487086 0.18351048 -0.13863234 0.044735726 0.66471946 0.23291169 0.3497182 0.41870075 -1.0162766 -0.1495044 -0.271381 0.37979904 0.43201652 0.62562495 -1.0256845 0.33596063 -0.28114823 -0.30855957 0.46458733 0.0030774605 0.2492226 0.57258254 0.9504756 -0.34876353 0.782148 0.18232532 0.44219348 1.2553799 1.0123004 0.31494218 0.897154 -0.7249127 -0.41466528 0.7363711 -0.14988588 0.4076845 0.005019391
1123 0.1926834 -0.8946922 -0.0026229154 0.42389855 -0.06957512 0.3396966 0.20709938 0.52690953 0.014574014 -1.4204077 1.1534169 0.36024088 0.587602 -0.012401357 -0.41782779 -0.7096525 -0.7560285 -1.5024874 -1.3694363 0.39618123 -0.21553853 0.35990953 0.19527534 -0.68002975 -0.31540105 -0.3713294 0.79016507 1.1598065 0.6297722 -0.55993736 1.0297986 0.13869105 -0.95144695 0.22650617 0.41975865 0.63546336 0.9124647 0.12251524 -0.40664044 0.5064794
772 0.41993907 -0.7250861 -0.39060596 0.096365474 0.34282246 0.9929 -0.43374822 0.41304734 0.4443732 -1.4172848 0.44330436 0.32898238 0.4811291 -0.54872143 -1.0473546 -0.078468956 -0.6515345 0.27034816 -0.5372106 -0.69853693 0.28044575 0.2275905 0.6360941 0.876496 -0.12985376 -0.94150704 0.9384001 -0.2553801 0.31293687 0.34690982 0.30578312 0.18546872 0.9547214 0.5845904 -0.67000693 0.068121046 0.14307952 -0.88580173 0.9034224 0.669529
1079 -0.26153934 -0.19394015 -1.0438153 -0.56845176 0.24262406 -0.08470095 -1.2757063 0.6671891 0.24904661 0.18227892 -0.79842234 -0.34047708 -0.20033275 -0.5421342 -0.8789805 0.004705573 -0.70138323 -0.032797437 -0.21356899 0.31168756 1.4076037 -0.13029641 0.44256216 0.5636976 0.19963744 0.50894946 0.31662062 0.68706733 0.09272283 0.12469247 -0.13912722 0.35722277 -0.4045047 -0.40645948 -0.5691785 0.31706926 -0.120800436 0.1672784 -0.26373625 -0.102674045
456 -0.60564977 -0.6840891 0.15794536 0.2150296 -0.52244115 -0.50252676 -0.2613948 -0.2083679 0.38585684 0.49066824 -0.28167745 0.48406067 -0.33755037 -0.18612634 0.66842735 -0.3879948 0.044692997 0.06722084 -0.22872154 -0.013892876 0.5260523 0.18045335 -0.2006824 1.1598617 -0.18272628 -0.040340528 0.5129325 0.89588755 0.53518605 0.3193077 1.1723467 0.5393644 0.47058806 -1.2267085 -0.1443639 -0.63201 0.6434228 -1.2301635 -0.5855771 0.3218314
1463 -0.015712298 0.20371255 0.20215201 0.40476027 -0.061759964 -0.09733562 -0.50280833 0.8327678 0.34939846 -0.2151405 0.014556488 -0.6963075 0.5473914 0.9125186 -0.040765043 0.21381779 -0.5042226 0.4725837 -0.9950042 0.05253532 0.905897 -0.25839004 1.0237963 -0.12015162 -1.0671743 -0.14415404 0.2725685 0.7725028 0.6721886 0.046575807 0.84659976 0.28598619 1.0951548 -0.25548467 -0.18660985 0.5876461 0.06494531 -0.5696123 0.06176254 1.0660161
539 -0.24201162 -1.7516649 -0.56791466 -0.04170735 0.73198956 0.31563404 1.056991 0.14544344 0.33716506 -1.5174 0.51636195 -0.8409308 0.49445748 0.29010573 -0.5705312 -0.37881684 -1.0302323 -1.9784733 -0.3929279 -0.3057681 -0.52714336 0.5332871 0.7039528 -0.061880533 -0.37478185 -0.28839186 0.90186834 1.1318296 0.46708328 0.10436071 0.38714474 -0.90922487 -1.2247283 1.314526 0.5939854 1.5864033 1.5728674 -0.35560274 -0.9608648 0.79458076
318 -0.44887373 -0.6283432 0.62661844 -0.2007372 0.54350746 0.25759056 0.8632584 0.5770589 0.42681587 0.15548101 0.52485037 -0.04265052 -0.07218214 -0.33420506 0.7490294 0.26211488 -0.84355015 -0.5441441 -0.3496489 -0.4089579 -0.35593522 0.20601033 -0.18935299 0.0052016554 -0.07605023 0.6872683 0.99580353 -0.30169365 0.5918714 0.699137 0.7403916 0.97708976 -0.47056067 0.49328157 -0.68931067 0.3802948 -0.2394556 -0.43758687 -0.15714593 0.73463976
1428 -0.16209245 -1.0497653 0.9493607 1.0961771 0.16006412 -0.5289662 -0.70882875 0.6771476 0.009467996 0.52873456 0.16443177 -0.924661 -0.39880258 -0.55084884 0.046088167 0.5945424 0.107566975 -0.75562364 -0.3386889 -0.6257224 -0.10576747 0.24917783 -0.35697705 0.072915435 -0.4332999 0.39609328 0.91877973 -0.13454106 0.8112618 0.6966477 0.42483 0.77128386 0.27646327 -0.05201507 -0.6477209 0.6935312 0.43510234 -0.7216705 0.4123863 -0.11907941
36 -0.048183896 0.7867705 -0.28198504 0.37572202 0.908528 0.2780936 -0.010779671 0.5035781 -0.8178034 -0.5166468 -0.15722468 -0.9035661 -0.9998326 -0.012680439 -1.0113004 0.48862725 -0.8640871 0.40647033 -0.58747375 0.18843853 0.47108087 0.10205466 0.3948142 0.66928434 -0.25048107 -0.49423292 0.8150668 0.9549781 0.2381111 0.6171484 0.3705887 -0.7409007 -0.08757168 -0.48550522 -0.9070263 0.099861406 1.295823 -0.29590634 -0.8604321 -0.7293334
1378 -0.23276122 0.3972211 -0.04626426 -0.10549705 -0.15755393 0.34441844 0.4865968 0.10522589 0.105188794 -0.5801273 -0.13205975 -1.0243737 -0.17748171 -0.35777643 -0.12045194 0.039458964 0.22995082 -0.9286298 0.41023472 -0.015351903 0.50633353 0.32698798 0.3912102 0.6666115 -0.6134148 0.2997013 1.1487918 0.77983195 0.35980093 -0.5653329 0.42134622 0.54756033 0.4004433 0.79947084 0.17544469 -0.51765263 -1.0671043 -0.15959056 0.17553537 -0.124545485
2426 -0.57979053 -0.8351823 1.33156 0.60530585 -0.34487784 -0.22296894 -0.3027357 0.69414765 0.33162782 0.16493519 -0.28810152 -0.28827554 -0.15847531 -0.020724928 0.20689234 0.62374455 0.4223466 -0.8630318 -0.0008250674 0.17616558 -0.27992284 1.179518 -0.12616865 0.40600255 -0.4573565 0.6242723 1.1865479 -0.012559309 0.7569683 0.59607995 0.09358601 0.5309714 0.16667618 0.8018428 -1.3951422 0.92367417 -0.38179836 -0.29387525 0.1400303 0.025256228
1491 -1.0423782 0.16081089 -1.7097602 1.4732076 -0.8333924 -0.432513 0.1789976 -0.33807027 -0.0923473 0.10965 -0.9841118 -2.121011 0.44826517 -0.28924102 -2.361271 1.8597984 0.5426117 -0.9013757 -0.48800707 0.7072298 0.20916325 0.90214235 1.8682773 2.3821132 -0.18234512 1.3324858 1.5217042 -0.39500135 -1.3873683 -1.796627 1.3524313 -0.900668 -1.2360847 -0.089570284 -2.0037022 1.3933576 -0.41385096 -0.9946284 -0.015220244 1.0877426
560 -0.34033403 -0.7623994 -0.50872874 -0.76004916 -0.5327288 0.22542661 -0.45564544 1.2773478 0.4030018 0.39993367 0.48014694 -0.0071262456 0.25388667 0.794836 -0.32814443 0.20021321 -0.02374537 -0.55315155 -0.25369096 -0.052025456 1.364625 0.18916674 -0.66603506 0.41605732 0.4859342 0.2314709 0.5822146 -0.113455385 -0.12523112 0.29986736 1.0180825 0.65470874 -0.31484142 -0.42355293 0.36416233 -0.45646003 0.13679755 -0.45339686 0.47050387 -0.6315725
1112 -1.3628972 0.27738327 0.21962799 -0.055683076 0.34503254 -0.18696879 -0.39904338 1.2730402 0.102662064 0.14939347 -0.19563214 -0.35640982 0.5212386 0.38080394 0.4551795 0.6042723 -0.043540146 -0.43150777 -1.127714 -1.0819353 0.7076932 0.27432114 1.3047396 -0.35201633 -0.460886 0.5408869 0.64190984 -0.09445247 0.24710488 -0.22515786 0.5516863 -0.12259939 -0.012965901 -0.83472216 -0.22268207 0.35871884 -0.2340345 -0.33495918 -0.12417582 -0.188341
345 0.16003118 1.1525755 -0.67010176 0.25828257 0.24232481 1.2263575 -0.30473667 1.235868 -0.036608562 0.17056072 0.25179428 -0.64070493 -0.3007625 0.453373 0.06735025 -0.1265075 -0.865783 0.33678138 -0.05012668 -1.229891 1.1217518 -0.36600333 -0.4525043 0.86583996 -0.1627655 0.55053055 0.3528815 0.41860315 0.5534922 0.32445207 0.6071676 -0.44876042 0.15256712 0.16210936 -0.64207274 0.36003572 -0.29575118 -1.4053224 -0.27767184 0.044064015
1326 0.108226195 -0.2548317 -0.43763158 -0.43399578 1.057035 -0.37055188 -0.34094906 0.53646183 -0.46372592 -0.8517505 1.236066 0.75039333 1.3995633 0.1635893 -0.9790364 -0.41345042 -0.42128825 -0.49416175 -0.21901895 -1.3741864 -0.17295161 1.0800654 0.5746325 2.365583 0.3690558 0.117732674 1.2442057 -0.14377339 0.23214193 0.51180756 1.0614973 -0.13032755 1.5034381 -0.23319618 -0.0030718036 0.30834836 -0.069830455 -0.5723625 1.0030495 1.2061626
1117 -0.1254622 -0.047202785 0.034138266 -0.08334523 -0.77257615 0.7429232 -0.021847278 0.51202005 0.027174031 -0.09116418 -0.57563 -0.43013674 -0.106615536 -0.16535378 0.7665014 0.16870737 -0.13490671 -1.0742369 1.0149878 0.6281251 0.45381168 0.66733736 -0.16169077 0.09981018 0.19684762 1.4921335 0.18522227 0.2707183 0.16390637 -0.35107857 0.75966793 -0.45526734 0.13482548 0.58013797 0.3289602 0.024309123 0.679533 -0.88820267 1.4419446 0.2127172
1305 0.4081284 -0.40695205 -0.015353323 -0.45848414 0.25868088 -0.045603212 -0.5773281 0.79578143 -0.015774634 0.4647277 -0.24858522 0.23738316 -0.49811763 0.073480584 0.25533038 0.432555 -0.75822055 -0.16848001 0.918732 0.8639374 0.6269818 0.85173047 0.11536033 -0.24219204 0.68031466 -0.35685512 0.43272328 0.7163695 -0.08117581 -0.07162156 0.9476273 -0.6287608 -0.7812368 0.3729762 0.020345049 0.14573982 0.44972438 -0.59081507 0.86247015 0.85394365
251 0.07183791 0.59513545 0.68772024 0.18289553 -0.5529822 0.27039412 0.12849377 1.5257583 -0.78620255 0.24148418 0.07245521 -0.18275644 0.79375875 -0.42084736 0.94407195 -0.094870985 0.54172564 -1.4336454 0.46913204 -0.27422452 0.317046 -0.62249434 0.23221032 0.5295805 -0.12273393 0.22537245 2.0383549 0.20951468 0.9582256 -0.50276595 0.13899972 0.10519014 -0.8315024 0.16417181 -0.5327895 -0.6431767 1.0820173 -0.17085156 0.35209844 0.59537894
1287 -0.00974301 -0.39095008 -1.1227636 -0.37270904 0.20689446 0.009924398 -0.9935601 1.2535337 0.03467631 0.0059686867 -0.27641708 -0.5126268 -1.1357577 -0.90280354 -0.75885284 -0.15037496 -0.2525767 -0.21313587 -1.071053 0.6294741 1.273973 -0.35541654 0.96652925 0.6450608 0.7461494 -0.9331172 1.0959435 -0.2686712 1.1550279 -0.37586316 -0.08377893 0.3525745 1.1830407 0.16423787 -0.046435226 0.24782456 -0.1306474 -0.5826547 -0.4946087 0.20257114
636 -0.37205207 -0.6739022 -0.09066798 -0.33216712 0.053081647 -0.23038524 0.29841575 0.79223496 -0.37292185 0.075753376 -0.26340032 -0.5178861 -0.3609197 -0.77359444 -0.38196117 0.3318245 0.008140309 -0.89583826 0.22032817 0.68579197 0.58388066 1.092135 -0.1340183 -0.073134564 -0.7136958 0.5500003 0.84894174 0.44333544 -0.8231636 -0.5445623 0.04028552 -0.33318758 -0.19511738 0.66930515 0.16608268 -0.12837364 0.102828614 0.020252027 0.5902482 -0.26543936
1215 0.071054675 -0.2281224 -0.43550387 0.45522425 -0.1713359 -0.25097173 0.77589893 -0.37053382 0.15321153 -1.0753995 0.31381553 -0.61075616 -0.115747325 -1.6403067 -0.5940828 -2.0539196 -0.0881267 -1.4699128 -0.71282107 -0.34964406 0.29888484 -0.3867493 1.8351234 -0.25548783 1.1490449 0.07303017 1.0507203 0.4092584 0.10046858 1.1817226 1.1861122 -0.8802962 -0.36414522 -0.003021325 0.30662614 -0.74833965 1.3701416 -1.0078189 -0.18688309 0.6805889
571 -1.2079523 1.0551913 -1.2230458 1.329525 -0.39907673 0.57776034 0.22081849 1.0365746 -0.616452 -1.2084932 -1.027279 0.5869157 0.34806752 -0.44375655 -0.72256255 -1.6033318 -2.341791 0.77016973 0.068121724 0.09569082 2.0289474 0.20757303 0.4716412 0.66798705 0.795926 1.3669758 2.383218 -0.64797854 -0.5847836 2.0620615 0.34632954 -0.703786 0.65131134 0.90678 -0.02460316 -0.07101891 0.5861755 -0.5127387 -1.2342671 0.08723429
465 0.04150103 0.05885046 -0.11220862 -0.01820221 -0.19478515 -0.24012004 0.20003703 0.63081914 0.038209647 -0.18311629 -0.6296544 -0.452031 -0.3978912 -0.7689599 -0.5972913 0.19161914 0.19128923 -0.90036935 0.24673775 -0.12490052 0.7269595 0.6053477 -0.06822699 0.30175233 -0.65383023 0.45274544 1.4170313 0.5660615 -0.5847898 -0.75493455 -0.30877477 0.20476526 -0.087535575 0.46850568 -0.22096753 -0.4026021 -0.2592507 -0.2987914 0.50967085 -0.0044646612
467 0.05434761 -0.2745168 0.59190035 -1.114801 -0.63509065 0.5367763 1.0959933 0.42835855 -2.370729 0.47945428 -0.8630535 -0.39946285 0.87604797 0.8579362 -0.7372474 -1.6757077 -0.43254498 -0.42246953 -0.30176508 -0.6271343 1.0895735 1.5832988 1.2690237 2.7741761 0.84403485 0.35482842 1.5906627 -0.55804497 1.8735445 0.35692143 1.6328164 -0.5948824 1.6904446 -0.07329858 0.78789425 0.6671962 1.0820096 0.60801226 0.35889748 0.43590203
1313 0.1792235 -1.6592175 -2.9969194 1.0483838 1.5245863 0.8949988 0.67606556 1.3677084 -1.0685341 0.31833264 -0.32174334 0.9194886 0.21663022 -0.6663753 -0.12888789 -0.8651627 -2.784262 -0.12369455 -1.0648304 0.31258208 -0.055941407 2.4717832 -0.41219613 0.53954375 -0.8917523 0.5275974 2.1936572 0.72497374 1.5809677 -1.7201527 0.8430318 0.80636215 -0.82122236 -0.94402385 0.8824849 0.6157657 1.8490195 0.013163339 -0.44991022 1.0740451
1393 0.30084985 -0.35223648 -0.99402446 -0.26317865 0.025080604 0.025183355 -1.0799989 1.4260817 -0.039994158 -0.018795317 0.0100548845 -0.6122839 -1.3342379 -0.5113105 -0.86364996 -0.49705124 -0.15468112 -0.09702131 -1.2489187 0.8009039 0.99170035 -0.28472176 1.1071244 1.0678623 0.7106664 -1.1258769 1.0965562 -0.27721068 1.227082 -0.11009199 -0.21679044 0.40883175 1.4260461 0.42443845 -0.14297226 0.13323 0.31014383 -1.1079547 -0.31575885 0.22182165
643 -0.7384864 0.5351241 0.9329963 0.82239795 0.40223363 -1.3357378 -0.10080303 0.5220466 0.009601193 -1.3444548 0.79830766 -2.265679 0.12301883 -0.6003268 -0.76306313 -0.59261477 0.08707665 -1.4891871 -0.26122174 0.32134262 0.3930027 0.0069467854 0.014685251 -0.51182944 0.93755466 -0.51717585 0.90141195 0.74873745 1.6084192 0.7954463 0.47264788 -0.13501751 -1.1786745 0.75322545 1.305092 0.7299946 0.22899018 -0.52816767 -0.13066964 1.4389936
82 -0.45646498 0.6762999 -0.2299965 -0.27392137 -0.2076339 -0.2741132 0.35021007 0.83489066 0.32164517 -0.970069 -0.4583059 -0.91513395 -0.21220773 -0.7997094 -0.041302405 -0.48121247 0.41025802 -0.97513926 0.5932619 -0.3616063 0.39860466 0.525367 0.21660542 0.7926645 0.29476082 0.26173198 1.0154694 1.0357893 0.11204187 -0.6289454 0.30822057 0.6960526 -0.014106841 0.7942491 0.46773955 -0.8321372 -0.96660894 -0.67840266 0.0030828437 -0.093605965
1259 -0.42687845 -0.324718 -0.10624754 0.7770288 -0.7671882 -0.8524776 -0.0551287 0.7152788 1.0185437 -0.012466073 0.74022627 -1.1551346 -0.31617808 -0.41265744 -0.08898646 0.058640417 0.24800526 -0.48914292 -0.35797518 0.18721063 -0.8170263 0.7712312 0.2981904 0.62169886 0.18763047 0.64051944 0.537717 0.03003059 0.36600024 0.12717322 0.22224975 1.0166599 0.5054814 0.7642901 -0.93653905 0.20400801 0.34919205 -0.6117155 0.33897975 0.17442115
1241 0.19502848 -1.3532506 -0.30259946 0.43898627 -0.07366418 1.308796 -0.92241037 0.6521352 0.38857266 -1.662551 0.19081856 -0.071342796 0.19266498 -0.65268445 -0.6031895 -0.43547505 -0.44483438 0.540581 -0.09192729 -1.0350775 0.43007725 0.51554745 0.9045029 0.081390254 -0.3380538 -0.770468 0.6145474 -0.43033686 -0.06328605 0.38786027 1.069886 -0.20352209 0.98288924 0.5369087 -0.50319135 0.50690776 -0.17553288 -1.0604097 0.9604442 0.44028533
574 -1.0343415 -0.4377124 -0.27784812 0.19355921 -0.31791604 0.95064694 -0.8768216 0.26634273 0.27234155 0.33192608 0.27997667 0.35603768 -0.8131367 -0.22112748 0.69929904 -0.04912825 0.2783738 -0.11733936 0.27386189 0.019529896 0.122374594 0.3660442 -0.86342907 0.9036843 -0.006081909 -0.4935245 0.7835258 0.8680771 -0.12439617 0.4763695 1.0104259 0.43944126 0.06449018 -0.6001102 -0.31123337 -0.46567622 0.0981702 -0.63477147 -0.59809196 0.48207447
295 -0.5679703 0.54232717 -0.13134818 -0.313359 0.10741588 -0.17531936 -0.15386522 0.54599184 0.016413173 -0.79460114 -0.4520938 -1.0125707 -0.065217376 -0.3252888 0.057121232 -0.1269468 0.101430416 -0.8574524 0.054797817 0.300103 0.5411194 0.0042003044 -0.090001665 0.49981347 -0.052681137 0.3034663 1.4591515 0.37835833 0.029310284 -0.88136744 0.44930482 1.0296122 0.16649142 1.0802834 0.33325627 -0.7399715 -0.84035313 -0.6864269 0.15136929 -0.07477371
1004 -1.2682772 -0.82911897 0.74252194 0.42824262 -0.95274407 -0.39937532 -1.2145439 -1.129428 1.7004036 0.17001835 0.106224254 0.23944587 -0.08225365 0.11299796 1.0172065 0.07626437 -0.7107528 -0.36125034 0.7333665 -0.54590845 0.6987255 0.7437581 -0.0069282805 0.81313 0.3539188 0.3023349 1.8774602 0.9016766 1.0679585 0.44311678 1.0446669 0.2238902 0.23426495 -1.1613982 -0.31935275 -1.027994 0.580506 -0.6066712 -1.1866947 0.043848604
2030 0.5760501 -1.474041 0.665187 0.625693 0.5605697 -0.3083407 -0.6243729 -0.20776552 1.331318 -0.14141166 0.00515689 -0.09525197 -1.0012087 0.5725434 -0.77459973 -0.5205145 -0.26350546 0.15178816 0.11335839 1.1923966 0.68812656 0.73071545 -0.32298177 1.4217625 -0.49225104 0.38839683 0.26048154 1.1198701 0.93029934 0.21794637 0.56843567 -2.1551926 -0.84589607 1.2682893 -0.068915725 -0.86347747 0.94024193 -0.29553875 1.7800629 0.30764902
228 -0.04692928 -0.20960808 0.85415834 0.27883175 -0.45295122 -0.3250825 -0.20517814 0.19203083 0.83620465 -0.58363724 -0.16463783 -0.7543219 0.2560604 0.10156086 0.6684673 -0.22993647 0.26800328 -0.47250944 -0.6450278 0.003631594 -0.31271023 0.4729318 0.60873514 0.26095417 0.09955502 0.96311253 1.3701483 0.38867015 0.8850009 0.8513065 0.11632626 0.33172384 0.074151315 -0.17953576 -0.18508957 -0.55488366 0.92190886 0.5492296 0.620404 -0.1255629
549 -1.1585532 -0.7293208 0.02560927 -0.16007242 -0.17905481 0.27304366 -0.64138806 0.017695097 0.25333354 0.7453185 -0.3052746 0.5113436 -0.66690814 -0.0954622 0.7166944 -0.58530295 0.16237944 -0.30169928 -0.012520571 -0.06934007 0.1253164 0.31606314 -0.5239422 0.9854732 -0.07403927 -0.0067869383 0.58174473 0.7700586 0.74445033 0.57353 1.2250091 0.73762214 0.34134513 -0.3352635 -0.30665037 -0.4938989 0.3979199 -0.8341314 -0.78565294 -0.09079011
1532 -0.49276298 -0.10089515 0.30389303 -0.008394249 0.26609954 0.5137035 0.37219468 -0.15610194 0.5710923 -0.237915 0.39909306 -0.5332476 -1.329661 -0.46612218 -0.30556494 0.24540295 0.242394 -0.8083514 -1.622969 0.18915163 1.0966778 -0.42517862 -0.111754864 0.2733275 -0.12639256 -0.9047494 0.80093414 -0.04781045 0.46480772 -0.1019405 0.35758004 -0.57489526 1.1515728 0.38274306 -0.71545386 -0.38100228 0.77445173 -1.0516938 -0.3855478 -0.19674215
740 -0.06579092 -0.80911356 -0.25862932 -0.39612344 -0.65545607 -0.31568372 0.08003067 1.193788 0.4199573 -0.51045716 0.29765055 0.01768586 -0.45713946 0.15052953 0.03122503 0.68685794 0.009761465 -0.5517796 -0.31113616 -0.9910715 1.301963 0.3016251 -1.0795863 0.890743 -0.20019238 -0.31739053 0.3956925 0.34419906 -0.0029649588 -0.20759639 0.54144746 1.0098281 0.064938486 -0.0636562 0.42017025 0.023667658 1.1482 -0.03170047 0.42352018 -0.7299567
2360 -0.6403521 -0.23479214 -0.5192246 0.15960178 -0.40186167 0.60649896 -1.1342001 -0.059815176 0.063231714 0.47128502 0.6778928 0.08596316 -0.762948 -0.17737444 0.6483178 -0.18864402 -0.0009974338 -0.4644316 0.041045632 0.16194041 -0.083571546 0.15141837 -0.74362564 0.914264 0.09972844 0.17112257 1.2429644 0.828552 -0.44421268 0.109455675 0.61851764 0.400213 0.14758396 -0.97543055 -0.3833461 -0.8850859 0.23013507 -1.3057427 -0.44156912 0.764623
2107 0.59484 -1.251205 -1.2970201 -0.18572994 0.9604476 1.010237 0.7582333 0.37580442 -0.43098307 -1.1122953 1.0176919 -0.4581175 -0.74592316 0.52033514 -0.18830882 1.1049967 0.16403595 -0.57709944 0.45703563 -0.20654374 2.1864264 0.7313545 0.8529076 0.5963695 -0.20073839 0.39159358 0.36383712 0.23156746 -0.7404172 0.54922014 0.44144988 -0.3494039 0.06600408 -0.8430643 -1.7794145 -0.92363673 1.3115437 -0.8700163 -0.700215 1.2499305
983 -0.6081179 -0.10998549 0.44926047 -0.4483557 0.30412006 -0.011139261 0.6516712 0.2283133 1.1815069 -0.7263638 -0.09175491 -0.27113515 -0.30020016 -0.8403332 0.6199046 -0.4334617 -0.09287277 -0.41363025 -0.86854815 -0.6453503 0.10407329 1.5329378 1.7516153 -0.38335526 -0.3538172 0.23407507 1.4531479 -0.34719273 -0.05831167 0.8942343 0.08220955 -0.14676924 -0.7254678 -1.2049758 -1.2756872 -0.8877748 0.28026918 -0.27059323 -0.13276148 1.3835173
862 -0.35817164 -0.60328335 0.9057961 0.33119142 0.3884474 -0.8655283 0.50697553 1.1166124 0.94621915 0.33027825 0.4986007 -0.25126866 -0.9846956 -0.68997085 0.16570361 -0.18062857 -0.27930734 -0.22190943 -0.23455438 -0.87093055 0.18478583 -0.20447393 -0.013893673 0.7578094 -0.094883114 0.37436098 0.69990164 0.53301203 -0.08809607 0.19582255 0.6707029 0.58696735 0.11992932 -0.8410586 -0.5216237 0.41337046 -1.1154432 -0.2678165 0.49332663 0.7741009
1203 -0.6860686 0.5929773 -0.4199765 0.8559124 -0.36003 -1.7788967 0.09831953 -0.0991447 -0.34086332 -0.65572274 0.05183397 1.0574656 -1.0102291 0.35517955 -0.40778583 0.053696603 -0.592739 -0.12833847 -0.49500832 -1.5025452 1.1478503 -0.0056557176 0.76024467 0.026689826 -0.0962151 0.55679566 0.7239271 0.26333603 -0.9368918 0.57296073 0.8224614 0.22629258 0.0459241 0.30553335 0.113825515 -0.20618682 0.45704505 -0.660241 0.48461 0.08930212
1126 -0.74344844 0.52964985 0.6868675 0.73419064 -0.3474354 -1.0732454 0.09072757 -0.007805939 -0.0553848 -1.6949939 1.2041602 -1.655773 -1.0389675 -0.80172074 -0.68488437 -2.0879467 1.0687393 -1.3934467 0.1995712 -0.38110107 0.9438756 0.20705058 0.4435771 -0.3949979 0.9717473 -0.61372006 1.2057959 1.0580639 0.522078 0.83440334 0.542421 -0.760062 -0.5486549 0.44564584 0.5423567 0.24546193 0.19942062 -0.5219535 -0.23032476 1.4950837
1282 -3.2918112 -0.088806 1.1100867 0.037065364 -0.007712407 -0.40705588 -0.671346 1.4855562 -0.6347576 -0.5791093 1.3968402 1.2171981 -0.8763358 -0.045977507 -1.8770347 1.0978051 0.6959516 0.38506666 1.4334822 0.668136 0.504248 2.1633372 1.6245284 -0.4469898 0.037118744 1.1983563 0.43227133 -0.6288685 0.2762032 0.21518055 1.1698602 -0.5166116 0.7898807 -0.75289935 0.43112218 2.0873764 1.0424218 -1.2915405 1.1318291 2.2385428
260 0.042714316 -0.95863557 -0.08313744 0.29901066 0.9655154 0.23314977 -1.1423877 0.5534254 0.19579269 -1.8922976 0.86087835 0.53584236 1.0204049 -0.101843104 -1.1201818 -0.01228922 -0.4673379 -0.102127016 -0.23261988 -1.8407053 0.013048944 1.1609454 0.77631646 2.1520815 0.047653064 -0.1777958 1.2815621 0.03871096 -0.047865294 0.03406042 0.4425729 -0.11592045 1.1487976 0.26974013 -0.16261086 0.7459203 -0.72702485 -0.88165826 0.9683935 1.1775692
380 0.24612288 0.20581682 -0.22448438 0.12651958 0.83390415 0.41871074 -0.27447045 -0.01970841 0.69128895 0.4187033 -0.40830442 0.2737496 -0.5327098 -0.38933796 0.15880649 -0.7011727 -0.9089743 -0.68060696 0.6297505 -0.17381011 1.0381529 0.8501705 0.57039785 0.7843089 -0.053254414 0.6249609 0.030705042 0.5179577 -0.4641944 -0.1091592 0.9220234 -0.04894189 -0.76505256 0.13667086 0.48737139 0.002899366 0.50478935 0.12778197 0.82215536 0.30405033
102 -0.3146112 -0.041906357 0.60013556 0.097326316 0.22987998 -0.35017204 0.39834806 0.18097427 0.455679 0.13812827 1.4169005 0.35418043 -1.0375898 -0.44334236 0.013262312 0.30397004 -0.887299 -0.86710566 -1.5630714 -0.8082394 -0.5495408 0.8574312 0.5272017 -0.0007667361 -0.42825642 1.3946029 1.258453 0.15068671 0.08440478 0.5744681 0.43531778 -0.21729502 -0.15317984 0.94048244 -0.7991005 0.36572954 -0.7993287 -0.5343883 -0.48182622 0.8543696
858 -1.113633 -0.17926736 0.18547799 0.55503124 1.4427972 -0.8506803 0.55731237 -0.06720064 0.32666853 -1.0826707 -0.36419594 -0.6722748 -0.0082673095 -0.45862716 -0.0978406 0.577305 -1.439945 -0.33349556 0.660006 -0.966472 0.027311672 0.39697513 -0.4626128 0.6504016 -0.16386995 -0.5016735 2.1320398 0.054908894 0.5517267 -0.39704403 -0.39842916 0.87445396 -0.93048465 1.2384067 -0.20892766 -0.050003275 -0.14201503 -0.40380916 -0.5506862 1.7124684
177 -0.8118669 -0.09709949 0.8453352 -0.44729534 -0.1411057 0.20760274 -0.09839493 1.1128074 0.37861317 0.06794698 -0.07539562 -0.0043295845 -0.13677795 -0.05612441 0.856699 -0.19939198 -0.00078710186 0.051478695 -0.4833067 -0.027445553 0.5910052 1.7190855 0.23689422 0.08927556 -0.010300255 0.2424226 -0.169737 0.5962066 0.17310752 0.5089899 0.03417022 -0.061930303 -0.5495481 0.3360355 -0.24006104 0.067995846 0.084272444 0.12193944 0.43264848 0.034001034
1231 0.44040754 0.3503846 -0.21487196 -0.3038908 2.124955 -0.5664722 -1.3219621 0.006155835 0.8139479 0.55925286 -0.54862106 -0.33871898 -0.97062445 0.09401532 0.66857404 -1.5891886 -0.47083256 -1.0077391 0.32493412 -0.64048624 0.58264744 0.59927094 0.38254368 0.17258044 0.7075895 1.4539391 0.7305513 0.6237393 0.8097191 -0.42116266 1.7105815 -0.99282664 0.22485608 0.45426148 -0.63800496 -0.07809812 -0.8904904 0.15269971 0.6611235 1.4535266
75 0.60816115 -1.1476591 0.025748236 0.25137067 -0.2695129 -0.12063684 -0.3015648 1.3009777 0.70630246 -1.504952 1.3052195 0.5362209 0.61933213 0.08574778 -0.16233623 -0.7306247 -0.7204988 -2.1143458 -0.926024 0.13480167 0.07680232 0.8081065 -0.043736007 -0.36574423 -0.17491284 -0.22273374 0.46743783 0.838325 0.3471542 -0.81709343 0.79644924 -0.61584824 -0.59449995 -0.07202465 0.035210643 -0.02089138 0.52835244 -0.059197877 -1.1145028 0.68438256
68 -0.6099264 -0.31495166 -0.9617702 -0.6809409 -1.0839164 -0.4672709 -1.2599033 0.26384586 -1.0672553 -1.0198948 0.5536805 -1.1467699 -1.2942785 1.204004 0.10422601 0.29122323 -0.8464982 0.10155717 -0.46489513 0.03627151 0.18960658 0.58844936 -0.48169252 -0.22967188 0.67257464 0.27924263 1.3901334 0.0047897813 -0.11675959 -0.57045925 0.3952142 1.0219532 0.0071818135 0.7308645 0.28017917 0.24321271 0.52654445 -0.5340146 0.24249013 1.1443444
1827 -1.2153549 -0.71168536 -0.045877323 1.1647455 -0.8264747 1.5130088 -1.2683758 1.2342007 1.362081 -0.3003695 0.84583026 0.4104726 -1.0079933 -0.9982868 0.69746596 0.15491314 0.020267785 0.8206765 0.12422955 -0.0047243917 0.15361315 0.22135885 -1.1128386 1.239977 -0.38449192 -0.95268923 0.9657613 0.88089687 -0.8315342 0.042942554 1.4824575 -0.09296428 -0.08639357 -0.85551375 -0.66094065 -0.75337803 0.48464042 -0.09438866 0.37224132 0.72121745
1288 -0.006110597 -0.25085366 -0.9626536 0.021128435 -0.031588253 0.3319152 -0.86197037 0.881052 -0.105057 -0.37752968 0.271106 -0.45109472 -1.1794122 -0.33559644 -0.4266676 -0.25714672 -0.6951291 0.042555053 -0.628024 0.731209 0.66827434 -0.06839482 0.36010402 0.8219022 0.2632732 -1.1759156 0.6226371 -0.28081888 0.98980016 -0.2885007 -0.09869329 0.3294621 1.1064633 0.092379056 -1.0291586 0.114939794 0.38157666 -0.8627531 -0.15581588 0.31284425
411 -0.44484478 0.06801153 0.4977085 -0.2835452 -0.75017047 0.4718348 -0.3582757 0.30120814 0.03849966 -0.35428366 -0.5988126 0.9328997 0.006965403 -0.2935193 -0.5675633 -0.5802024 -0.7442743 0.0053242017 -0.07937021 0.57714623 1.1843796 -0.6413618 -0.55094606 -0.34493908 -0.18072063 0.083988905 1.4462079 0.31600022 -0.6861371 0.3047548 0.91274786 -0.038067546 0.1652595 -0.037261155 -0.09053005 0.3611799 0.53852475 0.11558364 -0.13917336 1.6074742
1515 0.3563526 0.08187906 0.35181335 0.1733152 0.7646868 -0.19819877 -0.43295482 0.96152836 -0.42310992 0.9261755 -0.6350889 -0.5387095 -0.87681806 -0.48280177 -0.04747448 0.52833146 -0.3460603 -0.56299335 0.24153031 0.7743077 0.7584733 1.0787865 -0.6524764 0.7279961 0.054602362 0.13640703 0.6758995 1.2277079 0.24462152 -0.14650725 0.18710692 -0.6126839 0.2885481 0.82115835 0.5028518 -0.36791453 0.010658268 0.14913267 0.7890796 1.117786
1338 0.17113449 0.5921061 -2.4023044 0.6966946 -0.8573089 -3.0177429 -0.5519985 0.71287024 -0.6762685 -1.4358257 -0.71152616 -0.36120987 1.4794707 -1.4482031 -0.53661025 -0.62419826 -1.1608464 -0.7681325 1.0452577 -0.9002976 0.649711 1.7645967 -0.7595696 0.49799314 -0.42374554 0.01872627 0.31330553 0.5143498 0.7750725 2.8007267 2.710282 -0.4674169 0.85362625 1.0025462 -2.150064 0.29678768 0.53914404 1.6657053 -0.2584921 1.1197749
1184 -0.04318443 0.27476355 0.043425392 0.03503108 0.4915723 0.55843174 -0.55963755 -0.4263745 0.93813163 0.2644889 -0.041930147 -0.30287266 -0.81595 -0.12934919 -0.058016226 -0.7456101 -1.0091343 -0.5845613 0.80203503 -0.3624061 1.4640541 1.6765895 0.27897224 -0.14283374 -0.029003862 1.1990663 0.37595052 0.5030188 -0.101037346 -0.2235328 0.6352729 0.06957255 -0.79452556 0.15272926 0.3708806 0.54259914 0.48258078 0.092178896 0.9392047 -0.029247861
1285 0.306293 -1.0787812 -1.0353115 0.11934954 0.031408947 0.54996014 -0.10005048 -0.076557614 -0.83855164 -0.26242414 -0.47766373 0.33944666 0.31644544 -0.1480143 0.53594255 -0.82928795 -1.7577957 -0.40640336 -1.2849525 -0.1812186 0.27946842 0.84596497 -0.7112531 -0.40035486 -1.3449825 0.3376835 1.5438111 0.82468647 0.39380014 -1.5167185 0.76280344 -0.018198403 0.07036026 -1.0716308 -0.06991997 0.71496534 1.2346919 -0.3822942 -0.17992821 1.3294154
2178 -1.1653248 -1.2639997 0.4041773 -0.03651397 0.2834049 -0.044854622 -0.63651097 0.2758493 0.32860097 1.306077 -0.7152192 1.0299369 1.2266469 -1.0551981 -1.5341961 -0.92936736 -0.69053954 -0.42112592 0.47446433 0.11880664 1.4203132 0.3110083 -0.46278074 -0.3743831 -0.4918544 0.9627891 0.8676367 1.0831981 0.26648906 0.34844163 1.006992 -0.38165626 1.0631706 -0.6954439 -0.35734564 0.7268735 0.8531407 -0.6017665 -0.06631144 2.790672
227 0.36940536 -0.50626546 0.35241348 0.08921041 -0.113857694 -0.8748676 0.032244895 0.2691322 0.22579175 0.12795195 0.45259973 0.3096077 -0.71898 0.30914137 -0.19083089 0.09303232 -0.02913267 -0.56790423 -0.24265209 0.0064684004 0.5572082 0.26655114 0.4251066 0.14862308 -1.6219362 0.4596941 0.1880543 0.8189874 0.5872968 0.40564156 0.33635816 -0.3357404 0.12796743 0.64149374 -0.943776 -0.66620505 0.2612043 0.18005201 0.062331837 0.15325542
1855 1.1908005 -1.1093404 -0.23470268 0.39861056 -0.6609276 -0.29127395 -0.6292404 2.0023499 1.0979618 -1.5153695 1.3163943 0.3137655 0.8136633 0.024465453 -0.14087394 -0.83878994 -0.72021484 -2.614029 -0.71872383 0.31918964 0.06325826 1.1472158 -0.40748662 -0.17501216 0.17263772 0.07123584 0.5796047 0.78590095 0.23913237 -0.6721283 0.66785026 -0.7962252 -0.47869238 -0.19135742 -0.05028867 -0.6901392 0.7947492 -0.3522163 -1.46346 0.87053746
1534 -0.19390036 -0.057723414 0.4435812 0.7915764 -0.17509817 0.23290224 -0.55606407 0.3144277 -0.18369505 -0.99801826 0.792163 -0.9310382 -0.77893275 -0.46400526 -0.55590385 -0.91760164 0.67883635 -1.2885672 0.21421647 -0.32203308 0.0845635 0.6624316 -0.06321075 0.35598457 0.5953821 -0.7558048 0.41446236 0.5375536 1.670548 0.8111309 0.39675733 -0.67300767 -1.0462354 -0.71894664 0.6853608 -0.6998821 1.0630199 0.021499738 0.40159863 0.70957196
1795 -1.0255128 -1.411505 0.5972375 0.0998927 0.58199686 -0.43051016 -0.45398247 0.15100722 0.37799785 1.590638 -0.8559535 1.1349727 1.1758516 -1.1067557 -1.690028 -0.8142728 -0.5488128 -0.8665907 0.84162253 0.32978678 1.2393056 0.6016721 -0.01851611 -0.12764019 -0.4309021 0.53153133 0.43343785 1.2808993 0.41969925 0.4211097 1.234931 -0.4411321 1.034242 -0.40465164 -0.50907886 0.8887257 1.1310635 -0.54304284 0.29588088 2.787214
1471 -2.7203097 -0.023855222 1.2494116 -0.122962005 -0.4530571 -0.637901 -0.7873107 0.66801125 0.24694097 -0.63595974 0.73602 0.89616257 -0.47057092 0.25760072 -1.9485079 1.7675233 1.457713 -0.06400427 1.223918 0.3685892 1.2251542 2.772622 1.8236147 -0.40582454 -0.3125593 0.6032981 0.6804308 0.29844207 -0.18563844 -0.23789701 0.6672052 -0.9467106 0.9367676 -1.0158644 -0.030051097 2.034096 1.0224127 -0.9184808 1.2798498 2.1974435
483 -0.3606928 -0.20893312 -0.33370736 -0.049295075 0.036503848 0.0661282 0.49573836 0.20965274 -0.09911632 -0.63910717 -1.1337332 -0.7905392 -0.5547072 -0.22109386 -0.2687271 0.5853467 -0.14718278 -0.7776263 0.6615433 0.36182466 0.40278924 0.256915 -0.3004692 0.763937 -0.70793325 0.44846556 0.9157193 0.7276357 0.14829603 -0.6213941 0.20462714 0.5248533 0.2680532 0.45621228 0.18859151 -0.46506694 -0.5720078 -0.2939505 -0.09048742 0.5453447
161 -0.28146482 -0.063593686 -0.35521135 -0.87843317 -0.69080377 0.080767855 -1.119241 0.35241333 0.22178806 -1.0440344 -0.7103617 -0.40246984 0.08811293 -0.90836346 -0.38528886 -0.13718185 -0.82469654 -0.17794867 0.066492304 -1.014843 0.7772937 0.39435676 0.47427922 -0.36036518 -0.14120282 -0.31716302 -0.030808415 -0.83478683 0.41365707 0.85869634 1.5324081 -0.30758125 0.8838974 1.5163959 -0.89499384 0.82846373 0.23908313 -0.2508497 -0.27202404 0.43306562
1649 -0.9472496 0.033641692 -0.24603121 -0.5060942 0.13495098 -0.41730064 -0.20020902 -0.108473346 -0.6647792 -0.43581438 -0.092475094 -1.0781691 -0.6630095 -0.5803887 0.33835924 -0.417196 -0.7199734 -0.86837065 0.33894384 -0.30185443 -0.073849306 0.90843993 0.3097204 0.9714393 -0.94159627 -0.18619652 1.0176102 0.32469913 0.5459644 -0.5546303 -0.49774513 0.8202144 0.46058258 0.32943678 0.36396155 -0.31259906 -0.27427256 -0.3511531 -0.11890581 0.83062446
1559 -0.018995736 0.044371605 -0.033916038 -0.40661347 -0.22073263 -0.2402435 0.5025508 1.1026634 0.20617291 -0.89682394 -0.051532596 -0.5042269 -0.47889653 -0.10403457 -0.031117612 0.7415216 -0.18473373 -0.37091252 -0.07862133 -1.0391262 1.2461457 0.25760615 -1.2721577 1.170896 -0.59290016 0.020274023 0.60008156 0.46047914 -0.06531698 -0.3105066 0.2701487 0.9104652 0.32407084 0.01940769 0.17724179 -0.20044218 1.4173398 0.059104078 0.5231486 -0.42709526
1366 -0.382201 0.3677794 -1.7877998 -1.2427422 -0.41335988 -0.81000024 -0.3999498 1.1043926 0.04452443 -0.2291967 0.16374473 -0.43425632 -0.15725042 -0.17811891 -0.9783721 0.6665643 -1.2817174 -0.34020975 -0.09905785 -0.45036212 1.7595496 -0.05040671 0.30379048 0.5659844 -0.21992828 1.6159765 0.35434592 0.5322914 0.62730074 -0.39923438 -0.7266022 -0.11067269 -0.45383623 -0.65585774 -0.48478985 -0.4939286 -0.051120408 -0.7521354 -0.0967114 1.018852
1728 0.14148976 -0.04623039 0.1317344 0.31385797 0.64836574 0.08553276 0.008704399 -0.40478966 0.1293735 -0.04293105 -1.1095737 0.16969243 -0.13226733 -0.3965825 -0.19368917 -0.03423053 -1.3933313 -1.0681875 0.30917716 0.18407935 0.19078147 0.7528874 0.13442878 0.17481619 -0.25162658 0.31843385 -0.14604633 0.8970946 -0.07982632 0.0785051 0.94548845 -0.8425362 -0.37997085 -0.22980386 -0.019621225 -0.14563712 0.8003415 -0.08598862 0.56863517 0.7164951
1281 -3.669926 -0.12739629 1.19668 -0.123623855 0.31672668 -0.2981418 -0.6869317 1.3183185 -0.32050344 -0.86526716 1.1908889 1.286797 -1.1083034 0.2228959 -1.9644698 1.3011162 0.24681546 0.39281642 1.587608 0.7446888 0.3345204 2.1984699 2.2127721 -0.630634 0.4389618 1.292222 0.63621134 -0.544701 0.3237481 0.10246676 1.0775863 -0.6154044 0.63756204 -0.7885516 0.07919321 1.950403 1.1393807 -1.1027883 1.1591018 2.2423065
2302 -0.76393074 -1.0320334 0.6915438 -0.39557627 0.30727738 0.7354484 0.4999736 -0.8327628 1.4258133 0.20417058 -0.771889 -0.7559982 -0.5491787 1.1676039 -1.2617391 -0.17812414 -1.8270935 -1.2270796 -0.39751336 -0.40578732 1.3612325 0.6811976 0.9691775 0.7103849 0.1823149 0.3907574 1.3177097 0.74549 -1.1895282 0.3004104 -0.021374471 0.6091321 -0.24914896 1.4111874 1.3783115 0.3278225 1.1462536 0.458778 0.15072322 0.07176985
2164 0.51400566 0.9398646 0.6678925 0.46282727 0.24643536 -0.5749129 -0.7474806 0.6154018 0.3181357 -0.4664025 0.84466845 1.3151358 -0.1544112 -0.01336776 0.4340087 -0.24078552 -1.0518665 -1.7319132 1.071746 0.8201715 1.4055772 0.52198994 0.5914025 1.5684632 0.20991589 -1.1684061 0.14587258 1.0456842 1.6612502 -0.8194581 0.7071595 0.60847807 -0.03325042 1.6552497 0.2217479 -1.6289806 0.5321763 -1.0814388 0.985448 -0.21313432
486 0.1633801 -0.15661664 0.533096 0.9886985 -0.6915302 -0.06874355 -0.9209958 0.8036544 0.10772834 -1.8152514 0.54838914 -1.4465128 -0.5383949 -0.657453 -1.2974782 -0.8269585 0.5382686 -2.024034 0.23487836 -0.264517 0.035479616 0.65527564 -0.2677772 0.873245 0.67209417 -1.251698 0.0832997 0.24337539 1.2014667 0.9655614 0.18472166 -0.17245875 -1.5765887 -1.3428748 0.6153521 -0.29572505 0.72897094 -1.2504851 0.13582896 0.8996883
839 -1.0124705 0.8795554 -0.7797481 -0.09795896 0.29877973 -0.64856756 -1.4446759 0.16143292 0.89397895 -1.6706852 -0.07300144 0.401834 -0.36667848 0.63866514 0.38324583 0.32890955 -0.8536519 -1.4596964 0.2314007 0.288753 0.28353468 -0.25219876 0.95234346 1.3750702 -1.1987013 -0.11792324 0.40852478 -2.0337126 0.82574177 -0.4972102 2.0466113 -0.78661835 -0.8021188 -0.44253767 -0.69572103 0.7821518 0.008157536 -0.48343846 0.8202724 0.03839438
1363 -1.351863 -0.73258317 0.44511065 0.2958221 -0.60558164 0.021549392 -0.99637747 -0.6433916 1.3957409 0.42348272 0.0018944829 0.12579241 -0.38291708 0.48348898 0.8809195 -0.14732285 -0.2896814 -0.06252554 0.64458305 -0.32775065 0.37147486 0.48734742 -0.24136157 0.7127194 0.25780606 0.036108047 1.2759768 1.0057375 1.0585997 0.17724639 1.4182501 0.47689697 0.18430425 -0.7995977 -0.35648528 -0.96170485 0.5079348 -0.7662534 -1.0904603 0.15176035
2182 -0.68786067 -1.1483476 0.70895714 -0.42408514 -1.0696054 0.0066465875 -0.79339427 -0.08288944 1.3096049 0.42959782 -0.6520479 0.5280283 -0.8134415 -0.3252044 0.8286613 -0.6785652 -0.54031664 -0.6415074 0.50023663 -0.08384461 0.64768714 0.9932488 0.13473831 0.7350386 -0.11983869 -0.085478 1.4658254 0.45678958 0.7251722 0.9527039 0.7967771 0.062794745 0.22559185 -0.99337536 -0.1387892 -0.2576039 -0.030347152 -1.3416085 -1.761956 -0.48500773
1025 -0.042135723 -0.95853424 0.45394984 0.40779772 -0.6462245 0.14433259 -0.55247843 0.37920827 0.07466039 0.084665194 -0.05188357 -0.3783896 -0.5528108 -0.42908487 0.82405216 0.43031883 -0.111994 -0.36561778 -0.44019398 -0.2060435 0.36004707 0.13471884 0.3902575 0.8577914 -0.31034186 0.31069067 -0.0056371754 0.71658164 0.15616831 0.63521963 0.7754399 0.72327954 0.823924 -0.075058654 0.3580827 -0.14692348 0.46324804 -0.7817762 -0.7722318 0.15010166
1697 -0.23824044 -0.43420744 -0.1538219 -0.10591213 -0.43606755 -0.4631969 0.6641308 1.002579 0.3522089 -1.0661502 -0.05156144 -0.4602732 -0.572045 -0.10906896 0.25542098 0.4956795 0.11498522 -0.56614774 0.040702656 -0.82164985 1.4973779 0.44660324 -1.2952062 1.2159379 -0.52701133 -0.004014978 0.7037937 0.15695497 -0.12060139 -0.5690466 0.46099043 1.156423 0.2840848 0.09619594 0.6126837 -0.3657943 1.0829229 -0.010506612 0.4317748 -0.38319415
1275 -0.06708177 -0.8092748 1.2971534 0.9061687 -0.2370876 -0.5012809 0.0018746315 0.9195358 0.30358273 0.3498176 -0.010602044 -0.52002 -0.24068628 -0.3234314 0.42079875 0.47484094 -0.19316567 -0.72777754 -0.52043974 -0.05474121 -0.42262393 0.3243542 0.30460763 -0.032087762 -0.4589578 0.68447757 0.56972945 0.0818282 1.1128012 0.23239379 0.6223949 0.18198292 -0.09892233 1.1398829 -1.260844 0.060434353 1.2805368 -0.38117638 0.0075372066 -0.13849768
2511 -2.076005 -1.0624807 0.48786348 1.6873829 -1.0633057 1.3659108 -0.795931 2.9006119 1.4085257 -1.6539993 0.80250573 0.5184519 -2.102996 -1.2680933 0.3192724 0.17923984 -1.115355 1.8592799 1.1488931 1.5556622 0.35495272 0.5244428 -1.4640721 1.4949849 -0.64053535 0.17641318 0.53384495 0.7917204 0.38487858 0.21530563 0.433389 -1.3304713 1.1146952 -0.10920374 -0.23726897 -0.66065 0.93724203 0.19422005 0.5082197 1.3327302
1800 -0.2686278 -0.23488139 0.6831568 -1.0817423 -0.7567167 0.76526034 0.79620355 0.5883053 -2.762778 0.6308876 0.26342568 0.16409503 0.3765296 1.0238801 -1.1539171 -1.5038137 -0.97041655 -1.2548382 -0.36474803 -0.7260595 0.52071637 1.686837 0.06783287 3.067511 0.42425853 0.15016022 1.5245274 0.50225365 2.1616564 1.3374326 0.23234807 -0.23641525 1.6121975 0.7813817 0.38662094 0.56449103 0.7437252 -0.35062066 1.2450948 0.17204762
1114 -0.09239016 0.015284991 -0.099948466 0.10453918 -0.35691044 0.7656926 -0.65682954 0.080475226 0.14942382 0.2564795 -0.54758424 -0.011492565 0.01377099 -0.21305776 0.56613684 0.03842698 -0.6823778 -1.0905681 0.838382 0.6915152 0.48074523 0.9502337 -0.033328436 0.15708728 0.1405552 1.1766882 0.17923853 -0.05457718 0.31955424 -0.14106272 0.845932 -0.59478015 -0.063928224 0.53887165 0.5665006 0.20759778 0.53528845 -1.1330055 1.5151396 0.46971428
608 -0.17552972 -0.07406912 -0.7903183 -0.4776505 -0.027127422 0.13048188 -0.9082014 1.7899069 0.2819091 -0.33404645 -1.0516193 -0.16195913 -0.37105066 0.24016868 -1.0979955 0.044105917 -0.7289127 -0.4646935 -0.77914685 -0.2788619 0.44779825 -0.28117582 0.4100915 0.7936244 0.28389588 0.45045167 0.63309777 0.5365352 -0.24911875 0.0022239923 0.52845454 0.3578973 -0.32137284 -0.4871304 -0.6658023 0.2898647 -0.7476925 0.045798916 -0.2465517 -0.57454103
2560 0.10344409 -0.06115894 0.871269 -0.28322786 -1.0244867 0.2592457 -0.1287352 0.9911812 -0.63497263 -0.09066919 0.37458202 -0.32548943 0.90674454 -0.6535359 0.9599777 -0.3667832 0.60183334 -1.5334657 -0.13006233 -0.3229872 0.04222566 0.018200492 0.6033892 0.86854994 -0.37761846 0.2560102 2.1538496 0.59580296 0.60811025 -0.30295467 -0.02357566 0.39889377 -1.1571862 0.30496 -0.10089481 -0.41516167 1.0080577 0.3554034 0.25515875 0.25154155
127 -0.30486375 0.65868974 -0.12921165 -0.18476768 0.68658435 -0.62027824 0.5469127 0.7073183 -0.31345066 -0.32160366 -1.2615163 0.3723736 -0.8589926 0.9523326 -0.27987194 -0.102548264 -0.3209798 -0.61836946 -0.3192749 1.1590476 0.6836067 -0.23439743 0.23958571 0.76098025 -0.59510803 0.90960056 0.9816716 0.16042656 0.21833262 0.55430335 0.40790704 -0.30999607 -0.4636657 -0.190799 -0.56311285 1.2347419 0.28096274 -1.3722836 0.19148585 -0.48782933
2427 -1.0740582 -0.7764583 0.46521366 -0.7257837 0.44726562 1.3094832 0.32528663 -0.21020363 -0.43692625 0.5635304 0.22628804 0.38306785 0.15354374 -0.8219882 0.6349675 -0.39577436 -0.35928062 -0.74292177 -0.5267556 -0.10082304 -0.36677706 0.94687223 -0.8339032 -0.07664677 -0.45475417 0.37127468 1.7884 0.03374697 1.1917022 1.6364079 1.5408169 1.4983814 -0.3643096 0.51775634 -0.71065974 0.009131429 0.28024852 -0.39386585 -0.18342714 -0.43765688
2206 0.05680945 -0.17030737 0.6185458 -0.7753274 0.7811978 0.94745916 -1.2787511 0.08124335 1.9772546 0.10781978 0.73800427 -0.3818565 0.045575067 0.111080684 -0.65444666 -1.1243504 -0.1980208 -0.13632049 1.1796187 0.080562495 2.6852472 1.0675268 0.007473658 0.33559924 0.504421 1.0460093 0.39906305 1.209469 -0.34099466 -0.7467845 0.9210667 -0.42225406 -1.5109857 0.037681255 -0.4797351 0.87018764 0.8109301 -0.35897377 1.1058633 -0.17412674
289 -0.80451447 -0.13439006 0.94290453 0.39920273 0.2940303 0.057691228 -0.6098509 0.32174456 -0.1560421 -1.1775059 1.1011395 -1.8877307 -1.0163522 -0.5593567 -0.544164 -0.92028165 0.57419467 -0.87608314 0.4221035 -0.37719956 0.11377528 0.52223235 -0.12534112 0.33117247 0.18645757 -0.4765945 0.48375508 0.5535476 1.5515404 0.553261 0.27056602 -0.775024 -1.0955153 -0.47226676 1.4201216 -0.3045354 1.235923 0.00443964 0.28104508 0.9305373
1409 0.5879005 -0.23981427 -0.18764298 -0.53059953 0.12792043 0.48199227 0.08072416 -0.26725164 -0.071315624 -0.056397095 -0.5190528 -1.3336447 -1.7268015 -0.5130986 0.4074977 -0.3744188 -0.9275352 -1.0455658 0.19997495 0.10454707 0.4630693 -0.13467771 0.56268185 0.6147836 -0.5251767 0.47236514 -0.20782764 0.49079815 0.2555321 -0.19530271 1.2141689 -0.5900464 -1.024955 -0.092387736 0.8045455 -0.23373424 0.63852626 -0.05996547 1.4870199 0.61863154
688 -0.79607785 0.014922599 -0.3952608 0.14077188 0.26804572 0.07842829 1.126518 0.53457123 0.37146688 -1.0629551 -0.83239377 -0.1657823 -0.2885092 -0.18491116 -0.16811696 -0.38758045 -0.114744954 -0.878876 0.420949 -0.060163695 0.1327577 0.05385146 -0.1428386 0.37557206 -0.89372945 0.3256801 0.9078755 0.3402596 -0.47437802 -0.4400617 0.39524314 -0.006184311 -0.16842921 0.4921991 -0.08083534 -0.3949433 -0.1359317 -0.3173055 -0.3720372 -0.019868674
1613 0.25474158 -0.41901895 -1.4189562 -0.09012553 -1.4965222 -2.0153155 -0.6096523 0.047675993 -0.6861594 -1.0973704 -0.3972584 -1.7203612 0.20040245 -0.8319042 -1.431086 -0.9796029 -0.8803535 0.40371776 1.0197355 -0.93896085 0.57376224 1.7459388 0.33619633 0.27366084 0.13577004 -0.040359452 0.5022433 -0.32865655 -0.060781214 1.7139617 3.193627 -0.18127972 0.18354282 0.54212004 -1.7333921 -0.4097478 0.8947737 1.2877592 -0.6755793 0.5604259
503 0.47111684 -0.65296835 0.009714403 -0.6193623 1.0323341 -0.22937526 0.5028229 0.66657215 1.7480693 0.31823483 -0.20238507 -1.1326842 -0.4745407 0.8505079 -0.020889718 -1.2327679 -0.42699507 -1.31267 0.80056745 -0.13232519 0.4477542 1.0523959 -0.13945849 -0.27230668 -0.57934606 -0.040616684 1.6031122 -0.30920535 -0.2401374 -0.22458825 1.2685125 -0.70045084 0.68332875 0.16215093 -0.29440314 0.29053605 0.6698064 0.7497294 1.4448264 -0.30628118
432 -1.0923179 1.633098 -1.5547646 2.3111959 -0.027516834 0.99407774 -1.2247815 2.1969018 0.99569803 1.8204072 0.6473908 -1.7344525 -0.32560983 -1.3861251 -0.22107938 -2.2785594 -0.97018456 -2.508265 0.7486912 0.782289 1.1302911 0.2524645 2.38967 0.7605892 -0.82798296 -1.3973509 1.2588975 1.2828939 -0.56936103 1.3521596 0.48927724 -1.3545358 1.129867 -0.93214774 -1.2072126 -0.40513268 -0.35327363 1.6151769 -0.350702 1.3432791
1908 -1.7877828 0.07467428 0.1600174 -0.24759817 1.0511488 0.112960026 -0.13371699 0.5368973 0.25347093 -0.82485104 0.52451676 0.008513182 -0.20286107 -0.4090413 -0.037052654 -0.12413731 -0.3251341 -0.9730908 -1.4086663 -0.0067731906 -0.4905862 1.3316985 0.7489938 0.14832902 -0.76471555 0.30713144 0.33090374 0.26016974 -0.51994896 0.4124592 0.26288453 -0.19028151 0.423462 -0.26823926 -0.91538596 0.38922578 -0.088124 -0.13370919 0.013568815 -0.38892648
934 0.40835792 0.0906003 -0.21310557 0.062911496 0.877337 0.64895225 -0.8829792 -0.3315038 0.8491209 0.08048793 -0.22194687 0.032220658 -0.8979651 -0.51045793 -0.14363357 -0.219313 -1.0411693 -0.93122405 0.5841795 -0.1062786 1.3726121 0.9310633 0.58234 0.38297746 -0.21050708 0.78522885 0.3593394 0.8314078 -0.52318454 -0.06807574 0.43335402 0.17540666 -0.29562944 0.63574266 0.57348424 0.45409873 0.07666716 0.4977541 0.2004223 0.059895296
1891 -0.41195726 -0.21712747 0.58905876 0.11999702 -0.8716612 0.066316605 -0.029242918 0.573417 -0.16156846 -1.1263571 -0.71883893 0.742408 0.14199837 0.12522048 -1.0545996 -0.4903885 -0.7439488 0.09768666 -0.34551612 0.6422473 1.4661734 -0.73661315 -0.27644673 0.21514834 -0.22591873 -0.30627817 1.3678617 0.06424995 -1.5381308 0.64094317 1.4329433 -0.22104305 0.6198251 -0.22436775 0.19317445 0.45286015 0.84084743 0.036340583 0.18990299 1.1454232
2409 0.00079511735 -0.22853515 0.17513295 -0.20527843 0.038732145 -0.7039224 0.22975332 0.5065669 0.72612506 0.043094818 -0.097222425 -0.4021555 -1.0022413 -0.8095228 -0.74704367 -0.06301874 -0.033085603 -0.8012084 -0.036154255 -0.04093845 0.30984992 0.5078179 -0.30141366 -0.37374866 -0.41181743 0.73647904 0.8011608 0.101452745 -0.36456665 0.013941312 0.17139925 0.5451165 0.61805606 -0.04666631 -0.5215459 0.4263595 0.047067583 0.0006780189 0.3498858 -0.25872514
192 -0.97121894 0.7447573 -0.45141447 -0.1392543 0.8318962 0.80331737 -1.1737008 -0.19277585 0.19759521 -1.7590945 -0.5860095 -0.7943547 0.92573917 0.4783397 -0.66467905 -0.46817917 0.9442954 0.35466474 -0.19486111 -1.6109085 0.0809886 -0.4153653 0.3065252 0.44744474 -1.3180883 0.37083536 0.64356273 1.7922293 0.9379673 0.06261763 1.9413741 0.6267769 -0.28993848 0.20935678 -1.1227785 1.2576811 1.5862982 -0.7405344 0.447475 -0.59939945
1464 -1.1423486 -0.058397993 1.0681229 0.0033849385 -1.1587391 0.6736734 -0.74267334 1.0627036 -0.22474433 -1.1394479 -1.22248 0.2786506 -0.49554634 1.091778 -1.150432 -0.3701092 -0.5235739 0.18949836 0.1156767 -0.23862943 1.2409153 -0.78047144 -0.80744255 0.40749326 -0.63591135 0.48072687 1.1099262 -0.017090777 -1.7650763 0.86373925 2.3133817 -0.24079941 0.34147245 1.3319012 0.16544469 0.053667158 1.3103044 0.2593146 -0.12524173 1.6713208
71 -0.20062865 0.5188578 -0.028977547 0.4200956 0.24031737 0.08758167 0.38431945 1.3489612 -0.047140893 -0.51327544 0.025379654 -1.0283908 -0.2934296 -0.091516785 -0.37686345 0.15019129 -0.66740143 -0.06121594 -0.36965215 -1.1311731 1.043965 0.22428682 -0.83843154 1.0475637 -0.4079563 -0.046671193 0.31240693 0.26972127 -0.36890367 -0.16952847 0.16302347 0.19733159 0.48044392 0.056465425 -0.020193417 -0.037746675 1.1644127 -0.1559086 -0.11813418 -0.7056854
299 -1.1678668 -1.039406 -0.028622806 1.373165 -0.28740415 1.3956796 -1.4031024 1.6201397 1.4193143 -0.6432504 1.4133118 0.27113783 -1.0911156 -1.0554281 0.2742124 0.45908198 -0.23280959 1.1607625 0.17437394 0.55477303 0.24457003 -0.2697911 -1.0058634 1.4402194 -0.52793676 -0.3472081 1.0543702 0.65821326 -0.7936847 -0.1987727 1.4802467 -0.23114581 0.07736058 -0.8528502 -1.1054893 -0.794419 0.80821556 0.4213023 0.3195343 1.0231915
62 -0.9309597 0.32841107 0.03947714 0.31177762 0.51254445 0.29897544 -0.18054909 0.95523757 -0.13000152 -0.24685217 0.3480649 -0.17439467 -1.3367602 -0.61026865 0.13598177 -0.07409552 0.20138939 -0.34584877 -1.7416581 0.33634844 1.6827861 -0.17313087 0.706641 -0.46977687 0.17521098 -0.7563008 1.0041858 -0.40022108 1.0749727 -1.1284723 1.0074357 0.19765872 1.2883135 1.3746893 -0.20249432 -0.43579978 -0.07922142 -0.28812405 0.13944805 0.008651845
1050 -0.9990755 -0.46877435 -1.3068482 -0.5894711 1.4813771 0.025258888 -0.020924268 0.8904486 -0.19804744 -0.07072732 -0.21353316 -1.1452936 -0.35109854 -1.2792155 -1.248814 0.61544204 -1.3501508 0.3056726 -0.77773494 0.7020933 1.6463174 -0.41899288 0.6648897 1.3217027 -0.6107458 -0.4342164 0.03538157 0.75128084 0.6317352 0.48143747 0.5741265 -0.008863551 -0.57167435 -0.64819497 -1.4138902 0.794489 0.7403383 0.6044427 -0.29205197 -0.63666093
492 -0.18838374 0.4314613 -0.2163865 0.3674003 0.47994837 0.25639102 0.09058857 1.1922585 -0.027166946 -0.4471143 -0.39172545 0.040883064 -0.82498366 -0.022998612 0.36503345 -0.11173976 0.40277988 -1.1302261 0.31000376 0.6088973 0.5847225 -0.098796286 0.7353857 1.0842255 -0.06052125 0.26153818 0.48781618 0.09992745 1.179314 -1.2187064 0.64469767 0.7205619 0.47776732 0.85712427 0.47655815 -1.3784988 -0.13337386 -0.51188534 -0.64947706 0.34831268
585 -0.18259424 -0.5298237 1.3761584 0.95760244 -0.31347382 -0.43770918 -0.17677249 0.9681333 0.33779165 0.21876034 0.36257443 -0.57792103 -0.2668191 -0.56472266 0.48345432 0.18556891 -0.521082 -0.77999693 -0.6578177 -0.31742218 -0.1089252 0.35404295 0.22424221 -0.14559554 -0.6775857 0.700381 0.30026495 0.1477715 0.91716796 0.03607951 0.45325074 0.26872295 -0.35098192 1.0729314 -0.8623151 0.24108358 1.0184306 -0.22217494 -0.026960712 -0.13809383
