2708 128
163 -0.07602751 -0.050517257 -0.0059819636 -0.041510142 -0.23888493 0.030146949 0.018116193 -0.07230571 0.08354117 0.11607121 -0.25938398 0.04212015 0.052521724 0.16620114 -0.12738219 -0.06484665 0.15285474 -0.20625308 -0.011190669 0.071252055 0.37672648 -0.14276303 -0.40833306 0.2364283 -0.4200733 0.10311849 0.023458397 0.29676858 0.18894844 -0.11964585 -0.25762755 0.34441134 0.07337549 0.019629486 -0.07489398 0.3495069 0.082307875 0.044998832 0.17700438 0.13367687 0.024053808 -0.23351581 -0.0747203 0.1371606 -0.17790072 0.3364826 -0.12853968 -0.24987255 0.0007018914 0.05437334 0.38644734 0.018902488 -0.015645113 0.096389115 0.12180014 -0.01719321 -0.13066761 -0.1797925 -0.19856642 -0.024133887 0.10718939 -0.16909574 0.15405658 -0.17294927 0.16652995 0.15679526 0.15132727 -0.2087689 -0.043939736 0.1262072 0.05243651 0.04231488 -0.11633426 -0.12085011 0.23385349 -0.4329307 -0.30750477 -0.006798802 -0.12057727 -0.10324273 -0.27390668 -0.09237853 -0.151253 -0.0034588485 -0.07508169 -0.1547497 -0.051191904 0.23269458 0.12200632 0.15952401 0.00754388 -0.13929042 -0.2030939 0.2734183 -0.09769613 0.0112817045 0.11634355 -0.16985987 0.15114675 -0.2713782 -0.16841537 -0.096270315 0.09558913 -0.051640444 -0.26169276 0.27388144 0.08964005 0.008527372 0.05091373 0.033988327 -0.14550379 0.01907982 -0.062595405 0.12971573 -0.09616219 0.112283155 0.26380795 0.06567807 -0.115825154 0.070736915 0.28336465 -0.14283113 -0.23819913 0.031059394 0.3329814 -0.3140641 0.13219436 -0.142664
747 -0.031511437 -0.30283302 -0.33518672 0.07635108 -0.24504729 0.38202283 0.100785136 0.15248297 -0.21757667 0.24591526 0.40627977 0.30721354 0.20386247 0.18091266 -0.008188699 0.1657731 -0.09156426 -0.030696573 -0.11711893 0.30814806 0.0022861445 -0.105840474 -0.35144714 -0.050645825 -0.40241176 0.22983968 0.01980907 0.08880191 0.035809595 -0.0131052695 -0.008027487 -0.048035376 0.058190774 -0.06709681 -0.10008203 -0.018879548 -0.05247343 -0.110161774 0.05828051 0.12233203 0.263521 -0.016055562 0.49067557 -0.35298693 -0.44272193 -0.010328516 -0.19970755 -0.012267779 0.38784885 -0.08355199 -0.049226884 -0.030040521 0.2590633 -0.07340531 -0.020491948 -0.12339651 0.46123523 0.10385562 0.15688019 -0.04458399 0.1502107 0.30194405 -0.007997381 -0.16841322 0.2869295 0.28222793 0.21928261 -0.062275764 0.2681739 -0.42807132 0.2565524 0.2846939 -0.22902551 0.254005 0.26668295 0.095393226 -0.26308343 -0.092979625 0.024557497 -0.059884712 -0.08703086 0.056473605 -0.12370727 -0.014954668 0.0050603608 -0.32221285 -0.00021187603 -0.27940217 -0.27961072 0.23945495 0.33775422 0.04763969 -0.08126031 -0.008147198 -0.206584 -0.2755653 -0.12243268 -0.081130035 0.16493501 -0.109252214 -0.050856307 -0.17194134 -0.020195674 0.2127085 0.12510644 0.39686576 0.04139619 -0.20305891 -0.15309557 -0.15637407 -0.02696315 -0.35202017 0.10323091 0.19459258 0.2780084 -0.10324994 -0.084141 0.06877756 -0.08200025 -0.22642706 -0.20057337 -0.23000355 0.012223251 -0.18956855 0.115923256 -0.07754783 0.33205366 0.23183596
565 0.043259587 -0.013678665 -0.06992691 0.17579971 -0.03696554 -0.13515554 0.14708146 0.33106098 -0.009173626 -0.15081193 0.09314551 0.007354237 -0.031213133 -0.105336264 -0.13510238 0.0063047907 0.30578595 0.086675465 -0.22783338 -0.053038433 0.12748253 -0.17423482 -0.15520675 0.043930057 -0.2554114 -0.16669348 -0.22061771 0.13213815 0.20173796 0.1251172 -0.103788964 0.118129954 -0.122743346 -0.058703993 0.20857844 -0.023049362 -0.23712406 -0.50429857 0.5202588 -0.1021182 -0.0881752 0.050487474 0.10745168 -0.245209 0.13504457 0.0967873 0.29811972 -0.12339961 0.014941135 -0.1567595 0.25946906 0.38624915 0.30811453 0.08762882 -0.09558469 -0.043622877 0.06462445 0.13605303 0.033783 0.115913674 -0.0652451 -0.14271559 0.22111584 -0.0011718541 0.25862777 -0.080195926 0.046678327 -0.018156113 0.2966705 -0.16236353 0.043889504 0.3632358 -0.14875597 0.15202433 -0.10435522 -0.023816247 -0.18636473 0.36832404 0.039531562 0.0012493696 0.13411073 -0.23210944 -0.015511751 -0.30960017 -0.025789758 0.056183122 -0.07714919 -0.18934235 0.03827656 0.12065167 0.079129435 0.009584143 -0.015472629 -0.111772925 -0.24015231 -0.09185643 -0.31677482 0.267462 0.14892371 -0.14265628 -0.231849 -0.106274754 -0.06719999 0.004338684 -0.2142261 0.31523398 -0.15550119 -0.014593923 -0.26754415 0.083838016 -0.10406975 -0.00060791307 -0.4605124 -0.07568995 0.093286924 -0.09575888 0.08258047 0.22301556 -0.33793348 0.2678007 -0.34798136 0.079177536 -0.2558626 0.26692188 0.15623409 -0.096055895 -0.034481462 -0.09518792
427 -0.11332007 -0.012773583 -0.20396428 0.023417948 0.11936099 0.5970342 0.093661934 0.16172451 -0.05299975 0.11453439 0.0556334 -0.33061865 -0.08211553 0.0980698 0.13170823 -0.005921632 0.11930002 0.2381447 -0.46115372 0.23755178 0.2540501 -0.057856616 -0.16324246 -0.13266084 -0.36086887 -0.23038001 0.063364096 0.018035542 -0.08907648 -0.166874 -0.15843433 0.06605607 -0.25834534 -0.021862706 -0.09790479 0.042801276 0.059718985 -0.042607613 0.09843796 -0.04537051 0.14085725 -0.15876557 0.19918066 -0.33372754 -0.3932816 -0.053675618 -0.19956663 0.0028704612 -0.03746847 -0.23953831 0.38415048 -0.023024442 -0.06465601 0.006967516 -0.039048858 -0.040585373 0.07179142 0.3464171 0.20118003 0.33016694 0.49108297 0.19447473 -0.13357261 -0.012051798 -0.2659024 0.3144829 -0.13389705 0.060248587 -0.14431958 -0.22591962 -0.07537908 -0.14275514 -0.12287718 0.09104695 -0.0326494 -0.033439163 -0.14803274 0.4255068 0.045508794 -0.2162679 0.081920825 -0.25674605 -0.16754033 -0.13019955 -0.06054917 -0.4195204 0.1985491 0.016528174 -0.05991784 0.31640843 -0.29736954 0.0871852 -0.08604648 0.0006608059 -0.14951134 -0.14723793 -0.10889484 -0.13369496 -0.02597875 -0.34521082 -0.07828099 -0.006635883 0.11184936 0.22204906 0.18634748 0.07925955 0.18265402 0.00773787 0.047055513 0.114443876 0.074234106 -0.085961744 -0.1469148 0.19660082 0.17558773 -0.13577642 -0.23061146 0.056312885 0.12794606 0.1655849 0.1785244 -0.09806347 -0.12731804 -0.03098182 0.020423776 -0.13144322 0.123508774 0.20157023
611 -0.37890607 -0.29232338 -0.12642227 0.37172115 -0.08743436 -0.11502803 -0.06185447 0.21451613 0.1198126 0.0803694 0.36984152 -0.19318287 0.10461427 -0.48706663 -0.5045486 -0.030300064 0.040538497 0.17933922 0.08291543 -0.3136382 0.40433097 -0.03078532 -0.17283979 -0.12562583 -0.4121324 -0.26609382 0.35236505 0.24765529 0.23233591 -0.12674631 -0.019552037 0.03225854 -0.010210481 0.1758963 0.02465504 0.15495306 0.06817395 -0.32965615 0.16505219 0.6169122 0.020519204 -0.0072564012 -0.13012178 -0.30279857 -0.26559165 -0.13314737 -0.1528461 -0.04583214 0.0686769 -0.1978452 -0.1518739 0.09755525 -0.0054571955 -0.12268672 0.035101674 0.053544473 0.10816691 0.34923905 0.29123354 -0.052189454 -0.1350093 0.16528207 -0.2797633 -0.02172666 -0.17744382 -0.0321899 0.23132563 0.39419472 0.309436 0.068036266 0.29451796 -0.17105308 -0.14971042 0.022692192 0.32145867 -0.35333058 -0.08418434 0.14654677 0.101649284 -0.13713454 -0.15556195 -0.21088612 0.10176312 0.38270792 -0.2628644 -0.16114055 0.1798558 -0.09253473 -0.20805556 0.28925204 0.07907576 0.18246306 0.07943419 -0.14516968 -0.2607194 -0.34216535 -0.40542075 0.0077282395 0.11470069 -0.09122955 -0.016773848 -0.37534836 -0.042066813 0.12840827 0.056882523 0.09977338 0.12456145 0.11481669 -0.20926097 -0.0019037134 0.037878077 -0.053684577 0.1920955 0.07913081 -0.09200567 0.064686276 0.27483472 0.16817488 -0.0014919831 -0.4613644 -0.16857105 0.17129315 -0.060985796 -0.5179642 0.22800034 -0.33586553 -0.29354954 0.07357594
74 -0.4142666 -0.21234834 -0.2851168 -0.053154122 -0.15221125 -0.43161505 0.23410581 0.06397054 0.14122705 0.042023 0.28760734 -0.12020954 -0.23720898 0.020108253 -0.4657025 -0.0418022 0.24699 0.2385578 0.197738 0.14327566 0.03526368 -0.4052608 0.16947173 -0.25615558 -0.36403394 -0.18285684 0.056830585 0.4251049 0.04751294 -0.22238873 -0.08885908 -0.0738228 -0.013436905 -0.15676217 -0.07452721 0.10596022 0.37928647 -0.22834079 -0.102439225 0.23088744 0.14739473 -0.2244409 0.35313904 -0.06621182 0.0061194813 0.19536254 -0.12110662 0.19101083 0.43149227 0.053304203 0.05699591 0.19039612 -0.037989262 0.17315647 0.1912118 0.15699507 -0.120134994 0.11358018 0.18637349 -0.023754423 0.16076708 0.4192858 -0.23894107 -0.35895002 0.1854504 0.27465048 0.045661908 0.1741974 0.32631987 -0.17805795 0.096692495 -0.20957673 0.13682948 -0.16528179 0.09198714 0.01045549 0.22809215 -0.15651165 -0.0062297285 0.29719615 -0.08079991 -0.058333296 0.16688797 -0.35474306 0.042333703 -0.29367328 0.5317864 0.1443726 -0.2757095 0.28408384 -0.0865084 0.25603288 0.07185544 -0.0074140676 0.078335226 0.034598563 -0.17113344 0.14300781 -0.062880106 -0.37612498 -0.028294362 0.1612261 -0.25814816 0.0811687 -0.17997295 -0.020086471 0.30565178 -0.12683152 0.0363355 0.03411368 -0.24306741 0.119080804 0.09336795 -0.2741819 0.101634964 -0.2815685 0.13364759 0.27560052 -0.14678688 0.054158095 -0.044704657 -0.05024403 -0.36705375 0.038720857 -0.08749799 0.22579421 -0.23151614 0.09256447
552 0.0915567 0.1123437 -0.30743486 -0.15048468 0.14858146 -0.028461788 0.028116805 0.11379949 -0.35206798 -0.3212776 0.13209546 -0.15372708 -0.0029640594 -0.17264634 -0.27346075 -0.278822 0.24135683 0.26109338 0.06128271 -0.02597456 0.23575927 0.19635978 -0.19401117 0.13526738 -0.36298755 -0.055685725 -0.6621106 0.0775037 0.039039794 0.09881816 -0.1858328 -0.14685945 0.24858421 -0.056707554 0.25508136 0.17014705 -0.2102602 -0.60979235 0.5614253 -0.1703651 -0.20613524 0.087219454 0.07866104 -0.23252906 0.24182792 -0.16479921 -0.024720054 -0.10032086 0.0712838 0.039226823 0.39823902 0.2948854 0.21820384 0.16477188 0.09514109 -0.17424874 0.03755828 0.35993773 -0.09924465 0.089968935 -0.1489107 -0.15688972 -0.09460284 -0.18456651 -0.043776933 -0.038628407 0.17962588 -0.24188001 0.4076388 -0.18640824 -0.23938087 0.2450885 -0.27939168 0.009650053 -0.24446167 -0.25278708 -0.25032246 0.1780709 -0.297045 0.14777447 0.19234148 -0.4378925 0.109326854 -0.31690764 -0.2555699 -0.041434933 0.10101182 -0.08129076 -0.1539986 -0.09858537 0.062277928 -0.1299072 0.089269616 -0.2606298 -0.27031735 -0.29232767 -0.47396195 0.18895382 0.16186206 -0.089559644 -0.24663904 0.019537698 -0.245461 0.01974823 -0.1972427 0.22909272 -0.09719272 -0.057861827 -0.1656619 0.002733064 -0.18242952 0.03015711 -0.468594 -0.1875898 -0.1667902 0.10459475 0.14711939 -0.06842845 -0.29797986 0.26785433 -0.3568885 0.13070929 -0.35612217 -0.013275848 0.0128778 -0.19785155 0.26256526 -0.23995142
430 -0.07414069 0.27554938 -0.2518865 0.2051908 0.2315739 -0.08621259 0.124573946 0.25177667 0.24002855 -0.045580864 -0.23604318 -0.017323785 -0.085085966 0.08356638 -0.24583049 -0.10536711 0.12650897 0.031059751 -0.15788811 0.18517236 -0.14585826 -0.27416825 0.1797173 0.12294771 -0.48418388 -0.2830113 0.07891121 0.16112483 0.027415728 0.01358283 0.15103985 -0.009912102 0.27520326 0.100655735 -0.22487764 0.09039818 0.2394224 -0.17812717 -0.12585384 0.057823107 0.1406823 -0.35577226 0.5701769 0.15722498 0.22120681 0.23204732 0.08671718 -0.2412455 0.03939867 -0.2763138 0.0046702144 0.2989736 0.1722451 0.19814068 0.46888116 0.17864779 -0.040642653 -0.18631548 0.07784282 0.37428248 -0.21266764 -0.12061129 -0.0655914 -0.089043796 -0.18290935 0.3240179 0.13640134 0.17640004 -0.3164876 0.08153531 -0.112333894 -0.18386495 -0.21482652 -0.07203241 -0.17293109 -0.06579577 0.1300328 0.020000026 0.33850032 0.19371445 -0.20102668 0.0063689393 -0.12036394 0.1519694 -0.17410481 0.18724126 0.2166599 0.19015764 0.7001599 -0.2657497 -0.1281255 -0.4249075 0.0030463617 0.049882155 -0.40881824 0.03347949 -0.034005772 0.08603184 -0.110487595 -0.32981917 -0.25273427 -0.046534162 0.060627796 0.21813458 0.20701559 0.36815518 0.11186987 -0.054591063 -0.2765183 0.41551554 -0.004351072 0.0956294 0.21158433 -0.094658144 0.1462437 0.1275362 -0.13699955 0.12945054 0.3095167 -0.018038785 -0.0025560723 -0.30824798 -0.03326208 -0.17897531 -0.107011944 -0.07469499 0.30393842 -0.079952836
745 0.20463815 -0.49356395 0.024373101 0.2768132 0.004602713 0.41362426 0.108838916 -0.13763174 0.31759128 0.48602498 0.21368392 -0.13060926 0.24830994 0.11243718 -0.30042022 -0.020888856 0.266373 0.22185874 0.03627579 0.19705273 0.28697947 0.13287263 -0.65543354 0.07339595 -0.29535693 -0.113016985 0.05817536 0.06767207 -0.106563225 -0.10191139 0.09541544 0.08666335 0.27058682 0.110534765 -0.26131347 0.04617809 -0.15192665 -0.100913264 0.29385296 0.32150364 0.27542552 -0.1857671 0.13541976 -0.200984 -0.21683788 -0.1690282 -0.103700586 0.027785694 0.24921584 -0.17492746 0.08100988 -0.028489778 0.3640582 -0.39095178 0.16529357 -0.053700328 -0.048368547 0.10027649 0.38005248 -0.20236632 0.35448727 -0.22204077 0.041473344 -0.18226206 -0.21164887 0.031168569 0.015244749 -0.2382823 0.30237287 -0.4264648 0.11754666 0.071798496 -0.20548238 0.23841742 0.13272248 0.293894 0.33734462 0.077221595 0.24964009 0.024494331 0.010912807 0.03198708 -0.3949316 -0.28784987 -0.25911614 -0.15284628 0.14132953 -0.28845945 -0.3462452 0.20450519 -0.040678423 -0.091161124 -0.107838295 0.22690652 -0.0041576154 -0.7050432 -0.13084224 0.13475345 -0.006326443 -0.07225199 0.3088178 -0.58850574 0.012377692 -0.06983053 0.2961425 0.34714657 0.08357461 -0.31185344 0.09329115 0.06265511 -0.23235342 0.17896938 0.065836 -0.043771718 0.44204664 -0.53490597 0.022576122 0.09978754 0.035184726 -0.062199116 0.13241574 -0.23024122 0.07454334 -0.21919635 0.14381348 -0.23999068 0.22032726 0.25697896
638 0.1120553 0.23529138 0.18861967 -0.15296818 0.041212287 -0.05040294 -0.022675483 -0.077184804 -0.20126238 0.081301734 -0.026331216 0.14662126 0.009313891 0.011463446 0.38589242 -0.09358855 0.1993693 -0.045588326 -0.228956 0.0575914 0.062408216 -0.052959505 -0.11456761 0.12062857 -0.19005427 -0.020131428 0.003769688 0.19295192 0.30481386 0.036458477 0.27128762 -0.03926024 0.11991166 0.41717032 0.10086383 0.14061491 0.59808844 -0.14023083 -0.026542269 0.12833278 -0.15474804 -0.37189394 0.08277284 -0.17442214 -0.034919657 0.19235487 0.16985911 0.11414852 -0.065559976 0.01760918 0.0700868 -0.09964018 0.19679517 0.3440769 -0.030997464 0.1160611 0.22856106 0.06373267 0.08712456 0.7842487 0.03043831 0.17865434 0.2647333 0.104683444 0.026661614 0.031606335 0.27916256 -0.13323155 0.45977813 0.11243338 0.34737697 -0.08315088 -0.1817183 -0.19826135 -0.05358715 0.082480684 -0.30937156 -0.0028475167 0.45789585 -0.011660817 0.24313939 0.03935555 0.15017365 0.068403795 0.085203975 0.08180658 0.16962981 0.14572494 -0.049337614 0.041307475 0.25448188 -0.34422696 -0.17130637 -0.12956475 -0.012022263 0.16148926 -0.04727949 0.0057980013 0.10345059 -0.3973708 0.22180428 -0.03348773 0.26702386 0.21551168 0.28294438 0.26598898 -0.07847985 -0.16421226 0.3440803 0.37343773 0.015901959 0.14335139 0.28993803 -0.08145484 0.25925487 -0.031674873 0.11292372 0.0992069 0.14174709 -0.15028729 -0.038142994 0.13154653 -0.18184337 -0.07801211 0.048742365 -0.07531775 0.36311212 -0.33888286
344 0.22736277 -0.069541015 0.05619837 0.061760224 0.3963405 -0.2799876 -0.20726322 0.0097268745 -0.17807724 -0.118443936 0.1665264 -0.027950156 -0.0004951906 0.2257314 0.43367374 -0.15277204 0.08443233 -0.2763058 -0.11809558 0.08668376 -0.04071697 0.3282578 0.13145141 -0.2980806 -0.6032314 0.11374983 -0.28737006 0.5288489 0.11738111 0.2385427 0.015752193 0.62867594 0.12463801 0.39926443 0.13492684 -0.017960615 0.4899242 -0.4142836 0.10555567 0.0863678 -0.066483796 -0.6974084 0.06358637 0.0114502385 0.090168394 -0.04304487 0.12657641 0.024758253 -0.15817879 0.20754296 -0.34859008 0.21702163 0.046740044 0.204322 0.48116776 0.35185164 0.005029111 -0.020235803 -0.10259531 0.4209531 -0.04759893 -0.5583861 -0.15285245 0.21033308 -0.048089355 -0.00069357513 -0.52789253 0.10271393 0.17554487 -0.07029351 0.41801378 -0.20170784 -0.009583953 0.2028718 -0.27208868 -0.29542866 -0.24077529 0.010100646 0.3211222 0.007839157 0.20109092 -0.069503814 0.1546219 -0.2776075 -0.21343425 0.2456627 0.13271241 -0.009204801 -0.41062227 -0.08263062 -0.16375695 -0.16406153 0.059454452 0.5146951 -0.24989031 0.274047 0.18866594 0.12472939 0.4349569 -0.33152038 0.15073255 0.04525329 0.12350002 0.45539474 -0.0457921 0.16581517 -0.26601565 -0.10493907 0.34283483 0.10695159 0.103934884 0.08976818 0.22236834 -0.06265799 0.28028706 -0.30462587 0.0138064595 0.13619201 -0.37568855 -0.0850603 0.001731772 -0.35605153 -0.07298945 -0.21946327 -0.46561286 -0.31621152 0.12112262 0.20381136
157 -0.4872359 0.050336342 -0.36017644 -0.0027612029 0.052545704 0.14967865 -0.28402373 0.239489 -0.009041552 -0.23467809 0.01096036 -0.12087077 0.055538498 -0.022237726 0.022983635 -0.16277476 0.15609612 -0.07308528 0.30847934 -0.08347159 0.098518975 -0.52077264 0.039682698 0.110982165 -0.4469957 0.07280693 -0.10722624 0.29334828 -0.19660103 0.1571053 -0.50454587 0.32435536 0.20509887 0.011638403 -0.0001505003 -0.18076162 0.056088828 -0.34078324 -0.035926647 0.4669849 0.64501834 -0.36340755 -0.09832245 -0.35339692 0.013257894 -0.03935219 -0.09029637 0.00847355 -0.07493254 -0.21309753 0.04537495 0.21039891 -0.022282777 0.18932992 0.028574029 0.05141767 -0.12749092 0.44727805 0.4589575 0.11719285 0.21459495 -0.041898828 0.059107188 -0.05729687 0.13645624 0.33634084 -0.24331044 0.41829422 -0.20634778 0.304679 0.65438503 -0.19926992 -0.15553798 -0.20338729 0.14957957 0.23396495 0.30008644 0.03268119 0.22546405 0.33970648 -0.17592096 -0.3700429 -0.03280347 0.32270506 -0.08451626 0.30364972 -0.09490173 0.1611394 -0.037186537 0.2858075 0.08431922 -0.046717063 -0.09351801 -0.46611723 0.14995329 -0.19424513 -0.43177417 -2.83456e-05 0.13171993 -0.27620184 -0.44644746 -0.16976963 0.3152454 -0.22720188 0.23138572 -0.27123737 0.5150528 -0.06276364 0.08825643 0.03420746 -0.39086115 0.1750397 -0.28313026 -0.40728387 -0.08464489 -0.23872228 -0.010385907 -0.01129383 0.21151635 -0.02248709 0.006463919 0.41460282 0.07784765 -0.54452974 -0.081460066 -0.45493072 -0.06042812 0.3180872
566 0.10780673 0.05037664 -0.19613118 -0.10084093 -0.06379389 0.074162744 0.040609475 0.2020136 -0.14972833 -0.1638051 0.2423754 -0.10732128 -0.1343146 -0.12447112 0.17442182 -0.018209118 0.12950543 0.009960881 -0.1983623 -0.012126484 0.09989466 0.095634766 -0.44183505 0.35809192 -0.22442089 -0.31014103 -0.31674448 0.11603254 0.3692668 0.21835558 -0.08236754 -0.115984805 0.016036728 0.12197886 0.12795636 0.30620137 -0.19179937 -0.2108175 0.24588625 -0.2954047 0.32966474 0.23923495 0.22966596 0.005250254 0.24381267 -0.083425775 -0.0796842 -0.17666121 0.32306996 -0.020643461 0.37595215 0.08509258 -0.1512432 0.37455425 -0.13400494 0.15817015 -0.014483731 0.024584232 -0.29321396 0.23800942 -0.16216631 -0.07717047 0.15695298 0.21668407 -0.014042148 -0.16516414 0.37049767 -0.16688825 0.33820653 0.04722591 0.40814242 0.10022269 -0.1742972 0.4411308 0.05302504 -0.28416926 -0.1425058 0.23566632 -0.014765102 0.2687825 0.020928198 -0.19475901 -0.12989718 -0.4786338 -0.11342611 -0.21365832 0.06244383 0.36195698 -0.1447524 -0.08122175 0.14483729 0.10170506 0.31072468 -0.12003531 -0.13257925 -0.28558987 -0.26540965 0.3101963 0.12812783 -0.13279198 -0.14021386 -0.21085064 0.05973505 0.07004708 -0.011090746 0.27835912 -0.04534479 0.014859539 -0.20697251 -0.04028649 -0.038982973 0.18999045 -0.28400177 -0.007772977 -0.011251106 -0.2291241 0.068670504 -0.024056114 -0.06200673 -0.069213286 -0.27259883 0.05577076 -0.17415835 -0.021747261 -0.0030388164 0.10078386 0.14494118 0.121951334
1354 0.20007707 0.44110358 -0.23234804 0.17519236 0.18412359 -0.17939481 -0.049852252 0.08214434 0.24015218 -0.42600375 0.4961162 0.34853783 0.015049653 -0.2853148 -0.22147383 0.25864005 0.18484573 0.361865 -0.1653455 -0.04104396 0.52199 -0.16555828 -0.35579902 0.3932999 -0.16084066 0.15054071 -0.06892592 0.23877113 0.33372778 0.1469828 0.84461135 0.057168867 0.367313 -0.05778384 0.03374148 -0.34936404 0.38377488 -0.39589283 -0.042882934 -0.4951396 -0.022893468 0.01189849 0.20627742 0.012928165 -0.17526603 0.6331181 -0.2424428 0.0055204765 0.36467066 0.19203945 0.2080735 -0.33692253 -0.2900455 0.2976802 -0.05766466 0.38182405 0.27580512 0.22590898 -0.07718708 -0.11253812 0.14929368 -0.93139565 -0.5019279 0.10609202 0.39126456 0.00338941 -0.45543304 -0.02144686 -0.15989845 0.15553395 0.5707071 -0.104740985 -0.17809929 -0.30834624 0.07223424 -0.43495452 -0.4151539 0.5640499 0.15491824 0.17973664 -0.48561352 0.24134865 -0.40603855 -0.40467188 0.34758303 -0.06143232 0.014668827 -0.636056 0.6238131 -0.13252747 -0.72956175 -0.3925152 0.045832418 -0.19379586 -0.3369235 -0.19868276 -0.8581105 -0.24942069 0.80880415 0.020838214 0.29754165 0.16441014 0.5552994 0.1278003 0.046964433 0.15354212 -0.10250024 -0.13340797 0.40331128 -0.4758352 -0.026085386 0.3779471 -0.1138077 -0.027863218 0.027352413 0.3649264 -0.26359883 -0.040002704 -0.047969926 0.16871978 0.27753353 -0.47393295 -0.20607613 0.27943516 -0.541161 -0.17000201 -0.039791152 -0.03383165
294 0.27431375 0.014846192 -0.31923229 -0.10473918 -0.10411218 0.06996802 -0.16477333 0.24840333 -0.12983638 -0.046275526 0.17544891 0.12832803 -0.05554166 -0.02716576 -0.16513915 -0.029211333 -0.1283718 0.112875804 -0.26255307 0.0761663 0.11764701 -0.012282496 -0.4451738 0.21710627 -0.13439974 -0.1945666 -0.10910696 0.24597423 0.3235861 0.10931018 0.13386008 0.19322993 0.0024694984 0.20826666 0.0716147 0.036410995 -0.16150498 -0.4251402 0.32086685 -0.10683285 0.09035968 0.001223356 0.04620715 0.09219579 -0.0036648884 -0.26909333 0.15952034 -0.0943011 0.09482687 -0.35828143 0.25903684 0.13213599 0.17198715 0.32825735 0.021012232 0.0051045683 0.18989944 0.2316784 -0.069622196 -0.005962436 0.090828545 0.050655246 0.14682858 0.19236982 0.09349514 -0.026901806 0.21734074 0.09157984 0.64671344 -0.12510356 0.17463323 0.37024206 -0.30098537 0.23914915 0.018357482 -0.026299758 -0.35247788 0.039517563 0.00061423134 0.1515056 0.027543098 -0.20884219 -0.33057034 -0.26710615 0.14982638 -0.072705194 0.24666616 0.033613153 0.06542716 0.33083758 0.41063377 0.120162636 0.008737799 -0.024585783 -0.3035446 -0.061669182 -0.21799953 0.18236274 -0.14164227 -0.3963272 -0.10316637 -0.30786657 -0.0632641 0.18844555 0.17184314 0.25145116 -0.06870998 -0.013351224 -0.2553585 -0.17316581 -0.18864557 -0.07960124 -0.3226542 -0.020962995 0.28505266 0.15043093 0.32460022 0.012726291 -0.15586463 0.16654798 -0.30766743 -0.0046010446 0.025648594 -0.116252795 0.09570465 0.1910417 0.17690077 -0.23810486
523 -0.1733493 -0.09808873 -0.09460821 0.04067558 0.09040512 -0.3663749 0.043558057 0.09966436 0.04767823 -0.2249466 0.124629915 -0.3374519 -0.18370943 0.13910493 -0.089930944 0.0350792 -0.09715664 -0.0822136 -0.019922238 -0.093211755 0.24942316 -0.26632294 -0.22319679 0.049446773 -0.16595338 0.02871792 0.08615219 0.032034773 0.2692772 0.04941728 -0.10532592 0.35683358 -0.014224377 0.073100984 0.11277595 0.08310277 -0.35837284 -0.3133803 0.42445058 -0.3525422 0.029865434 -0.123857446 0.08804838 -0.09120632 -0.1757355 0.22240192 -0.039565742 -0.18673892 -0.07929058 -0.18595976 0.11799595 0.24465118 0.14566185 0.11381375 -0.058045674 0.19784862 -0.042659417 0.10504831 -0.09128205 0.15308458 -0.17737532 -0.35730556 0.15972829 -0.35832465 0.29747912 -0.0071376055 0.1298313 -0.3913191 0.44001848 0.075029485 0.059554502 0.21193081 -0.12591112 -0.07251146 0.221338 -0.15424477 0.11716988 0.21247019 0.15516779 -0.31274053 0.038646813 -0.072644375 0.024066582 -0.404994 -0.03449309 0.2808578 -0.42358974 -0.3040728 -0.081897855 0.11602828 0.06918851 0.23821008 -0.23438583 -0.02229527 -0.37111017 0.054173224 -0.10194634 0.104210176 0.13556907 0.10025588 -0.22121198 -0.17546721 0.03281411 0.1064189 0.023019264 0.3448092 0.09042659 0.06947207 -0.0021891233 0.22637345 0.11000824 0.017968737 0.021146907 0.052764006 -0.047349587 -0.30345824 0.16899793 0.25323072 0.35699314 0.1487578 0.06962123 -0.17328984 -0.26780438 0.57864314 0.039174095 -0.05458726 0.044945356 -0.037847597
576 -0.029199118 -0.99596566 -0.846917 -0.06476901 0.1427687 -0.12412595 -0.5612263 0.1059398 -0.2001445 -0.102105975 -0.23490746 -0.08873906 0.26414087 0.0022917169 0.11859808 0.32212162 -0.05426831 0.33003983 0.026916945 0.5017079 0.38522235 -0.17854908 -0.6571605 0.2821777 -0.1723411 0.17470968 0.36806074 -0.42398646 -0.06815492 0.068315096 -0.1137675 0.30184624 0.2754537 0.12632276 -0.50282544 -0.2598697 -0.23672348 0.24013594 0.55472195 0.48253292 0.114265256 0.021202018 0.5599651 -0.5779472 -0.18286091 0.05411908 0.26659516 -0.2817091 0.6257705 1.1388193 -0.16370718 0.032846767 0.4253368 -0.37408477 0.33467758 0.016649932 0.55849755 0.2588361 0.45224285 0.72411513 0.17876166 0.09894397 -0.17386031 -0.14160031 0.09153809 0.33028686 -0.02552613 -0.24398945 0.4421303 0.28143176 0.34098044 -0.049735013 -0.02002659 0.12443767 0.14757645 -0.10869025 0.70567423 0.7082708 0.11019851 0.07763796 -0.18381937 -0.2100637 -0.53625685 0.08839392 -0.084059805 -0.16816194 0.43606207 0.1388913 -0.25513506 0.2680116 0.36386463 -0.34248245 0.35992733 0.58947194 -0.048547253 -0.40620264 -0.40948808 -0.36463174 -0.105525166 -0.2129685 -0.09731411 0.06543451 0.16359425 0.25287136 -0.21933588 0.045523506 0.117964804 -0.08298756 -0.46229967 0.12369798 -0.22928281 -0.36193398 -0.18784986 -0.12571116 0.21548702 0.26392677 -0.17491564 0.54545844 -0.04035831 0.23739322 -0.20299526 0.061091043 -0.26892608 -0.07733098 -0.1805211 -0.5509568 0.41969475 0.26815492
378 0.03200981 0.20257165 0.036892258 0.0059543764 0.18544942 -0.00036649455 0.070090875 -0.00998741 0.23771465 -0.15375905 -0.042465217 0.041839708 -0.09240868 -0.19298284 0.13966185 -0.1179134 0.042751014 0.250989 0.016392823 0.35740522 0.24246857 0.014426522 -0.20875704 0.053539023 -0.17218201 -0.08349027 -0.41689977 0.24618863 -0.123561196 -0.41426763 0.075512454 0.30355793 -0.087732 0.68589556 0.25852722 -0.20837006 0.4139493 -0.19876572 0.24532832 0.34671226 0.4359659 -0.014275707 0.47241157 0.28846383 -0.3563815 0.15460563 0.09717777 0.056905806 -0.26200604 0.13561387 -0.30250767 0.12812716 -0.054198023 0.5143342 0.042687442 0.04318077 -0.06853518 -0.07040143 -0.19871855 0.52384806 0.22779141 -0.12793238 -0.03435464 0.22607441 0.13808051 0.18153308 -0.033340342 0.13883187 -0.035419893 0.17329678 0.4440005 -0.19502966 0.16087806 -0.107938506 -0.06988715 -0.16689636 -0.1317288 0.038456105 0.3746275 0.058113564 0.21576558 -0.121241465 0.010235095 -0.33427346 -0.28651598 0.25916496 0.06588593 -0.55255324 0.11686724 0.1676932 -0.177555 -0.42232007 -0.1247446 0.20216177 -0.056985777 0.22382298 0.47929046 0.18932903 0.07831929 -0.23232521 0.07296782 0.16810314 0.079348065 -0.064329326 -0.06712334 0.28928038 -0.33872664 -0.34869984 -0.20292604 0.4213387 -0.02450727 0.16596502 0.120099254 -0.082796544 -0.09664106 0.08414795 0.0858348 0.07935333 -0.44906408 -0.26695043 -0.11713404 -0.41516393 0.20676798 0.0022620277 -0.15185593 -0.18749611 0.026037198 0.26493424
453 -0.21073371 -0.42365265 -0.3239954 0.36234587 0.5190507 0.07632345 -0.3626264 -0.14867969 0.0893603 0.60365915 -0.2114785 -0.07218361 -0.11958519 0.06789522 0.1974646 -0.30329826 -0.2958701 0.3557375 -0.0059160455 0.09742807 0.09387581 0.062473785 -0.19808899 -0.10942317 0.13908462 0.42101774 -0.64215416 -0.1423382 -0.1771117 0.06729444 -0.60399854 0.055372804 -0.1888711 -0.0045241336 -0.1633621 -0.1650909 0.53101414 -0.7303322 -0.06651366 0.08401908 0.40921947 -0.29513076 0.23488183 -0.1768907 0.5350885 0.45591486 0.18592614 -0.11528869 0.3818372 -0.13129354 0.47410014 -0.42873102 -0.10636032 0.6081646 0.4469964 0.14055428 -0.10421059 -0.17182848 -0.102459535 0.35026222 -0.41299263 0.014265594 0.174343 0.32594833 -0.0382618 -0.12531793 -0.20565079 0.004068376 0.33789518 -0.11491485 -0.09962184 -0.07154381 0.18497278 0.13347486 -0.22546555 -0.29378968 -0.22693035 -0.062038038 0.82047224 0.20743284 -0.08367499 0.16643311 0.28915533 0.07331655 0.15692964 0.19317393 -0.16900022 -0.16711365 -0.06466578 0.48659056 -0.08655657 -0.1733947 0.28098038 -0.19872431 -0.06927119 0.09216323 -0.26482674 0.38051993 0.24734566 -0.024300385 0.47408742 0.1345216 0.1652151 0.071108505 -0.0974088 0.5031315 -0.098779 0.06153951 0.15194835 0.31941283 0.0351487 -0.26209158 0.091392845 -0.027594179 -0.2859685 -0.17519614 0.1442586 -0.20504375 0.13307877 -0.023255872 0.5237484 0.02843231 -0.1320964 -0.4771774 0.085934184 -0.44853726 -0.7736714 0.26100257
793 -0.27581012 0.33271617 -0.06901008 -0.13279308 -0.107812166 0.030026158 -0.0017830374 0.08086338 0.61650133 0.2576248 -0.36764598 0.31377232 0.6729643 0.08379197 0.04558671 0.115288034 0.17492843 -0.27045488 0.05445653 0.25525528 0.57721764 -0.116151094 -0.45353267 0.108266026 0.004954433 0.056489494 -0.07001487 0.29577333 0.6097783 0.2482479 -0.16734229 0.3795907 0.046464436 0.052754533 -0.111349195 0.41051242 0.0072767087 -0.39974055 0.10914521 0.058537435 0.2996509 -0.04194689 -0.023192868 -0.038644873 -0.059461746 0.6017682 -0.2777759 -0.13687374 -0.1008732 0.41033527 0.087366425 -0.10791322 -0.16879833 -0.18580435 -0.034835216 -0.115917504 -0.17477518 -0.13840276 0.001292774 -0.053416815 0.23632583 -0.27736232 0.15444416 -0.09849887 0.13648854 0.048024382 -0.03008032 -0.17389555 -0.022163905 0.32862395 0.22411495 0.18545899 -0.2961533 -0.08721234 -0.09245545 -0.24750508 -0.6374447 -0.20082073 -0.11499366 -0.41179958 -0.62929344 0.091216445 -0.27572364 -0.17110898 -0.15364291 -0.0353647 0.052122846 0.39640504 -0.07094287 0.34138018 -0.16801594 -0.1338376 0.011137277 0.17584264 -0.03842692 0.0269241 0.051552124 -0.10222258 0.073802486 -0.31893554 -0.2074735 -0.22564821 -0.29823968 -0.014702685 -0.18486571 0.3193598 -0.029272 0.39307126 0.03006596 0.14759402 -0.52975774 0.14430366 0.13525356 0.31723297 -0.40606916 0.44797984 0.08820068 0.37827614 0.12146653 0.013097091 0.4167627 -0.2731669 0.074380204 0.013363696 0.19047725 -0.4954213 -0.019942766 -0.10284096
635 -0.3427831 0.25794333 0.030394964 0.38354024 0.07845986 -0.1564663 -0.13675903 -0.063198775 0.037035882 0.21166994 -0.05102114 0.1183097 -0.055410676 0.22308235 0.05808711 -0.06815252 0.056877118 0.06280578 -0.15236805 0.40815973 -0.18717554 -0.19519468 0.27979574 0.3025652 -0.28944427 -0.15107201 0.16150565 0.34584162 0.15097132 -0.124536745 -0.052302986 -0.16138537 0.4771444 0.10075881 -0.18508545 0.047976434 0.27295238 -0.10668561 0.11544235 0.106291175 0.030258674 -0.4142814 0.39049038 -0.13129118 0.2840106 0.4830403 0.15588227 -0.1473688 0.04661967 -0.33356172 0.16620092 0.32580245 0.18581177 0.23420642 0.38833082 0.46673128 0.07975896 -0.062293936 0.08828237 0.44454387 0.23028459 -0.040938538 -0.105474055 -0.19294104 -0.13034321 -0.08205165 0.17027378 -0.026524307 -0.34291157 -0.08913734 0.07318033 -0.012544557 -0.2820656 -0.20765418 -0.15486932 0.16010946 -0.07259547 -0.007690186 0.4321511 -0.10009874 0.01819928 0.15028484 0.12992613 0.17209597 0.13413282 0.15764104 0.09322084 0.23157775 0.6524498 -0.23655021 0.1873225 -0.5728417 0.025997646 -0.20337017 -0.25630358 -0.029228479 -0.1503902 -0.047637165 -0.17083791 -0.450932 -0.09345165 0.05008573 -0.18045124 0.6381864 0.17686483 0.40482 -0.31489804 -0.18424661 0.045802988 0.23580778 0.12501602 0.34061778 0.105218045 -0.072795704 0.12998049 0.15895304 -0.19015001 0.06992146 0.29449308 0.05689396 -0.23006304 -0.112082966 -0.25379387 -0.3628003 -0.06254355 -0.116762295 0.08520918 0.20632592
1644 0.062505364 0.3387783 -0.038076267 0.03969641 0.27772054 -0.027667573 -0.038297717 0.053466573 0.1946987 -0.15881512 0.24514157 0.2324844 0.121727005 -0.06713872 -0.16690595 -0.1941689 -0.049037777 0.0239494 0.021319313 0.07803362 0.28663468 -0.089129746 0.49797058 0.27453327 -0.24496381 -0.12423579 -0.32736167 0.21667181 -0.30650878 -0.29563278 0.11727472 -0.037592478 -0.055561647 0.17028983 -0.016467577 -0.04512424 0.20898397 -0.15897892 0.013714579 0.33058244 -0.11247246 -0.09453375 0.28482214 -0.22158511 -0.39431345 -0.27104548 -0.06738682 0.054788493 -0.015871441 0.046945374 -0.17147203 -0.3240384 -0.24603447 0.084412694 0.3206307 0.21962816 0.08455874 -0.5231981 -0.18492284 0.35244244 0.5198508 0.07816368 0.020636354 0.039124742 0.039603148 0.20510586 0.023362732 -0.22793686 0.43855748 0.113797255 0.22813949 -0.030204603 0.1754272 -0.048766788 0.20255633 -0.18923157 -0.13874806 0.20202054 0.18640134 -0.101157755 0.1311054 0.02052001 -0.10363797 0.02355407 -0.26863807 0.32589534 -0.18028644 -0.5889396 -0.22329125 -0.16929336 0.2841644 -0.32030714 0.4777488 0.07620149 -0.072825305 -0.2551127 -0.26423535 0.39568204 -0.13823403 -0.50615996 0.0119187 0.4174011 0.2685078 0.3160116 -0.2146236 0.19061425 -0.080400355 -0.21885744 -0.07579059 -0.042167123 -0.38321927 -0.12763229 0.03950574 -0.04151375 -0.31349713 0.2620496 0.08957163 0.2972866 -0.30365396 0.082982235 0.28654277 0.0096395295 0.07512885 -0.23237702 0.014540484 -0.23534489 -0.30466506 -0.33014727
109 -0.34585154 0.1450015 0.20502277 0.28421754 0.22333542 -0.2530932 -0.32437715 0.017618775 0.04244406 0.124153346 0.2002922 -0.2732613 0.37974447 0.014165791 -0.12078782 -0.34172258 -0.15201002 0.31663612 0.12286747 0.32163727 -0.011999909 -0.007646605 -0.18228374 0.44764373 -0.2466541 0.4384983 -0.2428097 0.87519675 0.043711446 0.27568325 -0.37168965 -0.10226217 0.021615973 -0.08291651 0.026741337 -0.040872056 0.1452699 -0.29342473 0.18557204 0.3567637 -0.1860082 -0.5330361 0.079151034 -0.13264312 0.8035996 0.493128 0.013754844 -0.06382345 0.29937974 -0.006527246 0.5323533 0.09334367 0.23691095 0.32364276 0.3794537 -0.08422516 -0.0071879504 -0.124257766 -0.038250454 0.6126593 0.18903966 0.44749412 -0.005228554 -0.19913338 -0.51575655 0.17456682 0.2574738 -0.3783648 -0.41913795 -0.24278429 0.21140648 -0.014145796 0.30797946 -0.13598105 -0.22173081 0.020292442 -0.18206984 -0.24864794 0.06352662 -0.068336286 0.2623528 0.34261522 -0.11637001 0.0018750321 0.3259541 0.3906052 0.13078879 -0.19882286 0.43031946 0.094186075 0.3931035 -0.18948439 0.042265844 -0.21217695 -0.24116123 -0.24495724 -0.60669744 0.3469031 0.24571277 0.08256811 0.2801834 0.2571296 0.017927228 0.100542784 -0.075612254 0.06812095 -0.33533517 0.12037397 0.21199147 -0.17262764 0.177913 -0.10447322 -0.17650808 -0.119634785 0.0066646105 0.14532681 -0.16597503 -0.05242492 0.17551911 -0.014150296 -0.0663327 -0.31679493 0.2781529 -0.21774174 -0.16363017 -0.9900848 -0.40989423 0.2494355
672 -0.042083044 0.15772067 0.095272206 0.28867245 0.13695616 -0.19585548 -0.38367614 -0.015230162 0.07874851 0.035387624 -0.052996226 0.31434357 0.15421222 0.10141886 0.05175489 -0.08783282 -0.032144506 0.5394782 -0.2637141 0.46000186 0.3605332 0.27413723 -0.30365935 0.10532154 -0.07513561 0.2767272 -0.31310615 0.5331602 0.37494662 0.2537587 -0.12015669 0.321589 -0.3955801 -0.032645933 -0.148251 -0.06577655 0.2747825 -0.26068604 -0.0942872 -0.17203039 0.050923157 -0.6402287 0.07424785 -0.21876392 0.31276152 0.20330994 0.020024737 -0.17182986 -0.11100578 -0.07945423 0.020187672 -0.022454781 -0.3335495 0.25916767 0.4517167 -0.2992745 -0.38442263 -0.07728748 0.2630369 0.45103705 -0.189846 0.092823565 0.14351492 0.06507221 0.1230624 0.14800821 0.6503499 0.120463245 0.2528564 0.030675245 0.096586086 -0.13227782 0.21828029 -0.18862368 -0.5083149 -0.4000453 0.03373983 -0.2953315 0.07552215 -0.0035464782 0.34465975 0.15568559 -0.13371064 -0.30834135 -0.03799082 0.12820965 0.16043572 -0.30360585 0.280211 0.37090576 0.1050291 -0.29576123 0.13631792 -0.17112656 0.42396075 -0.08717194 -0.42683506 0.13030025 0.089046024 -0.036736496 0.39093664 -0.22262561 -0.13102557 0.15983553 -0.05667661 -0.0022048417 0.019976495 -0.119174846 0.03457603 -0.07998551 0.20887107 0.0050844117 -0.040848617 -0.37717 -0.22658113 0.16042171 -0.33987156 -0.20238785 0.025450265 -0.088718385 0.18506199 -0.004361696 -0.36289802 -0.49617192 0.29129857 -0.5441962 -0.31275254 0.18912984
910 -0.004801283 0.12880012 0.24910533 -0.003537154 0.05783016 -0.23255308 -0.2381856 -0.20891409 -0.27662948 0.2158321 -0.30590504 -0.002684473 -0.02972641 0.36053813 -0.12602402 -0.3578897 -0.0010161593 0.09395394 0.04277116 -0.15893935 0.37413064 -0.36985275 -0.16228706 0.15807503 -0.7599231 -0.08553834 0.050806344 -0.04603874 0.26819134 -0.117484696 -0.099880666 0.66793096 0.06523101 -0.24973021 0.32578924 0.025550416 -0.27369964 -0.1621672 0.32019523 -0.12228742 0.19769578 -0.25188905 0.36051434 0.2575668 0.50353837 0.22798225 0.3579073 -0.33407673 0.51920676 0.038801663 0.11033197 0.2713756 0.22819228 -0.1434338 0.116395555 -0.061655123 0.19649197 -0.2907421 -0.027086372 -0.46382612 0.3682098 -0.45739025 -0.35078457 -0.029439066 0.36915505 0.43921515 0.37477216 -0.455757 0.24448365 0.05643899 -0.056122582 0.36057436 -0.40590358 -0.34247142 0.22681513 -0.12861025 -0.6057152 0.19071671 0.14187603 -0.2293421 -0.0820469 0.0049707647 -0.41831508 -0.12938982 -0.111303926 -0.12821834 0.018210018 0.12556583 -0.1519715 0.36263344 -0.03805868 0.31105658 -0.31906787 -0.060610354 -0.29687032 0.26816595 -0.38224566 -0.09920239 0.20634896 -0.1568678 0.024940027 0.26367408 0.3760616 -0.060246903 0.0755363 -0.014212293 -0.062263597 -0.2820383 -0.015878106 0.17871822 0.24586292 -0.107867405 -0.5370227 -0.100782305 -0.1673519 0.07195464 -0.0600105 0.36853242 -0.01892377 -0.19143695 0.16273898 0.023531223 -0.17874229 0.45942247 0.2676644 0.16674902 -0.19700713 -0.29656467
136 -0.084655136 0.39491978 -0.1405326 0.35843784 0.5176296 -0.01690834 0.10976775 0.33580655 0.38845283 -0.065332845 0.16855466 0.123704515 -0.2134843 0.29129472 0.48599046 0.10812965 0.30272987 -0.13749228 -0.7711825 0.15583895 -0.09409337 0.16265127 0.010290394 0.15986107 -0.1828165 -0.37569815 -0.11155313 0.24452941 0.13114084 -0.30961064 0.18707475 -0.036007013 0.18860759 0.48506296 -0.13740377 0.0030771114 -0.081485786 -0.78690886 0.25956443 -0.31680882 -0.4814217 -0.37759286 0.24900204 0.20427917 0.21925516 0.09070217 -0.12936167 0.110561274 0.04519753 0.1483166 -0.13881613 0.13268778 0.19446902 0.17041993 0.4345184 -0.28070715 -0.030050652 -0.020418836 -0.23701452 0.64382595 -0.09483417 -0.15146138 0.025676053 0.3244128 0.5371446 0.34196684 0.042104673 -0.09355139 0.15440425 -0.23701459 0.31196332 0.32468927 -0.0037439938 -0.7511249 0.04890281 -0.1655227 -0.17769854 0.20006493 -0.089715384 0.25426948 0.048865736 -0.038530853 -0.43675673 0.29627305 0.10342375 0.045613833 0.3649455 -0.42430848 -0.31489813 -0.34261265 -0.597995 -0.4215079 0.0691002 -0.4248027 -0.07656663 -0.3114478 -0.12289092 0.38631052 0.19244069 0.20304167 0.22764333 0.052302368 0.6715838 -0.0070003397 -0.25905576 0.28190547 0.23170036 -0.16993667 -0.09929736 0.15778317 -0.41254303 -0.08295265 -0.07457194 0.11522067 0.026137473 0.15485556 0.4018729 0.20732884 -0.14286041 -0.047255594 -0.29170823 -0.123533174 0.10503708 -0.4296158 0.00029847305 0.09532826 -0.105129205 -0.36744744
14 0.19599096 -0.24130578 -0.4314468 -0.7991683 -0.38998988 -0.23868154 -0.16711317 0.23188119 -0.3895601 0.11184814 -0.090150736 -0.60095745 -0.022404913 -0.10743148 -0.26622432 0.37418005 0.040261015 0.15502687 -0.25906008 0.15122837 -0.54122704 0.18013375 -0.20815782 -0.3544954 -0.004575631 -0.09878971 -0.49690428 -0.14686608 0.11467296 -0.0823889 0.48715985 0.31781748 -0.096861675 0.38431117 0.012665998 -0.8606686 -0.016799757 -0.41866687 -0.22768389 0.07478594 0.34429827 -0.45788205 0.105205 -0.6066252 0.6056098 0.27402276 0.023445392 -0.34255365 -0.37141153 0.19464788 0.4783312 -0.50030935 -0.3975018 -0.19419207 0.5235708 0.1694072 -0.421427 0.27946696 -0.38916004 0.28850114 0.2997903 0.03769821 -0.35998148 -0.42247406 0.16418004 -0.25222352 0.41503215 0.25858393 -0.47301283 -0.44776917 0.23989259 0.22707923 0.03237858 -0.46888053 0.13178799 -0.22499032 0.49267647 0.35966408 0.37429252 -0.7534126 -0.62436867 -0.54731846 0.18101764 -0.099210344 -0.37142178 0.012698383 -0.24355716 0.06668527 -0.19573817 0.6536889 -0.2649444 -0.20167868 0.001737861 -0.3423691 0.034438793 -0.10578004 -0.7738359 0.2774458 0.59807885 -0.5909631 0.052714344 -0.34948587 -0.04345011 0.29449672 0.15024072 0.68188024 0.7552251 -0.024200695 -0.13326444 -0.1295139 0.07722904 -0.13718057 0.17191234 -0.3141906 -0.25205073 0.1915211 0.19498675 -0.30703282 0.42880666 -0.07850946 0.35991678 0.34873256 0.07042559 -0.4986311 -0.062044322 -0.023736091 -0.4711965 0.020907098
1527 -0.1326101 -0.54437363 -0.29385796 -0.3219207 -0.05271907 0.2753751 -0.20521861 0.129901 -0.5036371 0.24900946 -0.013393575 0.47012782 0.3317613 -0.14872292 0.26314387 -0.06931341 -0.09995908 0.40992782 0.1662583 -0.43325123 -0.013557237 0.018348992 0.18094106 0.06689808 -0.35247394 -0.032196403 -0.29243204 0.45007494 0.019875033 0.029072938 0.10306776 0.06491834 -0.05107383 0.13540646 -0.049106378 0.5434393 -0.17485705 -0.34948882 0.32504708 -0.1726691 -0.06844821 -0.049442172 0.44473034 -0.19230258 0.055346336 0.5141011 0.02761423 -0.26022586 -0.21875836 0.011630654 0.23858403 0.18821764 0.022543026 0.29802155 0.015909826 0.15130155 -0.06031108 -0.09767693 0.11262039 0.12370338 -0.11640911 -0.14032078 -0.41865814 -0.48415163 0.094652906 0.53061575 0.13379037 -0.57460153 0.1464249 -0.29559287 0.26700848 -0.30248156 -0.17858043 -0.417581 -0.5595347 -0.03657644 0.1610017 0.25736433 0.57359946 -0.01738146 -0.22929758 0.024433535 -0.091248795 -0.29503757 -0.23484804 -0.26552847 0.27331904 -0.19846767 -0.28122583 -0.22904462 -0.39926112 -0.23418947 0.67651963 -0.014400335 -0.03146195 -0.16073146 0.07795441 0.2943891 0.30732465 -0.16260487 -0.6850095 0.46491867 0.28904077 -0.5824492 0.22809315 0.15987343 -0.016073542 0.3370184 -0.1824843 -0.5169287 -0.082270846 -0.057639398 0.81093854 0.23356098 0.20637977 -0.54787487 0.37671325 -0.37854815 0.24422285 -0.3718296 -0.56953853 0.044260215 0.07229375 -0.34774968 -0.008153286 -0.006367166 -0.48280823 -0.017129118
569 0.28995925 -0.26097256 -0.3411875 0.24151777 0.33689725 0.3080189 -0.32506517 0.19253008 0.2154948 0.27647853 -0.07298471 -0.41754517 -0.3179541 0.036821634 0.087941974 -0.19706461 0.30468568 -0.092139766 0.115448266 0.22977689 -0.10705598 -0.17931628 -0.109595 -0.14911608 0.15588048 0.15665531 -0.06601571 0.2661711 -0.5456049 -0.056026563 -0.4460604 0.26305273 -0.10801131 0.25095832 -0.4618268 0.08985561 0.6382225 -0.5466035 -0.056760486 -0.05382242 0.055431437 -0.31052777 0.25158992 -0.076177694 0.22963302 0.39837018 0.24271558 0.042055983 0.5437148 -0.17571838 0.3163741 -0.41784352 -0.0933008 0.29316118 0.21162772 0.103457965 0.28670713 -0.01417939 0.2364847 0.5371863 -0.3512922 -0.17245445 -0.109641284 0.25189057 0.16480087 -0.109514594 0.12123981 0.1433529 -0.17384349 -0.04882281 -0.04932287 0.253447 -0.17506744 -0.13761798 -0.27700734 -0.39497748 -0.1468282 0.13481355 0.41682792 -0.15350421 0.04012581 0.17017308 0.32677597 -0.06659086 0.13865267 -0.16663115 -0.29401416 0.030104952 0.10226203 -0.041398905 0.2227238 -0.08451325 0.21212989 -0.28345436 -0.23214002 -0.07698161 0.489695 0.2730805 -0.0026361968 -0.31217778 -0.06894947 0.15728308 -0.082244486 0.0030959244 -0.118439965 0.45322272 -0.14406526 -0.045963347 0.5049019 -0.017890127 -0.21111488 -0.052950945 -0.012357297 -0.3154777 -0.5692048 -0.17032151 0.1723795 -0.12661216 -0.022029385 -0.30394298 0.39944732 0.079662465 -0.0065528317 -0.33012867 -0.03520049 -0.28816327 -0.50237787 -0.019261163
478 -0.30037612 -0.16260043 0.097687565 0.01280513 0.07179245 0.03948911 0.19358164 0.18856183 0.07256002 -0.20866239 0.08358583 -0.09940018 -0.27841893 -0.2795626 0.30428562 0.39641938 0.4037293 -0.024443392 -0.07976793 0.077596515 0.14569929 -0.12484553 -0.32816315 0.12274103 -0.32254893 -0.0073377336 -0.2513625 0.11980028 0.002419044 -0.13202426 0.26605552 0.26188996 0.037311632 0.023027787 -0.0018428353 0.0037945802 0.16846673 -0.02422376 0.39199412 -0.047567766 0.13977411 -0.15464643 0.30054572 -0.21041824 -0.13105868 -0.046731047 -0.04951861 -0.07597228 -0.0034195515 -0.15011577 -0.066671535 0.2985296 0.07286043 -0.010390839 0.17981464 0.12867764 -0.20169601 0.16628061 -0.14357981 0.3462301 -0.25812423 -0.08976799 0.45925608 0.12718134 0.27745694 0.18606383 0.16303918 0.12497281 0.31884575 -0.044582482 0.37736297 0.13489187 -0.15293972 0.15482907 -0.03458436 -0.19069585 -0.20804426 0.09067933 0.14365067 -0.40397978 0.16748 0.20993185 0.050380263 -0.43197075 0.012797167 0.19263111 0.11773466 0.1838458 -0.16457888 -0.2704308 -0.17418104 -0.6915161 -0.1323567 -0.42902964 -0.26631433 0.09487862 0.08845131 0.06449747 0.38258624 -0.038447794 -0.11938426 0.16243969 0.3505752 0.009934851 -0.07473861 0.12491292 -0.017137935 -0.45062122 -0.34120932 0.60089606 0.5356888 -0.2642665 0.0870519 0.23865378 0.04731819 -0.045785375 0.36940646 0.26229024 -0.06194968 -0.13137458 -0.054411937 -0.45986447 0.2302864 0.014768507 -0.39475083 0.12960897 -0.16335107 0.09331718
76 -0.050830703 -0.37945092 -0.40276638 0.09351198 0.060324028 -0.13589907 0.07504841 -0.21196795 0.19639446 0.48953876 -0.07882131 -0.30898967 -0.24136968 -0.2819425 0.011455277 0.23638786 -0.0693406 0.02569622 -0.015244521 -0.051518697 -0.3213803 -0.32785547 0.28142434 0.054802176 -0.46788797 0.14922708 -0.40618905 0.2829579 0.11084603 0.010347005 -0.04060324 0.055100262 -0.0493372 -0.12175357 -0.23921943 -0.098142765 0.41574305 -0.4753492 0.38792008 -0.038587242 0.5778822 -0.048087243 0.01776775 -0.002560812 -0.27863514 0.2896612 0.21815258 0.19536948 0.36394343 0.23258932 0.031308584 -0.21161683 -0.057908867 -0.0689835 -0.059731163 -0.029278893 -0.7372374 0.516909 0.1830198 -0.011755103 0.41919425 0.006754584 0.0859864 -0.90204424 -0.06641149 0.0083067585 -0.16436003 0.08929925 0.11775067 0.16508366 0.0058761984 -0.5481432 0.13441706 -0.30895433 0.11531267 0.19859596 0.21087076 -0.28526804 0.21392176 0.5573229 -0.31027216 -0.286456 -0.13496943 -0.3438099 -0.21710508 -0.27931857 0.4305192 -0.007360875 -0.038013246 0.07774627 0.27125874 0.28760374 0.049034726 -0.16291665 -0.040105987 -0.089937806 -0.51277184 0.58142465 -0.15650974 -0.45082667 -0.13569407 0.24088147 0.084033825 -0.16916864 -0.1996306 0.09032427 0.31899637 -0.20664549 -0.21515761 0.68660045 -0.14749825 0.282379 -0.16110437 -0.08029776 0.004365152 0.12794106 -0.20906326 -0.08799121 0.141483 -0.24877146 -0.0786864 -0.03763494 -0.14757642 -0.46099266 -0.10302403 -0.22998326 -0.43963954 0.48207167
1328 -0.13788125 0.05900289 -0.10545805 0.15099472 0.23948443 0.026579037 -0.10761923 0.3614424 0.4359404 -0.29083756 0.3966464 -0.21102947 0.13950285 -0.6758326 -0.09904425 -0.37256542 0.27518106 -0.117823206 0.22264037 0.3261009 -0.14347263 0.06219377 0.4201541 -0.15418617 0.24785471 -0.0027467972 -0.5886641 0.16554165 0.11259477 -0.4575175 0.23297073 0.16967832 0.32853314 0.022793502 -0.13015543 -0.048306923 0.20646814 -0.30548087 0.022723498 0.36122206 0.024003405 -0.43235618 0.8584364 0.12801705 -0.44131607 0.06541968 -0.041869048 0.24028406 -0.3174419 -0.111303784 0.29309314 -0.1710733 -0.09211618 -0.07892645 0.6255445 0.14602223 -0.2847142 -0.4052578 -0.47609997 0.23039238 0.37502503 0.13695632 -0.059408832 -0.18110567 0.09763663 0.16795701 0.4027229 -0.018834885 0.38276777 0.37846896 0.1778155 0.20753078 -0.16074044 0.017305009 -0.053963583 -0.12160858 0.06042426 0.24147484 0.23027639 0.09417471 -0.23776728 0.23216571 0.2386378 -0.078105345 -0.36575663 0.34533548 -0.24107769 -0.59718984 0.5636184 -0.31799656 0.22057123 -0.3069833 0.43857542 0.1166174 -0.35586846 -0.003543175 -0.20818551 -0.17062813 -0.00046558093 -0.7917955 0.04962846 0.33447757 0.29236048 -0.11975622 0.3098698 0.2099703 0.2800891 0.10801323 -0.29076913 -0.098170124 -0.24276382 -0.29044086 -0.13982484 -0.22717611 0.07650002 -0.1039705 0.055930927 0.16033934 0.03250256 -0.038771063 0.35362834 -0.018950593 0.15573974 -0.35377428 -0.08555635 -0.10194585 -0.008464047 -0.13679421
66 -0.18885736 -0.070277475 0.44273007 0.26361126 0.18250886 -0.28541413 -0.4342892 -0.3629895 0.0027817881 -0.07432793 0.14419767 0.21475376 0.10215982 -0.23104039 0.081683144 -0.22279009 0.49338165 0.10366861 0.3773664 0.1888384 -0.03109873 0.11636966 0.0001246548 0.5007144 -0.43873903 -0.32546344 -0.08769724 0.31099802 0.053796273 -0.022510415 0.42996246 -0.075477324 0.026879475 0.23763163 0.26250112 -0.11944961 -0.021862978 0.06509336 0.28446302 -0.2308794 0.02139221 -0.06946279 0.7269788 -0.625892 0.32213292 -0.50143677 0.18943347 0.2773361 0.32184434 0.087143555 0.581231 -0.18322301 -0.22396357 0.51756835 0.30126455 0.13772066 -0.013347179 0.013252297 -0.03448396 0.110548295 0.17125359 -0.25578606 0.39537352 -0.26831326 0.13613646 0.20373695 -0.55827796 -0.17938003 0.009471422 0.45263568 0.1630481 -0.07067021 -0.41813907 0.15689132 -0.27115828 -0.41683486 -0.36396003 -0.052964654 0.23936151 -0.017472254 -0.46583423 0.052800488 0.09556568 -0.22757123 -0.23267005 -0.14511645 -0.053277593 -0.16907732 -0.16141261 0.08901703 -0.5929683 -0.06059891 0.064918235 -0.26691794 -0.1792371 0.019544037 -0.1093563 -0.15278496 0.24076821 -0.08855457 -0.31140533 -0.19846828 0.14233181 0.4932461 0.23402677 0.25472307 0.16628258 0.36641052 -0.49439093 -0.2128971 0.33431795 -0.1738905 -0.06904326 -0.41032678 0.37441772 0.057170037 0.14250425 0.18451266 -0.42695662 -0.22612941 -0.18406364 -0.53798735 0.09074965 -0.020297607 -0.18442157 0.29522717 0.06373532 -0.017061902
570 -0.26085198 -0.91241693 -1.0393401 -0.2837997 0.30214292 -0.16368802 -0.85096335 -0.0197461 -0.22274677 -0.23502685 -0.5187108 -0.1805689 0.3561875 -0.20945893 0.18792263 0.5470999 -0.14088753 0.36149263 0.17202438 0.3518967 0.310122 -0.01883191 -0.8410955 0.33326203 -0.046304755 0.4151725 0.6691062 -0.5512237 -0.13208441 -0.13625221 -0.20669483 0.31697455 0.15127774 0.282654 -0.724638 -0.5253559 0.024474401 0.41623685 0.85562617 0.5317587 0.3136603 0.143663 0.8764909 -0.7021777 -0.16297388 0.23601036 0.24063498 -0.29099056 0.83203495 1.7173218 -0.1248665 0.40616086 0.33914626 -0.42081222 0.3353132 0.079398796 0.45991614 0.28491804 0.57954735 0.67822874 0.06046998 0.25153637 -0.30647868 -0.18241197 0.37180278 0.42133072 -0.10266487 -0.12937993 0.6121446 0.56284744 0.53190607 -0.07152808 -0.097859055 0.08081521 0.021498846 -0.22804755 0.6545152 0.6290812 0.21964985 0.11841323 -0.15940835 -0.4085498 -0.6543666 0.17754126 -0.13050997 -0.15656129 0.46270186 0.18620722 -0.071459845 0.3791753 0.69956625 -0.55551255 0.25257206 1.0035423 -0.15981458 -0.64021206 -0.834662 -0.7714237 0.14771716 -0.479437 -0.1611354 0.31779045 0.17824389 0.26391757 -0.27409852 0.14336942 -0.104074374 0.20892446 -0.6449699 0.38707742 -0.31467277 -0.21607628 -0.1658894 -0.1235152 0.32580015 0.051147185 -0.023575453 0.90490484 -0.2015041 0.23447804 -0.19951582 -0.06792812 -0.12966321 -0.12072425 -0.13584274 -0.5090162 0.4427157 0.41406652
1290 0.20139533 0.039606515 0.020623662 -0.02806165 0.39887986 -0.37657097 -0.16229369 0.37410614 0.32980603 0.041325834 -0.1469049 0.38240805 -0.3292128 -0.14513339 0.14768466 -0.30715552 0.0667833 0.24383453 0.06985553 -0.058392838 0.38109306 0.28261763 -0.03644567 0.0014138926 -0.046293225 0.21682668 -0.5020453 0.2731439 -0.35916674 -0.528717 0.0595751 0.17252281 -0.09222854 0.1558198 -0.1745087 -0.001778336 0.19043003 -0.29883027 0.26458457 0.11004105 0.23663564 0.04210199 0.11493295 0.14688805 -0.09100139 0.20045206 -0.11604271 -0.042895075 0.17733482 -0.11669399 -0.27929038 -0.1363393 -0.010303754 0.44621307 0.19339266 0.20183681 -0.1837498 0.07759745 0.09622665 0.21911503 0.24037713 -0.24695574 -0.120951764 0.029411677 0.10876636 0.48910305 0.35873935 -0.036905583 0.24120964 0.02775903 0.074577935 -0.23601697 0.06173014 -0.2360603 -0.055092942 -0.5169138 -0.21494187 0.04175799 0.6121953 -0.018125001 0.3556156 -0.13362601 0.08616973 -0.3711608 -0.28729272 -0.04134072 -0.30643082 -0.21234316 -0.093644015 -0.07842499 0.20996635 -0.21199064 0.44073373 -0.021765305 0.21187244 0.30936465 0.31870565 0.41238892 0.16254093 -0.6038048 0.35200155 0.20405588 -0.11687233 0.1533862 -0.20220849 0.11560311 0.1345426 0.0061852257 -0.08495908 0.35092315 -0.16626059 -0.3118626 0.33832628 -0.11148882 -0.2925833 0.047640555 -0.08788457 -0.06263121 -0.12170391 -0.024946347 0.28819403 -0.222173 0.5601485 -0.37934718 -0.2473441 -0.29244387 -0.0070125363 0.12164934
1240 -0.5792523 -0.355365 -0.63013345 0.16300857 0.091829054 0.41487873 -0.22297686 0.09025483 -0.38170165 0.14073297 0.22762911 -0.05821071 -0.29417995 -0.052762885 -0.06407728 -0.19301836 0.113644965 0.02655931 0.4370611 -0.2178025 0.1879456 -0.6329436 0.100406535 -0.17052744 -0.23636001 -0.25214913 -0.23740833 0.27417722 -0.044458516 0.13142234 0.08763991 -0.03402006 -0.20334499 -0.4551071 -0.24225181 0.097809166 0.10629535 -0.16142175 0.27270228 -0.31431252 -0.190909 -0.18515728 0.42269954 0.19597664 -0.015596675 0.28518245 0.108939536 -0.033812985 -0.26104963 -0.014472115 0.15749013 0.18730158 -0.117773116 0.7209299 0.30187327 0.33840832 0.05317943 0.181042 0.37807634 0.15867434 0.6027503 -0.16193046 -0.4351928 -0.26000142 -0.14592507 0.18261243 -0.09117764 -0.17172855 -0.1611624 -0.41231474 0.34565434 -0.11879436 -0.06962573 0.014279697 -0.3531549 -0.3067172 0.39291242 0.19256239 0.024471281 -0.0023090767 -0.5244155 -0.050978128 -0.4264574 0.13964868 -0.19151011 0.27924284 0.24607706 0.18254718 -0.32648808 -0.24573624 0.1419268 -0.15974918 0.28403306 -0.037156142 0.36898306 0.04983603 -0.054438677 0.033774327 0.35355163 -0.36155674 -0.2709889 0.20984152 0.44341987 -0.67757946 -0.0627323 0.19049558 0.14166664 0.075050816 0.20303546 -0.3234924 -0.23126766 0.30203107 1.14529 -0.12799032 0.1891181 -0.18559864 0.1875912 -0.11758764 -0.25063998 -0.5431653 -0.25179878 0.05193504 -0.17560688 -0.2740825 0.37495977 0.04671302 -0.4787882 0.47773454
1136 0.09111522 -0.13526803 -0.1420173 -0.03838841 0.049354635 -0.24466904 -0.025068562 -0.13605252 -0.09253167 0.07491348 -0.32702962 0.34499967 0.08014705 0.43459615 -0.25783265 -0.26441932 0.6832998 -0.39103746 0.037597496 0.28646594 0.47900528 0.112401806 -0.53491145 0.3085493 -0.3115745 0.22875325 -0.07566643 0.2852825 0.088745676 0.07552505 -0.42618957 0.65370166 0.030026983 -0.37353155 -0.33267465 0.4352512 0.030977806 0.13110836 0.115435496 -0.19527258 0.4525539 -0.48487252 -0.16687562 0.13399927 -0.2490631 -0.11381866 -0.47503218 -0.36183977 -0.13601528 0.4317511 0.24399121 0.3570734 0.33027068 -0.093320705 0.028548015 0.408196 -0.36121464 -0.25689933 -0.20349362 0.26242426 0.3442425 -0.09306278 -0.1238205 -0.036051985 0.25744647 -0.05402705 0.12665188 -0.33524105 -0.087928705 -0.098122045 0.29212093 -0.27714902 0.44449356 -0.30181596 0.36159173 -0.13708292 -0.45594814 0.057913486 0.19041584 -0.110267125 -0.44262382 -0.38355908 -0.043877028 0.16422884 -0.055493806 -0.14755929 -0.2112115 0.31531802 0.27086502 0.17485355 -0.40177587 -0.20254746 0.19351143 0.36125553 -0.32026413 0.054717217 0.19792461 -0.16995232 0.294004 -0.24450466 -0.29488143 0.047186047 -0.20440792 -0.24503595 -0.43099117 0.33236918 0.16469277 0.023413597 0.08741083 0.101636395 -0.3430818 -0.1441925 -0.13502258 -0.0652547 -0.33122766 0.3333833 0.17383179 0.0031285398 -0.19446723 -0.06007985 0.2460285 -0.42698053 -0.33842787 0.07151789 0.31513464 -0.042672765 0.33828422 0.0270045
41 0.15842125 0.34024075 -0.06733581 -0.12554315 -0.25195974 0.062455155 0.3402557 -0.5266743 0.09371204 0.45758036 -0.4884217 -0.2947571 -0.8958119 -0.6920876 -0.06459562 -0.23260656 -0.20081773 0.07160621 0.14139204 1.2076795 0.2633233 -0.38060874 0.012002441 0.034191836 -0.4854163 -0.121996805 0.25268602 -0.066869676 -0.06219838 -0.4028192 -0.7595265 0.47729906 -0.2728399 -0.33384395 0.44768265 -0.9112242 -0.51616895 -0.7260833 0.5320765 0.049003612 -0.065351136 -0.29280835 0.886439 -0.6249821 -0.43429157 0.109317474 -0.5579693 0.037537657 0.5332544 -0.031846296 -0.28394395 -0.28875268 0.032963347 0.1263041 -0.60120136 -0.52525747 -0.48207235 0.045114234 0.74913454 -0.06498245 0.19999726 -0.37501377 -0.08363773 0.25955722 0.4024888 0.90177983 0.04208621 -0.2902338 0.40382808 0.007888806 0.6488672 -0.13661954 0.4600191 -0.61778235 -0.4258226 -0.40326893 0.8628749 0.5630497 -0.22091888 0.76991826 -0.54185206 0.50523543 -0.067526266 0.22527625 -0.2899386 0.3500282 0.6635018 0.43490484 -0.097109854 0.2920595 0.24581252 -0.36926207 0.42151645 -0.11425949 -0.33611307 0.3649175 -0.31036338 0.07833902 0.4326637 -0.5688358 -0.046777878 -0.35325184 -0.22510576 -0.12900762 0.14860779 0.6333155 -0.8282413 0.7880398 0.28627965 -0.44810718 0.11845671 0.52562404 0.72716004 -0.8727537 0.107401155 0.5432856 0.5469768 0.1501595 0.5358683 0.50821143 -0.15203169 -0.08152126 -0.22183809 -0.30353564 -0.1822602 0.09533451 -0.101060644 0.5515229
1153 0.19325972 -0.13501157 -0.23458499 0.076448 -0.43156275 0.13264236 0.2501173 0.08826532 0.49644354 0.20322326 -0.2120519 0.095963955 0.11229993 0.27450636 0.20263208 0.092988566 0.27003866 -0.14573486 0.15756764 -0.03001813 0.3701571 -0.22285116 -0.412384 0.5210092 -0.49532464 0.0712005 -0.2090993 0.37295482 0.7327554 -0.21272792 -0.38437495 0.20130305 0.28080627 -0.30787545 -0.06993991 0.21369913 -0.014396405 -0.082579255 0.28696564 -0.033216983 0.39535248 -0.19195023 0.2391657 0.022781182 -0.3125629 0.31783456 -0.3385913 0.05837135 0.00045207544 0.2391594 0.36425358 0.051632732 0.06512736 0.07156295 0.2752269 0.0027098889 -0.09762608 -0.12648456 -0.3111333 -0.071154565 0.16436386 -0.11212574 0.23305406 -0.24221605 -0.033014685 -0.02326629 -0.11796917 -0.12963656 0.08427729 0.24552071 0.2207303 0.18065459 0.0851318 -0.22902669 0.055538185 -0.147816 -0.37110487 0.005145017 -0.2932115 -0.6042419 -0.7460585 0.12924632 -0.28993818 -0.24948506 -0.2098203 -0.09283875 -0.33161068 0.45992965 -0.056750663 0.44824645 -0.115676254 -0.4023747 -0.1325913 0.15883462 -0.31542805 -0.0060323346 0.26578444 -0.262906 -0.022722216 -0.18178566 -0.12402752 0.009973922 -0.41757172 0.06887757 -0.21797568 0.22286864 -0.099482015 0.15947807 0.18926936 -0.050652504 -0.24199905 0.25150448 -0.07927382 0.27731338 -0.34188244 0.21683411 0.44422418 0.27236217 0.057823736 -0.13075179 0.4596716 -0.0837188 -0.2171744 -0.35036713 0.24398726 -0.40049207 0.20783435 -0.34504208
1713 0.28867754 0.29623464 -0.127461 -0.17560408 -0.23639797 0.05631022 0.35598105 -0.7062139 0.024695626 0.59301776 0.059711773 -0.035426836 -0.57592785 -0.9724492 0.05168096 -0.06883266 -0.3840582 0.27086195 0.19341673 1.357733 0.20556945 -0.18227063 -0.18123251 -0.42619768 -0.39027283 0.020126944 -0.06289274 -0.3426357 -0.4007077 -0.18643828 -0.34840384 0.45611027 -0.30735528 -0.27844736 0.56809837 -0.5327434 -0.31547013 -0.8123469 0.15042265 -0.04193395 -0.14552958 -0.5375123 0.6477627 -0.3397924 -0.45469397 0.16771103 -0.54356253 -0.046685446 0.6414987 -0.32776895 -0.13977702 -0.39662352 0.17050305 -0.06069391 -0.5050485 -0.19748518 -0.32303423 0.03304082 0.5736715 -0.17022084 0.35360932 -0.441231 0.6288372 0.59085 0.6536671 0.82419485 -0.10071555 -0.2838117 0.6575989 -0.13249306 0.71057385 0.079290494 0.36643153 -0.59327424 -0.2478969 -0.34862322 0.6537447 0.7218061 -0.15214273 0.6627466 -0.6206456 0.19616614 0.29551098 0.13231376 -0.33956432 0.23713216 0.6991746 0.86610025 -0.62075084 0.6132096 0.22767419 -0.26929137 0.37634978 0.051430583 -0.6193146 -0.26791808 -0.23441751 -0.19882494 0.61210173 -0.5577726 0.2296755 0.14665541 -0.3290598 -0.44003204 -0.0016716801 0.6106646 -0.63944954 0.8823924 0.07029245 -0.4364154 -0.04268162 0.42077217 0.8168721 -0.74233663 0.059637856 0.46241197 0.7269472 -0.09572036 0.7045253 0.31175813 -0.3653149 0.12752418 -0.79208934 -0.51752317 -0.26621842 -0.12197309 -0.20488623 0.8628911
1569 0.11362032 0.5538557 -0.16663678 0.41778195 -0.17084281 -0.20210414 0.21590509 0.1588353 0.08452219 0.6239695 0.14455679 -0.21357843 0.23352481 0.016571878 0.21069112 -0.3099387 0.33233827 0.4094274 0.4180503 0.14924161 0.151477 0.1426604 0.056412034 -0.21825679 -0.6421959 -0.47617757 0.0031313368 0.084952064 -0.13441792 0.15230703 0.48900127 0.20531687 0.03443014 0.25692552 0.045998313 0.17753528 0.43784133 -0.16133638 0.36042142 0.2104023 0.5758818 -0.84387803 0.65153235 0.5271483 -0.2057368 0.00935277 0.06081276 -0.33526894 0.16782609 0.48481244 -0.45019037 0.22972737 0.36046022 0.389809 0.60248774 0.024850974 0.049664438 0.039837193 0.1496182 0.649014 -0.5113259 -0.20493376 0.44452792 0.028284147 -0.13597693 0.29823095 -0.13389462 0.13990872 -0.13880567 -0.6858185 -0.2400353 -0.27340046 -0.43040177 -0.105428375 -0.08119048 -0.12750897 0.27856904 0.04546034 0.47667903 0.037206475 -1.1370455 -0.18751536 0.061624046 0.21103206 -0.1507319 0.023961116 0.21511139 -0.2965013 0.430707 -0.4824808 0.293768 -0.24621707 0.18944056 0.40336388 -0.00319484 0.0973146 -0.35997766 -0.18864286 0.17688759 -0.16120893 -0.33053315 0.1805827 0.32005984 0.5740934 0.23268789 0.097308576 -0.48289692 0.080305226 -0.10765338 0.4468893 -0.26543978 0.13326135 0.34363863 -0.08937533 -0.30495793 -0.11474367 -0.2471945 0.11254803 0.5458482 0.18832934 -0.19219151 -0.41904962 -0.091020726 -0.050929613 0.024430564 -0.09072957 0.17773752 -0.23086251
2499 -0.2366906 -0.49413955 -0.62395024 -0.05117226 -0.11277764 0.118413396 -0.5325942 0.8484514 0.23802435 0.056450132 0.22504942 -0.36286414 0.2527828 -0.2302685 0.078473866 0.55107665 0.39411828 0.53016335 0.41982096 0.13049276 0.3121223 -0.27883127 -0.697127 -0.08670569 -0.6396352 0.28460112 -0.71950567 -0.25054154 -0.12529708 0.2673928 -0.0679314 -0.15112413 0.4404939 0.54832995 -0.37354437 -0.09881335 -0.3574522 -0.45237914 -0.25221914 0.9594752 -0.16014448 -0.42491037 0.13403964 -0.74628943 -0.93348837 -0.051572055 0.21291198 -0.38960126 0.2211324 0.0009188459 -0.21186088 0.25198856 0.020225817 -0.3515784 0.18815485 -0.10269289 1.0122263 -0.12802784 0.060971424 0.34901592 -0.3747767 -0.14639767 -0.21932933 0.14713609 -0.1993162 0.07091978 0.2837311 0.0938422 -0.111665316 0.53608507 0.90189916 -0.48686934 -0.087398015 -0.18831645 0.27241257 -0.06972308 -0.1396767 0.14181851 0.20058374 0.2445246 -0.23304066 -0.22998156 -0.8326616 0.53466153 -0.57798725 -0.25451273 0.3062562 0.30172473 -0.3064945 0.48630467 0.32992235 0.6156599 0.6530276 -0.26440603 -0.31263915 -0.07341764 -0.25468066 -0.04829394 0.022493986 -0.17097841 0.3256201 -0.414228 -0.16442956 -0.35453174 -0.14045729 0.1026536 0.17092955 0.21515161 -0.14045851 -0.08861351 0.1158882 -0.07204502 -0.1937988 -0.18202206 0.10935737 0.2000578 0.13964549 0.27770385 0.5462252 -0.18827479 -0.40732092 0.14306505 -0.5404384 -0.3175119 -0.22743933 0.013650555 -0.10850412 0.0008225857
250 -0.012430064 -0.28121626 -0.47901583 -0.09316874 -0.05657204 -0.09573587 0.16139178 0.2840564 -0.31852773 0.50108904 0.2637279 -0.4940104 -0.122160695 -0.17603484 0.25904593 0.008078021 -0.25270864 0.23002793 -0.3939789 0.15807928 -0.14942607 -0.23019351 -0.057446595 -0.040582612 -0.11369586 0.0703087 -0.23874608 -0.107322864 -0.06546883 -0.17248854 0.1428126 0.42740002 0.34270328 -0.043187626 -0.37417176 -0.24606271 0.050675064 0.12764457 0.26068625 0.32411093 0.18234067 -0.009813774 -0.3622379 -0.2873024 -0.24699679 0.06298079 0.15830547 0.108971365 -0.1224822 -0.0150046265 0.19923997 -0.33281785 -0.34290123 0.16717793 0.22110482 -0.13772209 -0.5415539 0.40218306 -0.3145424 0.33692148 0.5371797 0.12226988 -0.05783723 -0.47230163 0.0064095687 -0.014744045 -0.20529401 0.23342244 -0.17418365 0.18151441 -0.16885404 -0.13363287 -0.03382312 -0.21491566 -0.01890396 0.017831827 0.04894966 0.10592377 0.096366465 -0.24351302 -0.055630654 -0.6872032 -0.28685918 -0.30620214 -0.116888806 -0.6273139 0.41604453 0.15167682 0.03510976 0.32322764 -0.48115337 0.21253353 0.031280324 -0.05425294 -0.3158673 -0.13515104 -0.40675533 0.29056236 0.3920401 -0.5389845 -0.28698644 -0.41832548 0.07493186 0.18649472 0.07929201 0.3288895 0.18924473 -0.050049018 -0.06207568 0.29568866 0.07037939 0.09739847 0.39500153 -0.19618726 -0.12690519 0.39335054 -0.38851318 0.15442325 0.3387325 0.06691307 -0.2917442 -0.05541403 -0.31320348 -0.17635502 -0.043968055 -0.3022577 -0.5043728 0.60270864
591 -0.040595334 -0.2285462 -0.1757705 0.32126808 0.3380831 0.24918915 -0.7391827 -0.060920518 0.04211709 0.37087932 -0.032015193 0.23381877 0.03132026 -0.047930684 0.19875963 -0.61542046 0.33026075 0.25855866 -0.26158372 0.34228832 0.4013376 0.17999251 -0.28104606 0.31498685 0.058733333 0.29225093 -0.5354513 0.51209897 -0.0189016 0.27386525 -0.29411796 -0.19102919 -0.24645975 -0.15199812 -0.16055477 -0.056216113 0.37236628 -0.5669857 0.19211909 0.1458303 0.07502549 -0.88301724 0.12079147 0.03219541 0.44349256 0.21442677 -0.2004191 -0.14408636 0.10909718 -0.23511401 0.48285887 -0.29614237 0.037067205 0.17717588 0.5604038 0.06435948 -0.39751625 -0.12231843 0.02618552 0.49601695 -0.21841909 0.5650871 -0.15233798 -0.07625969 0.06420729 0.081604175 0.21968447 0.05177298 0.0084456615 -0.18889952 0.031801187 0.28704453 0.2636943 0.15855573 -0.09341993 0.10328711 0.15872824 -0.4297322 0.5365809 -0.18379189 0.16642895 -0.05623542 0.032575026 -0.22105598 0.22167622 0.27691528 0.07366687 -0.31629246 0.11463719 0.2890988 0.50596815 -0.21555366 -0.15379845 0.027412554 -0.38783184 0.39026213 -0.35162237 0.12183841 0.33944297 0.29336149 0.6541562 0.2756991 0.027660398 0.1426426 -0.14425215 -0.028164808 -0.36789224 0.46574774 -0.04012244 -0.20860665 0.097800955 0.2241568 0.04032291 -0.39081955 -0.25072512 0.099264 -0.19791971 0.32864347 0.08075173 0.19499746 -0.043885443 -0.31651005 -0.31774747 -0.29626477 -0.12714577 -0.26911357 -0.51817656 0.15702079
1520 -0.16319402 -0.82745606 -1.0516173 -0.54372203 0.28651872 -0.07390929 -0.82185775 0.041202735 -0.08233811 -0.3639955 -0.26700974 -0.17365535 0.17234202 -0.11820941 0.0088896 0.5725183 -0.22239698 0.2537183 0.26448512 0.37126818 0.32399306 -0.03169634 -0.8828156 0.21256106 -0.19522016 0.569968 0.58929765 -0.19735636 -0.2430452 -0.020618184 -0.31227732 0.31050867 0.28019044 0.46845314 -0.754686 -0.6498504 0.30182484 0.48094958 0.85182744 0.4904734 0.03504454 0.24528547 0.84188205 -0.8146676 -0.12398904 0.24252921 0.29840723 -0.40295592 0.6462971 1.6636995 -0.049540594 0.5283646 0.33917868 -0.22073427 0.17579389 0.098980516 0.4545508 0.23234208 0.37662256 0.477348 -0.051657423 0.25284705 -0.3728567 -0.2012334 0.32248744 0.47272524 -0.0041811117 -0.04009224 0.67114526 0.53643537 0.09129234 -0.108637206 0.008567142 0.27851194 0.07011416 -0.1417307 0.575213 0.57506734 0.13687934 0.21034741 -0.20048903 -0.42135826 -0.5742932 0.18923636 -0.37831533 -0.5732363 0.40177858 0.023753345 -0.03739773 0.55561787 0.77154756 -0.7893611 0.36171627 1.0387034 -0.19619349 -0.65694916 -0.96812606 -0.7877063 0.27789703 -0.50794184 -0.04863683 0.3654863 0.279753 0.40559915 -0.33597913 -0.031320184 -0.18136477 0.23058546 -0.6374338 0.3651825 -0.50615215 0.102031924 0.09827113 -0.16685224 0.09186249 -0.0022465782 0.08001033 1.0958717 -0.20572324 0.14684041 -0.19078211 -0.12347158 -0.06799122 -0.08679283 -0.050732795 -0.29132804 0.46762425 0.41647944
686 -0.33817974 0.18661666 -0.013405348 0.023388032 -0.04539786 0.18110934 -0.027570315 0.2315101 0.10907068 -0.08439668 -0.36907083 -0.34045842 0.17027004 -0.027380567 -0.28758395 -0.45674562 0.14878882 -0.02490468 -0.08605683 0.55352116 0.23876931 -0.23763956 0.34526765 0.218259 -0.44871125 -0.16965352 -0.11603302 0.26058596 -0.08337023 0.11244566 0.12364814 -0.0045373705 0.3270244 0.08282778 -0.43833145 0.002214288 0.0024607964 -0.2172991 -0.4481247 0.0207933 0.121392466 -0.10316188 0.38806704 0.18259309 0.12783788 0.36678833 0.41687056 0.025436897 0.40573996 -0.29849532 0.25420454 0.37712747 -0.0037734965 0.38193402 0.43123034 0.15215926 0.29189223 -0.32967502 0.2586389 0.26486564 0.23825565 -0.53928876 0.20953356 -0.21756545 -0.15239199 -0.13027568 0.02334425 -0.090097874 -0.33228308 -0.08367147 0.053057346 -0.2908863 -0.17604977 -0.14998224 -0.07472179 -0.2510322 -0.010002587 0.0011425469 0.36376297 0.0960654 0.33374524 -0.18535785 0.18028702 0.21891466 0.16646557 0.15982486 0.09897153 -0.0033389262 0.73673314 -0.17030613 0.06066336 -0.47753203 -0.15783845 -0.11712808 -0.5330211 -0.0059331846 0.3989274 -0.11529378 0.19416228 -0.31118673 -0.2569694 -0.110838495 -0.060360182 0.62673116 0.2609206 0.3141429 -0.22419605 -0.05622882 -0.46662825 0.079503775 -0.076096594 0.14267524 0.23509943 -0.21604043 0.21493231 0.24227683 -0.17548355 0.066752136 0.17440303 -0.15660012 -0.09732904 -0.14524822 0.10174414 -0.42818847 0.050393198 -0.13506305 0.15487893 -0.096050866
1459 -0.33588472 -0.07229353 -0.04477994 -0.4037196 0.014455144 0.19433868 0.12754871 0.08637662 -0.33387032 -0.02120423 0.000431914 -0.45922366 -0.2518243 -0.296164 0.102778055 -0.25202078 0.25565395 0.51293314 -0.2939317 -0.2541904 0.096923 0.16533713 -0.21623807 0.043954674 -0.3284268 -0.19426456 -0.42861572 0.010948923 0.116168335 0.38623163 -0.1612247 -0.08264088 0.35554415 -0.042448476 0.3290025 0.12498355 -0.24702789 -0.53064954 0.34300226 0.14612907 0.48613134 0.1300512 -0.22871962 -0.1704989 0.53249913 -0.100347556 -0.08256651 0.03352396 -0.09796691 0.007557608 -0.035081357 0.0021235317 0.039516628 0.40487862 -0.028426617 -0.199732 -0.25190917 0.25509363 -0.08574643 0.329384 -0.24569161 0.054681152 -0.3515013 0.10516618 0.5096621 -0.22684982 0.14753132 -0.32351178 0.19261846 -0.10936381 0.11527719 0.06291574 -0.16557673 0.22276631 -0.46071038 -0.41337022 -0.35368377 0.25336397 0.3318972 0.28679663 0.08842791 -0.19268134 -0.019644499 -0.1584648 -0.17039053 -0.042588096 -0.14149338 0.18131676 -0.17081237 -0.30166742 0.45036748 0.15673228 0.38885167 -0.10901787 -0.248159 -0.44478056 -0.30783033 0.045396183 0.0040924214 -0.16569036 -0.2900168 0.001414115 -0.22205797 -0.04444364 -0.18178481 0.33772418 -0.14758809 0.10179797 -0.4587896 0.055736296 -0.25794625 -0.09967831 -0.1825014 -0.08600883 0.119803004 -0.026497645 0.13749887 0.10165127 -0.23086895 0.07494739 -0.022008115 -0.04077947 -0.39656726 0.28436857 0.038095627 -0.13105409 -0.10607195 -0.17572361
188 -0.31466416 0.0155142 -0.15733965 -0.2720822 -0.14001858 0.10763442 0.11625102 -0.15692692 0.44392285 -0.008796186 -0.23055635 -0.33019733 0.10845003 0.40307248 -0.31136364 0.14042592 -0.31528687 -0.3467936 0.05289873 0.26240197 0.6592297 -0.297301 -0.08706703 0.21035886 -0.13294351 0.2607747 0.3005473 0.24819146 0.39670944 0.45444334 -0.1790467 0.30831933 0.15621966 0.42053273 0.07361176 0.39218733 -0.09642697 -0.31757224 -0.00027396478 0.00346636 0.065692894 -0.63413507 -0.1592556 0.26022542 -0.4088409 0.19808385 0.014235948 -0.3026049 0.032889 -0.08398747 0.23844284 -0.3236975 -0.17546739 -0.13394383 0.14211594 0.04879877 -0.010506095 0.12950626 -0.29711005 -0.21935017 -0.067661 -0.13054377 0.068494365 -0.24911848 0.41688994 0.33733022 -0.075276874 -0.6627056 -0.07442468 0.16304934 0.30623117 0.035074998 -0.13589312 -0.053013008 0.2653594 -0.40367314 -0.17903616 0.0017581992 0.015465236 -0.3076324 -0.18655235 -0.30385366 -0.07665131 -0.3383608 0.13331343 0.059294697 -0.22975099 -0.064635776 -0.21958485 -0.23627166 -0.056013804 -0.252573 -0.13063744 0.119693756 -0.2353651 0.07989835 -0.031715136 -0.06001114 -0.1613352 -0.37817964 0.0904027 -0.049629953 -0.02836181 -0.03592068 -0.1538782 0.41832727 0.0849493 0.5625625 -0.061812826 0.45982468 0.11426207 -0.12839761 0.15949671 0.21504085 -0.115166955 -0.04172883 0.19517371 0.44813177 -0.048655618 0.4184583 -0.05362676 0.13727587 -0.089111045 0.4123695 0.018313954 -0.29140028 -0.14195241 -0.0027160682
426 -0.14563623 0.26490882 0.2111752 0.18514155 0.31423968 -0.04674063 -0.11821071 -0.04160418 -0.09562937 -0.14299749 -0.07915626 0.1311919 -0.00882479 -0.051519975 0.37558213 0.19333184 -0.026097745 0.22302048 -0.13416559 0.32374573 0.28657314 0.229533 -0.039074887 0.30794203 0.17011009 -0.46238908 -0.2755731 0.27094027 -0.2660192 -0.0867855 0.08601402 0.32611784 0.026046706 0.18861239 -0.03031159 0.13664505 0.09385396 -0.18225722 0.15838434 0.39388072 0.49093425 -0.69121844 0.35156566 0.29877275 -0.017665826 0.19195025 0.015554575 0.18584156 0.091029085 0.034670547 -0.24096975 0.37417662 0.07508832 0.28037453 0.61625767 -0.1333561 0.2958575 0.057473533 -0.18163888 -0.20298532 0.2837923 -0.24127878 0.122091934 0.48726642 0.054439396 0.08506112 0.0596327 -0.26805493 0.15721306 -0.26476204 0.5207563 -0.39292347 -0.14001088 -0.36096814 0.11603374 0.026845735 -0.14809066 -0.086712435 0.2676057 -0.06822657 -0.32566202 -0.27843875 0.112319544 -0.061134666 -0.3859957 0.26490232 0.22453697 -0.38253874 -0.0027237178 -0.15371639 0.27408266 -0.2097239 0.44915953 0.27251697 0.22488788 -0.026429124 0.24424778 0.31986302 0.15591112 0.01969632 -0.19004259 0.22856535 0.123055935 0.97784466 0.24885282 0.45800042 -0.34610543 0.04215495 0.33009025 0.40526658 0.03113997 0.23205708 0.24186713 -0.0058201244 0.07881663 0.12334594 -0.1659287 0.15042496 -0.25199062 -0.13253255 -0.17080565 -0.6033195 -0.42967203 -0.22399941 -0.33350524 -0.45685756 0.03787187 -0.18911129
2153 0.07661676 0.1534726 -0.21378773 -0.46803975 -0.22092728 -0.2132875 0.47579357 -0.9500435 -0.122150935 0.4657347 -0.047012433 -0.22821379 -0.7724382 -1.0524464 -0.07737528 -0.010898639 -0.36460334 0.34081712 0.24227539 1.1802137 0.34149706 -0.067929946 -0.25868532 -0.7156992 -0.2479163 0.23524964 -0.32568577 -0.2067636 -0.5277392 0.04235343 -0.42935658 0.4022192 -0.14617243 -0.30206573 0.62855726 -0.39073452 -0.41852513 -0.8986443 -0.017091528 -0.0040427605 -0.10588089 -0.61176354 0.7227338 -0.2379144 -0.547549 0.21928841 -0.55634725 -0.20750923 0.9461374 -0.0629898 -0.09443137 -0.39881986 0.37043712 -0.29272568 -0.40123177 -0.26041928 -0.33506155 0.021983795 0.68353015 -0.27778792 0.3803216 -0.26101172 0.7882406 0.64168245 0.6719569 1.0675652 -0.15621977 -0.31548804 0.83585316 -0.037643243 0.7195697 0.0062709237 0.4911854 -0.5751553 -0.39021286 -0.393585 0.6516281 0.539107 -0.2057001 0.4414129 -0.5798652 0.07718631 0.45245525 0.39570647 -0.46587735 0.361034 0.74668425 0.7597612 -0.63592505 0.39235058 0.044006873 0.049417634 0.11372423 -0.07108243 -0.8260761 -0.53110135 -0.47018194 -0.30081624 0.5493584 -0.60953265 0.23950529 0.49853584 -0.3365362 -0.22038905 0.14482602 0.5324759 -0.7558419 0.7122333 -0.081519336 -0.41882673 -0.26900178 0.4124265 0.9866204 -0.69888616 -0.2526576 0.41039878 0.54233545 -0.22732522 0.3092548 0.4304734 -0.28896663 -0.0039538257 -0.84365475 -0.62117434 -0.040528048 -0.19333206 0.07132962 0.6708711
809 -0.23151179 0.49721766 -0.42262247 -0.18368693 -0.5628875 -0.43850482 0.5667756 0.30409828 0.115114674 -0.25013834 0.730651 -0.28557116 0.43034482 -0.14443867 -0.061627813 -0.33870548 -0.4248283 -0.79726624 -0.63234913 0.7305167 0.5486596 -0.19659002 -0.53074974 -0.1498213 0.71662384 0.6857347 -0.56360626 -0.6116104 0.6218242 0.21429732 -0.1917836 -0.8379162 0.8007166 -0.21508473 -0.3872983 -0.106991515 0.119532354 -0.34123018 0.96512634 0.1380502 -0.2073425 -1.0067377 0.039506394 0.003566683 0.051150315 -0.50529915 -0.0045736525 -0.86729884 0.47700378 0.6487655 -0.7348661 -0.091488004 -0.0045527536 0.27224815 0.29144526 0.6117532 0.009343166 0.13412637 0.11663498 1.1716106 -0.041125536 -0.15058888 -0.071560234 -0.7897357 0.6685616 1.3881811 -0.4765107 -0.7757146 0.90591556 -0.45908162 0.16940507 0.37876934 -0.9060915 -0.20757864 -0.042634662 -0.31275842 -0.8886672 -0.021892847 0.59216446 -0.20893128 0.08007398 -0.37391686 -0.56514806 0.37824735 0.07249292 -0.04998824 0.124323286 0.37331593 0.20633842 0.90894884 -0.2076068 -0.104605906 -0.4267576 0.58526814 -0.0048087724 -0.13404566 0.18641551 0.17986941 0.3599483 -0.39750096 0.20960191 0.043293912 0.45187896 0.7193386 0.51219386 0.30605003 -0.49433565 -0.10347751 -0.040510867 -0.36054426 0.680983 0.9676491 -0.332444 -0.5108999 0.55685574 -0.6994231 -0.039893612 -0.23011295 -0.9330967 -1.3024558 -0.4523244 0.02371978 0.057878684 -0.00074203307 -0.49060592 -0.12246351 0.07967806 -0.0128310695
359 0.046216346 -0.36856407 -0.6350795 -0.20418206 -0.18230018 0.23938712 -0.42695674 0.55287987 0.2960699 0.06015927 0.06285668 -0.3993549 0.22350928 0.039265707 0.12135853 0.5884537 0.55312854 0.42497823 0.4011968 0.16055322 0.3196498 -0.3727365 -0.6048101 -0.09440149 -0.5219822 0.47087857 -0.7226473 -0.21862249 0.0033158364 0.25000846 -0.06618787 -0.3917552 0.34665155 0.42711055 -0.2978984 0.07539264 -0.24093048 -0.15364571 -0.3094938 1.1337197 -0.18449488 -0.33712748 0.15299897 -0.8836924 -1.05883 -0.002187932 0.0667235 -0.502207 0.22795396 0.099230275 -0.29937238 0.2236965 0.07810113 -0.076413825 0.16725706 -0.079895586 1.1735746 -0.17927833 0.18800184 0.5529173 -0.48751476 -0.11660077 -0.22770792 -0.04343936 -0.13610291 0.09540294 0.2063725 0.027201954 -0.060076386 0.5131732 1.0484099 -0.45737144 0.10218389 -0.24190983 0.3015609 0.03317933 -0.118475825 0.1609518 0.25017253 0.20592585 -0.1643931 -0.20182651 -0.96649885 0.29520538 -0.7804466 -0.42990777 0.3004404 0.28083032 -0.13803717 0.58330727 0.34467745 0.41251987 0.7773356 -0.2849187 -0.22787122 -0.16156459 -0.227879 -0.07679527 0.1469491 -0.1582818 0.3725765 -0.23970412 -0.17356142 -0.33350062 -0.085405536 0.06538268 0.1348941 0.1232859 -0.09875589 -0.11525389 0.09298602 -0.11152489 -0.3432311 -0.1119023 0.10418118 0.013875749 0.29719412 0.2625661 0.53242993 -0.23800549 -0.42207536 -0.040158108 -0.64470595 -0.24546692 -0.237029 0.0871381 -0.1391935 -0.0980294
129 0.104571685 -0.16984566 -0.030395461 0.010586985 -0.35227117 0.20107642 0.099853724 -0.38478377 0.37969688 0.30487856 0.21866107 -0.16764164 0.23928654 0.35519746 -0.23864764 0.007243901 0.09996073 -0.18584451 -0.21784319 0.28411034 0.4267372 -0.2065487 -0.19176205 0.3981107 -0.47055697 -0.09550061 0.29806072 0.1444351 -0.07718813 0.097616926 -0.027366871 -0.04274376 0.07373963 0.14671332 0.047479626 0.2503449 -0.1875888 -0.13623515 -0.30465463 0.1337999 0.07339342 -0.11439904 0.32050574 0.37412074 0.06858382 0.006820581 -0.42541134 -0.16545516 -0.21218573 0.11961446 0.13325079 0.077387415 -0.04015672 0.018656265 -0.1035096 -0.076278724 -0.08759124 -0.13570106 -0.4548383 -0.0066272267 -0.13313532 -0.33791012 -0.3437305 -0.09706618 0.067337126 0.14704907 -0.1297803 -0.55693316 0.08275764 0.24483459 -0.086301334 0.14882605 0.15041912 -0.11675356 0.041120753 -0.23611489 -0.09148943 0.15054493 -0.14497063 -0.043621723 -0.28478378 -0.057054542 -0.5435042 -0.24810645 -0.02929146 -0.026351687 -0.37403157 -0.15808496 -0.4190645 0.27070504 0.24037689 -0.27283347 0.09825244 0.018498944 -0.2946701 0.078803584 -0.038336564 -0.27868453 0.13961142 -0.86896425 0.072510324 -0.03366038 0.16240233 0.1650269 -0.09523916 0.085072026 -0.17309774 -0.032665573 0.38420355 0.63890314 -0.037986394 0.04356508 -0.06865091 -0.113952115 0.4245155 -0.038262285 0.18592489 0.3720056 -0.044266272 0.16423312 0.2327747 0.09733343 -0.12068684 0.19131562 0.36222735 -0.47944012 -0.42267275 -0.04279503
881 0.06768624 -0.0753837 -0.5030083 -0.5725602 0.15845487 -0.15466395 0.09624196 -0.14658435 0.28240877 -0.073960245 0.34262955 -0.3136288 -0.043193147 0.06605218 -0.33041748 -0.014325039 0.13217181 0.06728238 -0.25005972 0.22141281 -0.21943803 0.009804254 0.09243932 0.061092358 -0.3543352 0.31278196 -0.13491687 0.41504362 -0.16985495 0.16972081 -0.11235317 -0.29748812 -0.52750975 0.11824301 -0.2730166 -0.109037586 0.4833075 0.22406223 0.20281301 0.28452513 -0.010859086 -0.123079166 0.25256705 -0.39086327 -0.28842035 0.54844385 -0.6729321 -0.06398352 -0.17405932 0.100211866 -0.4272448 0.1651118 0.15679562 0.69883436 -0.09449882 0.12741122 0.3726224 -0.39586154 0.2796919 -0.3818063 0.3740934 0.36589795 0.10021057 -0.15091649 0.37453678 0.26878303 -0.024023436 0.05361558 0.22425805 0.12337877 -0.030403262 0.39849594 0.10006127 0.0056641707 0.1426735 0.117703 0.050676007 0.021247273 -0.23615725 0.078347355 0.026717938 -0.35015517 -0.53379977 0.13588314 -0.5491923 -0.4848508 -0.060406923 -0.339486 -0.4618905 -0.11057086 0.28022617 -0.010084282 0.17391469 0.05383428 -0.06954585 -0.18918642 -0.096717246 -0.09787436 0.49337655 -0.48829356 -0.0037147915 0.07621355 -0.25349537 0.13488697 -0.021374328 0.46530586 0.1668163 -0.2509404 -0.08456443 -0.25867438 0.17202306 -0.060086336 -0.0256494 -0.40714285 -0.37199917 -0.4167323 -0.06500103 0.5301718 0.15312228 -0.49356338 0.3802413 0.0752214 -0.0791874 -0.20154674 0.30860177 -0.13223945 0.3024267 -0.3647207
2175 0.01945505 -0.17862692 -0.16010658 -0.16158617 -0.0147162 0.029053302 0.28042826 -0.037634563 0.29188418 0.09910424 -0.61004925 -0.118347906 0.019166326 0.08365424 -0.24479987 0.5270514 0.23503213 -0.28902182 -0.19766305 0.09089477 0.5559575 -0.22582212 -0.07905105 0.7245145 -0.60830206 0.0012096757 0.0040210397 0.24226613 0.14110932 0.060653258 0.03350943 0.12758785 0.38507828 0.2494744 -0.114086926 0.25436097 0.19893017 0.008969389 0.26591218 0.17433201 0.2666289 -0.47659296 -0.5715556 0.16470447 -0.25630605 0.73287266 -0.37129888 -0.32521766 0.07948021 -0.10753507 0.06168704 0.27723402 -0.33379754 0.08381698 0.11350312 -0.056030378 0.055990633 -0.33175617 0.00020159727 -0.14569937 -0.07911721 -0.28256163 -0.001675324 0.027043218 0.20786837 0.15169322 -0.05396462 -0.3940869 -0.023918815 0.057608303 0.22797135 0.11096299 0.008959577 -0.3147547 0.040221337 -0.09346494 -0.31957632 -0.06929472 -0.08554504 -0.15962894 -0.35842887 -0.16079183 0.2734211 -0.053063933 -0.30368856 0.13341524 -0.16121751 0.055968568 -0.020581005 0.48183995 -0.18971616 0.23409186 0.24778584 0.48992157 -0.28921175 0.1810826 -0.4067121 -0.50981945 -0.34334728 -0.54970896 -0.016122395 0.020196576 -0.16789335 -0.1762709 -0.11798735 0.55978465 -0.1547958 0.2548308 0.26806492 0.15644296 0.43770385 -0.13541518 -0.26495075 -0.082486264 0.08073239 -0.057471633 0.22014853 0.38573536 -0.46526808 0.32412958 -0.075722 0.2468736 0.09251524 -0.38026977 0.47374412 -0.23506983 -0.091679946 -0.10001821
640 -0.13291945 0.06957559 0.014358744 0.12470922 0.045233443 -0.0956846 -0.53635275 -0.0013969389 -0.08622721 0.34728038 0.035538852 0.20066337 0.08408729 0.027045561 0.10432914 -0.3839348 0.09773755 0.20251556 -0.44465443 0.6904864 0.1466856 0.07854921 -0.07792305 0.29058304 -0.1643008 0.46392575 -0.30191523 0.76077825 0.14050175 0.044509932 -0.22999814 -0.10881105 -0.047730263 0.057838064 -0.318236 -0.04973468 0.28346562 -0.28877398 0.15947972 -0.02614367 -0.015338666 -0.87728083 0.19644772 -0.11997719 0.77239543 0.30139375 0.00034886439 -0.088899575 0.06382867 -0.33107325 0.32912552 0.18331918 0.11543196 0.014974572 0.35803077 0.25252527 -0.3583285 0.0334016 -0.2580901 0.5722884 -0.15997393 0.59835905 -0.18977289 -0.16302748 -0.080327675 0.0033569767 0.37297857 -0.12683195 -0.16022375 -0.039213996 0.2659589 0.22723141 -0.16137499 -0.0007274528 -0.2219417 0.3221016 0.15187824 -0.11195668 0.22119458 -0.28666595 -0.03619325 0.11720457 -0.17679597 -0.41837862 0.16902758 0.030113839 -0.045067966 -0.35384402 0.505633 0.33118078 0.4860518 -0.23248868 -0.03910403 -0.3462056 -0.34087086 -0.07907478 -0.59142244 0.07717432 0.30097675 0.23013891 0.44768012 0.19368383 -0.13275324 0.31920758 -0.13870926 0.003967786 -0.39928496 0.33818156 0.10235957 -0.13540758 0.4070343 0.22675686 0.07979897 -0.47271642 -0.32950443 0.33292598 -0.40992156 0.13340284 0.13169894 0.12440508 0.04546475 -0.32173017 -0.14392994 -0.49980336 -0.115104035 -0.45684537 -0.48015085 0.35722315
2421 -0.31905094 -0.42760932 0.1588989 0.017961511 -0.2787232 -0.5009067 0.4669065 0.19372801 -0.06568113 0.36691567 0.23247856 0.06983588 -0.35550144 0.1206417 -0.77900904 0.057921752 -0.10366287 -0.038534652 0.21894859 0.73897195 0.04079032 -0.36139643 0.27154067 -0.56993407 -0.29430383 -0.20274745 0.064756185 0.5269999 0.017013578 0.09336493 -0.098547645 -0.062266152 0.08834154 -0.27369884 0.4006226 0.06819667 0.52610135 -0.48283353 -0.081335746 -0.17151959 0.32867736 -0.14872903 0.32827607 -0.33005956 -0.27636534 0.048836175 -0.17629288 0.040440977 0.67142016 0.11935386 0.03198128 0.21679847 0.13513272 0.29573417 0.054594934 0.15843353 -0.55475277 0.43548486 0.24704047 -0.24014638 0.11413224 0.25687715 -0.26784238 -0.011737813 0.06108209 0.7201391 0.50820786 -0.30911186 0.33124077 0.17857619 -0.2265496 -0.3878153 0.098806426 -0.548887 -0.21301511 -0.3525576 0.64662516 -0.30221727 0.33686522 0.41816333 -0.13835308 0.32078224 0.27442074 -0.24400531 -0.33533219 0.020773213 1.099998 0.14160553 -0.41868874 0.2620214 -0.034121078 0.5008327 -0.33435827 0.11553342 -0.2153042 -0.26659217 -0.1550114 0.35271782 0.30171922 -0.24251388 -0.043458752 0.42131162 0.12983882 -0.16656677 -0.42042994 -0.027245017 0.12834075 0.1366532 0.0805452 -0.047896963 -0.355413 0.15801732 -0.13283654 -0.41564253 0.26275316 -0.09263784 0.4592672 0.2689352 0.019215317 0.14449252 0.078288704 0.31623262 -0.5862532 -0.289608 -0.30518186 0.44356403 -0.24489206 0.37680888
1178 0.17488545 -0.11722141 0.67606306 0.05969542 -0.39008287 -0.16012938 -0.40474766 -0.18242565 0.2516819 0.14199077 -0.7902946 -0.39545894 -0.36065492 -0.05240784 -0.3240023 0.5722707 -0.1002464 -0.028434506 -0.1862745 0.4068966 0.3993607 -0.16455863 -0.53690696 0.18451872 -0.22223529 -0.16845243 -0.34218675 -0.012100002 0.2906822 -0.5460582 0.03821511 0.1876244 0.18786308 -0.2982056 -0.005222136 0.6747902 0.4248076 0.023752438 0.06634435 -0.17876396 -0.2866411 -0.32957575 0.3493107 0.004798681 0.13644953 0.53092223 -0.55473006 -0.42805076 0.016872028 -0.32452747 -0.26196742 0.4162603 -0.25708532 0.19906408 -0.050819207 -0.18265896 0.045796726 0.23622939 -0.3576521 0.261731 0.26263183 -0.36495116 0.14205307 -0.3645146 0.4352188 0.41484696 -0.32900384 -0.06797407 0.07317989 -0.05987157 0.463447 0.039582957 0.22031088 -0.030259063 0.10181604 -0.45042512 -0.26351622 -0.3609647 0.10734713 -0.21560355 0.10368637 -0.1945379 0.032735657 0.015000647 0.0571954 0.12347675 -0.1490765 -0.06681069 -0.36156428 -0.17070027 0.107537255 -0.024325794 -0.26173738 0.30807397 -0.45386046 -0.091748565 -0.29577306 -0.5757965 0.19380498 -0.15142724 -0.5732917 -0.43322328 0.24170218 -0.3859618 -0.14998913 0.5463759 0.1778091 0.23746192 0.18731874 -0.18946974 -0.30916813 -0.0944864 -0.40095794 0.11570423 -0.13745157 0.17468344 -0.10169157 0.29035103 -0.22223203 -0.022368478 0.12323231 0.3517476 -0.64896816 -0.047966734 0.6657428 -0.57721865 -0.0018659994 -0.4524466
558 0.058945794 0.011864485 -0.3399192 -0.22276042 0.4656078 -0.121357955 0.10173907 -0.0964691 -0.4067461 0.51385885 -0.46099314 -0.030843679 -0.13181485 -0.38984075 0.52501017 -0.25344357 0.12940292 0.42127052 0.04163761 -0.10660804 0.21430781 -0.22868209 -0.004174464 0.0024249882 -0.15718094 0.0128625585 -0.39805195 0.11962343 -0.196426 -0.17693846 -0.17278008 -0.5435768 -0.06379503 -0.12668647 -0.108164825 0.29379922 -0.22887842 -0.1530018 -0.10246367 -0.2684655 0.36664042 -0.05367351 -0.08081153 0.047152698 -0.19011547 0.19016993 0.22700098 0.26198748 0.18493837 0.086021684 -0.013034382 -0.068866454 -0.18425164 0.6059329 0.42275873 0.33469945 -0.29273 0.10027782 -0.20898516 0.19537997 0.25228027 -0.27843946 0.1413638 -0.3443222 0.6229229 0.27675176 -0.14898174 0.23935522 0.38947347 -0.02957506 -0.15132494 0.030589378 -0.1582144 -0.11994675 -0.38587508 -0.5333605 -0.18850511 0.24624462 0.039233938 0.7021069 -0.15119237 -0.3006755 0.30926698 0.060164075 -0.2909974 -0.046472266 -0.04496498 -0.024032697 -0.5664919 0.1352722 0.7005532 -0.10032238 0.092866115 -0.09189042 0.10005327 0.05663823 -0.5257838 0.6409388 0.5153783 0.12723379 0.045373295 -0.36147934 -0.08587883 -0.23083988 -0.14296292 0.024313217 0.43512315 -0.056515995 -0.29088798 0.2793122 -0.027618833 0.519488 -0.11720587 0.3381283 0.3813168 -0.11972786 -0.16250142 0.41555923 0.34565493 -0.103111275 0.2606077 -0.14992027 -0.0531965 -0.30122963 -0.17658526 -0.25046292 -0.19640212 0.569513
415 0.10163994 -0.28832567 0.33032042 -0.17225343 -0.2645907 0.13670374 -0.07858695 0.004622857 0.3688075 -0.1616305 -0.16198227 -0.5147963 -0.268209 0.12946565 -0.028638275 -0.028149363 -0.43523586 -0.07869809 0.06418872 0.14437167 0.5624427 -0.22713758 -0.47839278 -0.017792825 -0.251219 0.26470086 0.03202385 -0.16400449 0.16445282 0.025236903 0.023209574 0.28830022 0.305996 0.25666577 0.31463593 0.39765438 -0.12116635 0.003985703 -0.12932688 -0.38050807 -0.22200999 -0.5098972 0.32212228 0.29001197 -0.19351773 0.6501533 -0.21657136 0.039068203 0.12640637 -0.37908038 0.25735325 0.16599722 -0.25384098 -0.103361025 0.15488656 0.2909362 -0.1799514 0.2354887 -0.06527735 0.16850388 -0.26736468 -0.07175617 0.160521 -0.28145117 0.26410124 0.19669653 -0.34474063 -0.70766866 0.1498727 0.1481265 0.37478736 0.012407556 0.067058414 -0.052620858 0.11513732 -0.3426305 -0.44181252 -0.01547139 0.00016068721 -0.35275918 0.015783144 -0.25718817 -0.28230762 -0.25536144 -0.08955539 0.2906901 -0.4420076 0.14369689 -0.39588133 -0.06389662 0.2703573 0.0076808175 -0.44750893 0.028502291 -0.14972334 -0.116699316 -0.2653247 0.17632285 0.08614337 -0.19936486 -0.08116015 0.075348996 0.06838318 0.048417848 -0.24083714 0.39708647 0.062305346 0.25833234 -0.09294037 0.34494895 -0.36429882 -0.052900385 -0.03974308 0.18273091 -0.08673057 0.12463807 0.17492132 0.23558435 0.21350293 -0.09332657 -0.040094018 -0.28728497 -0.36853838 0.6356253 0.6273456 -0.14606327 0.015323676 0.05561269
1484 0.69339883 -0.26786232 -0.56576186 0.28771418 0.050519504 0.031350415 -0.06188677 0.24175908 0.16661493 -0.023838142 -0.1103286 -0.37620336 -0.5372731 -0.08330216 -0.30989286 -0.36547875 0.25435966 -0.13917978 0.6056297 0.4155239 0.063258536 -0.2712838 0.20944338 0.27319965 -0.3527552 0.16097386 0.25292128 0.24355197 -0.100067355 -0.16837442 0.12760052 0.11745358 -0.3210623 0.044402435 -0.39745286 0.10050193 0.6532673 -0.09406615 0.040469866 -0.21463835 -0.07552854 -0.39094836 0.48025084 -0.008277237 0.10075417 0.027731825 -0.08596413 0.068646766 0.09463644 -0.119732104 0.33706984 -0.36550885 -0.042028133 -0.024274314 0.52392054 -0.06738056 0.3194653 -0.04787835 0.25189686 0.40248874 -0.076999485 0.083730504 -0.23491815 0.40522072 0.28848654 0.6548665 -0.020256285 0.48508707 0.3681607 -0.09401862 -0.1612617 -0.26008868 -0.13183294 -0.20131363 -0.19980168 -0.21004081 -0.02572778 0.346661 0.4252976 -0.22482039 -0.14666535 0.23915285 0.34687433 -0.06261293 0.21624152 -0.111064024 -0.2475251 -0.18585394 -0.012645532 -0.31251663 0.45170167 0.039313976 0.54177684 -0.3879963 -0.124085315 -0.044511266 0.60742867 0.40514264 0.030329918 -0.37958562 -0.034757867 0.03182706 0.097250305 -0.07162526 -0.43338954 0.22366992 -0.01898521 -0.13258748 0.41320473 -0.095078915 -0.24239028 -0.00019877744 0.4543858 -0.057273768 -0.3803596 0.107054316 -0.036034465 0.22475803 -0.14464748 -0.56448305 0.23565558 0.37698984 0.0942353 -0.07974766 -0.34639016 -0.46344614 0.017509215 0.015586546
967 -0.15209818 0.04798843 -0.17434558 0.22709776 0.5201626 0.23605621 -0.18751942 0.23111124 0.049387764 0.13253063 -0.107839614 -0.10059086 0.6030623 -0.29881656 -0.23718742 -0.076845214 -0.0118562225 -0.0077886386 -0.10745821 0.12030822 0.47526848 -0.500857 -0.22503825 0.30631274 -0.35055992 0.25719538 0.1751803 0.5297454 0.12582083 0.10230418 -0.21929426 -0.484693 -0.16878004 0.18922822 0.27676085 0.10004103 -0.18861471 -0.24662463 0.034037534 0.25510707 -0.23123376 -0.27593964 0.18589278 -0.18312284 0.2976625 -0.13625783 0.030649392 -0.0965236 -0.25216752 0.4975688 0.53405166 -0.10581009 0.108818635 0.4102024 0.3754197 0.24868917 -0.3511715 -0.30245247 0.08927125 0.49961266 0.5168491 0.4637991 -0.6001779 -0.17433555 -0.012465069 -0.2792653 0.20190357 -0.08511136 0.21776088 -0.40690285 -0.12207318 0.28096437 0.14038782 -0.2466345 -0.18365996 -0.018633114 -0.2919313 -0.26892713 0.5807889 0.26041192 0.21617788 0.117526434 0.18109494 -0.31839204 0.10550233 0.481274 -0.27772087 0.06621239 -0.035288632 -0.19819726 0.32560363 0.059157938 -0.10678747 -0.46119308 -0.2687205 0.16214643 0.102770425 0.054856475 0.5286906 0.1749763 0.35658833 0.18605451 0.13637786 0.074679606 -0.0068804333 0.51686424 -0.6935919 0.0066073188 -0.13705423 -0.090668246 -0.2282862 -0.11921675 -0.3480892 0.05853237 -0.31587997 0.18139729 -0.049941503 -0.17932366 0.0062135067 0.14016208 -0.13467392 0.11045452 -0.09757225 0.042407528 -0.06829688 -0.3939274 0.04757376 -0.07760626
99 -0.039077666 0.30203778 -0.11910562 0.010695188 -1.0206252 0.43124625 1.0315588 -0.022768477 -0.069232084 -0.28308296 -0.55282485 0.3820764 -0.23710702 0.17162423 0.44816935 -0.8130878 -0.16209216 -0.23991582 -0.63412434 0.3606753 0.36258543 0.076780245 -0.5044811 -0.15448302 -1.1404071 -0.14309411 0.074690685 0.28857833 -0.45895812 -0.41078168 0.20554262 0.5101847 0.34648448 -0.4162771 -0.15650564 -0.32138062 -0.64908075 -0.41550285 -0.100597 -0.33018485 -0.44143736 -0.021930633 0.6038874 -0.5094311 -0.38638788 0.48487443 -0.45042384 -0.28355417 0.47371817 0.30913782 -1.0548235 0.02609438 0.3265184 0.090798385 0.67694277 -0.10561291 0.081448436 0.44311446 0.47921884 0.17921469 0.7803903 0.22048935 -0.17040484 -0.26912722 -0.504151 -0.051498994 -0.043538388 -0.23808764 0.6296436 0.35635397 0.22984123 0.23946443 0.82890445 -0.21238172 0.032118235 -0.65348 0.4446625 0.56891835 1.5400685 -0.18071829 -0.06845203 0.9544788 -0.078586385 0.24621585 -0.3137599 0.24618623 0.07638839 0.38703725 0.2605189 0.421074 0.69956255 -1.0978079 0.48594368 -0.3242965 0.4259694 -0.28353065 -0.517746 0.2503236 0.29833153 -0.27337694 -0.98369575 -0.010965377 0.5412148 -1.3359265 0.39027938 0.58625835 -0.65844595 1.4105 0.46705163 -0.46515116 0.30514374 0.48535737 0.13542517 -0.5766595 0.010648571 0.20845182 0.2401591 -0.051106323 0.4671088 0.34596187 0.067733064 0.03884457 -0.56892395 -0.47597823 0.04970387 -0.055160698 -0.45806187 1.1404022
1498 -0.06687296 -0.20076942 0.24581435 0.46236667 0.14879084 0.007315121 -0.15026507 -0.43203366 -0.15915936 0.42905247 -0.062818944 0.05227603 -0.22816357 0.029791519 -0.43797648 0.09342295 0.2702496 -0.2799332 -0.22979209 0.2023473 -0.035075657 -0.158197 0.015373532 -0.0068883137 -0.41539684 0.1685679 -0.24882832 0.27373853 0.4874163 -0.121082276 0.018813223 0.21591042 -0.3121765 0.4631044 -0.12023038 -0.0412624 0.20171459 -0.35058475 0.00084793736 -0.34235018 0.22369963 -0.54961133 0.030793132 0.04057889 0.066969566 0.11434857 0.032718074 -0.28537127 0.21902604 -0.06461656 -0.3197016 0.16610615 -0.5919048 -0.11920058 0.42513007 -0.19970514 0.30349717 -0.12731555 -0.39283106 0.31841716 0.5231448 -0.23260035 -0.10652559 0.11573831 0.20526364 0.036516957 -0.46791303 -0.0052267984 0.36063704 0.63483435 -0.044025775 0.48972744 -0.05291903 0.0010298935 -0.4554582 -0.5690573 0.028224621 -0.08538046 0.12936318 0.047421332 -0.43857843 -0.28435478 0.11134384 0.06273983 -0.09213356 0.06513371 -0.20595087 -0.12308459 0.44883826 -0.29216352 -0.6062104 -0.49046597 -0.41991 0.69352967 -0.21184897 -0.32087448 0.28628972 0.11745359 0.029257795 -0.20072067 0.03482112 -0.034263868 0.061138783 -0.5371817 -0.14078882 0.18738014 -0.1953574 -0.3442824 0.049047347 0.03250793 -0.32383648 -0.16349545 -0.1187126 -0.34915912 -0.22655612 0.13889708 0.5904002 -0.032117333 0.67184705 -0.16384026 -0.31040028 -0.2957186 0.02119429 0.26424623 -0.4091699 -0.29149485 0.4734246 0.12350849
519 0.36903143 -0.6342056 0.07022512 0.12939377 -0.12357289 -0.42374593 0.5942236 0.66474503 -0.083517306 0.1395636 0.31731442 -0.22146289 -0.22385886 -0.39995986 -0.0075532175 -0.352313 -0.1519684 -0.35718745 -0.30491677 0.82787883 0.71265465 -0.52397025 -0.4538994 -0.3367822 -0.38414335 -0.45062268 -0.2912306 0.119228974 -0.21430303 0.25682965 -0.72527397 0.024502547 0.032705534 0.271598 -0.22083645 -0.3293924 0.072909124 -0.55656505 0.049909525 0.23564436 1.1815279 0.13895315 0.37081847 -1.0556076 -0.30132687 -0.21064621 -0.34468177 0.35868987 -0.088913076 -0.6453081 -0.2895622 0.35411462 -0.44980124 0.4147638 0.847155 0.8178397 0.77815783 0.5537602 0.4574396 0.21391669 0.42831287 0.22165388 -0.037801128 -0.26762226 0.2651904 0.39987433 -0.09327896 -0.40765226 -0.073810935 -0.37251854 -0.13496651 -0.112615995 -0.02274987 -1.2153337 -0.35840327 0.05175471 0.6514829 -0.09454718 -0.33627456 0.35742787 -0.09521135 -0.030892676 -0.21059506 -0.23783751 -0.34737507 -1.0415927 0.92682636 0.3634499 0.001233056 -0.2531499 0.2549137 0.48136926 -0.3524024 0.28655326 0.3190075 -0.20525439 -0.46693423 -0.10654687 0.13894974 -0.69445443 0.1214821 0.8826719 0.52606463 -0.58013123 -0.06740738 0.39093703 -0.03715782 0.10323647 0.101388864 -0.56005955 0.37592137 0.097282305 0.23019172 0.31604356 -0.1845056 0.45817152 0.41890317 0.7149077 0.09197812 0.32414395 1.0041656 -0.15486155 0.39695582 0.17386253 0.40071598 0.25233233 -0.10964292 0.4162613
438 0.65806186 -0.48230764 -0.47770703 -0.12584235 0.32335213 0.49235156 0.15816401 -0.3953433 0.11151713 0.035433907 -0.00011519874 -0.48270676 0.030202452 -0.46525818 0.057988502 0.41473565 0.7599899 0.11620748 -0.20720595 0.058901757 0.11320535 -0.33471352 -0.12845455 -0.098790795 0.26505047 0.1736464 -0.31146786 0.247952 -0.030423276 -0.068575405 0.14057487 0.37682354 -0.0603782 0.258328 -0.083994724 -0.0314984 0.011261818 -0.03930246 -0.04672606 0.45131895 0.0899825 -0.112180784 -0.071274884 -0.17919454 -0.09975496 -0.41660178 0.1583151 -0.032127485 0.06562731 0.13462552 0.03695528 0.3937823 0.01473985 0.339832 -0.06255102 -0.043955904 0.18102603 0.5750038 0.078596465 0.6855847 -0.05425219 -0.002940636 0.018976718 -0.33883715 0.047730714 0.3612111 0.4401983 0.1539154 0.09489234 -0.17733401 0.42729557 0.17515887 0.003982745 0.09985442 -0.19847092 -0.39693484 -0.72422516 0.040276174 0.12156379 -0.21122138 -0.11085101 0.31112504 -0.051620528 -0.2856289 0.43619734 0.082465455 0.44259843 -0.32124513 -0.19165872 -0.15436915 -0.04666663 -0.5002908 -0.23206685 -0.32571307 -0.19982582 0.29007614 0.2901068 0.2876475 0.110783316 -0.33240595 -0.04135721 0.34700617 0.18023236 0.0340838 0.3433717 0.54265714 -0.10711517 -0.44154835 -0.109716006 0.2357076 0.2861668 0.22120407 -0.19349249 -0.22849981 -0.44813022 0.20304078 0.41607043 0.16102214 -0.043935984 0.035544366 0.4427325 -0.029050319 0.23338255 -0.27038443 0.20461716 0.32711086 -0.26732743 0.16220336
1252 -0.02573802 -0.28034428 -1.0371026 -0.048426654 0.26151395 -0.19272994 0.8236213 0.08173506 0.0994139 1.097909 -0.62013584 -0.74248487 -0.32728356 -0.015716333 0.13205758 0.18593733 0.9577202 -0.63247603 0.35841596 -0.013591884 0.6550725 -0.23914318 0.078059085 0.5149591 0.09230854 -0.54236007 1.2975913 0.336786 0.5370488 -0.19352363 0.040741 0.07065121 0.6349807 -0.3989149 -0.3521505 -0.5137826 -0.17079252 -0.3130418 -0.059172675 0.9008294 0.2551379 -0.849551 0.91004425 -0.08414163 -0.31816748 -0.20732905 -0.7329985 -0.46095484 0.70072937 -0.1711556 -0.2914582 0.4015185 -0.08194693 -0.15425746 0.10422888 0.06412264 -0.033524316 -0.08732916 0.12218369 -0.1270409 0.30637327 0.21306166 0.20762967 -0.34926158 0.036236074 -0.24603274 0.64040136 0.19836581 -0.3060135 0.0772342 -0.21182886 -0.056373175 -0.026247889 -0.20569456 -0.18515538 -0.07512075 0.09086601 -0.58774865 0.6102685 0.08635543 0.44012588 -0.3003953 -0.47432962 -0.48942414 0.16191304 -0.4647828 0.0411029 -0.25911188 0.18748623 0.50283766 -0.32579902 -0.0794798 -0.04596661 0.4909239 0.6655788 0.35528338 -0.41596207 1.2249295 0.7728012 -0.31446353 0.3764089 0.37940404 -0.3997845 -0.612445 -0.23141281 0.14844728 0.26032907 0.13423553 0.27576748 -0.70740783 -0.60367 0.20633502 0.07980189 -0.11723571 0.09590502 -0.6910453 0.073150985 0.12826522 -0.39536205 -0.23570143 -0.16127852 -0.4175292 -1.0375355 0.7340886 0.9155892 -0.08688381 0.6995964 0.43083417
