2708 64
163 0.1279832 -0.036145728 -0.4612489 0.07578717 0.75735426 0.17859708 0.8090755 0.6267844 -0.2901205 0.20041032 -0.1042284 -0.44582352 -0.63465166 -0.03139411 0.11121348 0.5298092 -0.7906606 0.43253803 0.20458952 0.38869265 -0.22372304 0.20880336 0.24302748 0.049698085 0.07668254 0.5929676 0.3557848 0.54023933 0.4570791 -0.4206519 0.10785994 0.16955125 0.2126977 0.34884328 0.35342273 0.17812692 -0.11158562 0.2908184 0.26775053 -0.07894808 -0.047017895 0.1697888 -0.2924762 0.11599899 -0.58939505 -0.23028247 0.78914434 0.10451605 0.2653257 0.21341096 -0.04526512 -0.6932711 -0.07832317 0.05925393 -0.53841764 0.5940923 -0.91368145 0.31205773 0.6280135 -0.02454162 -0.0990122 0.009487505 0.15018809 -0.1946135
747 0.7857893 0.33758837 0.29295543 -0.7342502 -0.1889999 0.39294457 0.62911355 0.088107295 0.771479 -0.36116174 -0.56453234 0.39122063 0.11632561 -0.15353392 -0.16883355 -0.22697555 -0.11087023 -0.25840896 -0.149802 0.27887037 -0.5096888 -0.29111806 -0.21407749 0.55688506 -0.22869322 0.36443552 -0.15543361 0.3238684 0.17131977 -0.08668382 0.16663717 -0.4968422 0.68250453 0.10117436 -0.8968304 -0.5490686 0.015530992 0.62838846 0.11699585 0.10915986 -0.48372632 0.19245927 -1.0672616 0.35220292 -0.008906463 -0.62682617 1.0585024 -0.5646471 -0.2968149 0.53300107 0.50162363 -0.008659561 -0.124803 -0.16532579 -1.477205 -0.53308105 0.669051 0.21377037 -0.0040558493 0.21094693 0.77424544 -0.28514487 -0.12339713 0.9176534
427 0.23433694 0.76509523 0.06345518 0.1274532 0.19927101 0.84675133 1.2831097 0.37413165 -0.61307925 -0.56581146 0.079013884 1.0301628 0.21523845 -0.04978659 0.17833172 -0.2585737 -0.50181353 0.08870864 -0.11570223 -0.33263516 -0.45611033 -0.32007748 -0.59629697 -0.045543123 0.75872886 0.107957 -0.4542094 -0.37738743 0.23760279 -0.14960979 0.041297883 -0.37040266 0.736296 0.2928805 -0.37103423 -0.7009291 0.45430022 0.16379948 -0.016882135 0.29842353 -0.08169238 0.48567775 -0.023185046 0.21584965 0.6922189 -0.14853546 0.6732455 0.5970105 -0.046676382 0.4055444 -0.60035783 -0.49061283 0.1202333 -0.44608048 -0.91186494 -0.17762609 -0.71791804 0.06580779 0.3087244 -0.23702645 0.63106966 -0.35983908 -0.2514081 0.5827287
565 0.23762104 0.3531753 0.20332561 -0.6039006 0.17670125 -0.35501546 -0.048806757 -0.18272468 0.22656384 -0.23063347 0.43417782 -0.019148083 -0.5196924 0.069038525 -0.1386856 0.22742115 -0.5820118 1.1374696 -0.5797522 0.17394468 -1.1584449 0.15610063 0.11044303 -0.4725154 0.43345106 0.512726 0.2877007 -0.22525069 -0.18627867 -0.113418736 -0.4271613 0.051486507 0.5508189 0.5569088 -0.33194098 0.5612579 -0.26991525 0.5787441 0.0676725 0.5823202 -0.41984951 0.85667837 -0.43395168 0.17297038 -0.46951383 -0.4176411 0.7833845 0.025144128 0.15698852 0.19029377 -0.7615118 0.27852604 -0.2439811 -0.11093998 -0.22004372 0.09074585 1.0135537 -0.11698666 -0.3338557 -0.57290983 0.61818093 0.09582764 -0.20855154 -0.34488842
611 0.9850374 -0.038648188 0.67306036 -0.10607797 0.8550306 -0.35197657 0.95101076 -0.10135717 0.20481364 0.57537097 0.01136711 -0.4911795 -0.11457406 -0.6660906 -0.4613268 -0.33455715 -0.09135544 0.7709661 -0.22056238 0.33240485 0.9203728 -0.9484771 -0.45238605 -0.21510834 -0.04535318 -0.1403474 0.062426 -0.14986295 -0.3708236 -0.22148003 0.07119433 -1.422857 0.1465451 0.22945155 -0.74975514 -0.456177 -0.23101571 0.5493126 -0.2997059 0.35158047 -0.2637456 -0.056285065 -0.42614272 -0.08325351 0.5652333 -0.37885234 1.2050914 -0.94937915 -0.33791405 0.2119604 -1.0296081 -0.60551673 -0.24408686 -0.7031553 -0.40141806 -0.571889 0.27269432 0.058538247 0.84665376 -0.043279827 0.58714586 -0.017930243 -0.03016703 0.39459133
74 0.54181945 0.74744105 0.21092829 -0.7527354 -0.05668222 1.4184407 0.24948771 -0.9323382 1.1933091 0.24680631 -0.46470633 -0.19742274 0.44658527 -0.8339116 0.09598516 -0.7991879 -0.7527844 0.37844926 0.23606087 -0.3106453 0.351779 -0.5114857 -0.08716875 -0.27758083 0.004107453 0.6218184 -0.3398018 1.0425783 0.6796946 0.616452 -0.21934584 -0.28690362 -0.25541878 0.18779849 0.041981958 0.12622747 -0.31926867 0.7324424 -0.4176133 -0.20821474 -0.6518867 -0.19051573 -0.70199066 -0.019623788 -0.089332186 -0.3445596 0.59091765 0.074632436 0.39363623 0.3121503 -0.804793 -0.7422002 0.4329841 -0.41709706 0.6552891 -0.27154288 0.29385322 -0.39548168 0.36838576 -0.017317597 0.85868233 0.33338425 0.17937309 -0.12268031
552 -0.16037235 0.83279604 -0.50332546 -0.9886486 -0.13137616 -0.8335634 -0.08632192 -0.21580486 0.18046619 0.6550915 0.32142305 -0.10928508 -0.5201571 0.48994055 -0.18043144 0.31018865 -0.7317278 1.372161 0.102099895 0.3382424 -0.6741705 0.4620193 -0.52959174 -0.6035683 0.8533601 0.80435044 0.46336508 -0.49286324 0.45910996 0.062355824 -0.4797527 -0.1411522 0.69859415 0.2522945 0.19055085 0.14412001 -0.2799253 0.61742043 -0.14609636 0.7074027 -0.2590848 1.5969096 -0.43369636 -0.4245028 0.1845666 -0.07727184 0.7395492 0.32733127 0.3480469 0.25433314 -0.89668006 -0.015885565 -0.49049228 0.20818776 -0.25590044 -0.29300353 0.5045695 0.17318828 -0.36959177 -0.6169332 0.70755905 0.22442561 -0.74619114 0.06519226
430 0.75100857 0.95804197 -0.43194678 0.8217225 -0.44196606 1.0054154 -0.52776873 0.8034144 0.7669324 1.2028716 0.9981835 0.22799075 -0.27245292 0.14192174 0.3112605 0.11087429 -0.6326393 0.33869755 -0.3930018 -0.31131423 -0.4983313 -0.18304387 -0.26993716 0.067605704 0.700458 0.5486751 0.1486718 0.6678006 0.27046362 -0.5439336 -0.001691763 -0.06295825 0.4346243 0.40008816 0.29014263 0.30965218 -0.18904571 -0.15920988 -0.16262244 -0.14019606 0.5659356 -0.047889743 -0.3643539 -1.0992608 -0.27913257 0.67500514 0.33975464 -0.71199995 0.18605468 0.42223787 0.474983 -0.71610993 0.0132836625 -0.09804761 -0.518503 -0.39629838 -0.24309431 -0.60427094 0.5893182 -0.39187247 0.9658276 -0.28031293 -0.6766981 -0.3357695
745 0.24750784 0.63093704 0.45312464 -0.039321948 -0.22903097 0.06474677 0.51210487 0.62350225 0.26336336 -0.77877176 -0.5379276 0.4411309 0.35117823 -0.14100236 0.32788607 0.0040703956 -0.048683263 0.12597695 -0.3870623 0.24191242 0.0041071777 0.08794538 -0.04559376 0.5505273 -0.10985323 0.7390379 -0.39638615 -0.8447108 0.42620704 0.6726232 0.51826006 -1.2773073 0.29056576 0.90386003 -1.2319014 -0.4179085 0.44297472 -0.06464395 0.17934732 0.25703743 0.2653672 1.0753592 -0.6038208 -0.303712 -0.8333188 -0.54759216 1.1841711 -0.3742786 0.1928359 0.42631474 0.055596393 0.09118415 -0.44707826 -0.4913867 -1.018407 -0.93416375 -0.004568685 -0.068173416 1.2430617 0.35267186 1.1527375 -0.5177003 0.17590429 0.39344305
1354 0.37805998 1.019639 -1.1070864 -1.2222596 0.48167816 -0.032355364 0.011631086 -0.07854343 0.29670435 -0.13924646 -0.86272985 -0.4544541 -0.5265511 0.47138247 1.4102966 0.45451644 0.92741257 0.03883303 0.10691738 0.035168868 -0.95564187 -1.3553978 0.9651026 0.69241977 0.52366966 -0.7087254 0.30317184 0.33339527 0.6870605 0.32137504 0.5634382 -0.9725133 1.762281 0.46438074 -0.6062994 0.33625978 -0.43848985 0.24934651 -0.18719986 -1.0432429 0.53487295 0.88352686 0.16617997 -0.6781558 0.40548465 0.8897717 -0.34888077 -0.90095365 0.5413735 -0.40965784 0.70235425 -0.17455794 -0.03915509 0.6112796 -0.90050614 0.4187755 0.13632225 -0.9894742 0.2755846 0.11609927 0.5888645 -0.3201942 -0.16565906 -0.7255045
638 0.5836349 1.1584475 -0.49375728 -0.10774808 0.5626165 0.25048962 -0.2869344 0.75825906 1.0043646 -0.01943559 -0.15511063 0.25804406 -0.18994857 0.13099392 -0.24688841 -0.02712383 0.2846466 0.18853587 0.089077145 -0.046914175 -0.98391384 -0.5239475 -0.86266893 0.07606031 0.3265698 -0.90002453 -0.2426551 0.054000862 -0.12868415 -0.65985155 -0.3477699 0.1858678 -0.36890775 -0.121251404 -0.26556572 0.75083697 -0.048978742 0.7779932 0.37756324 -0.06634196 0.37338826 1.042921 -0.040024728 -0.5336059 -0.61909676 0.11561737 0.6415347 -0.59146607 -0.5637682 -0.117121615 -0.4240205 0.10402991 -0.49290338 -0.2707872 -0.645852 0.12804951 -0.27272132 -0.8567005 -0.90402985 -0.6218631 -0.15729865 0.135538 0.09619861 -0.026761357
157 -0.122547925 0.84183484 -0.9633486 0.32297313 -0.03813933 0.3041723 0.8140808 -0.33193287 0.5854386 0.31313837 0.9206171 -0.24879494 0.2557963 -0.6115028 0.10329103 -0.013935813 0.054092903 -0.0674471 -0.60411114 0.396366 1.0738477 -0.11978723 0.46787784 0.21209258 0.5280474 0.283266 -0.046798587 0.118612215 -0.08774648 -0.53773785 -0.16857718 -1.0108594 -0.45491153 0.27252316 -0.21993703 -0.22251375 -0.18015878 0.140126 -0.31594324 0.08588273 0.2513059 1.2946488 0.28804174 -0.45764607 0.37298235 -0.048534255 0.99367297 -0.119537435 -0.2998868 0.33815572 -0.68345106 -0.44398466 -0.24736203 -0.792157 0.3087486 -0.11390503 0.08883054 0.14215612 0.7476489 -0.38390452 1.594607 0.87294513 -0.28918293 0.22521564
344 0.33141032 1.048117 -0.09350627 -0.73248875 0.47421193 0.56876105 0.27469522 0.48287213 0.78651386 0.5028388 -0.55116886 1.147765 -0.26574594 0.43773028 0.0709951 -0.71054924 -1.1710958 0.9658875 -0.24210134 0.30564037 -0.58266896 -0.29787084 -0.50114256 0.70116675 0.040501613 -0.57904017 -0.719649 1.0020497 -0.36946118 0.7344277 -0.5500738 0.09717156 -0.17627497 -0.22031306 0.5293023 0.3447751 -0.45343432 0.08033943 0.048424106 -0.2976607 0.5949376 0.4022461 0.007067936 -0.52049464 -0.16849816 0.34601146 0.013486536 -0.72639006 -0.8019289 -0.3510462 -0.036016878 0.64588606 -0.36016402 -0.82543576 -0.5599306 -0.08888983 -0.28098074 -0.77514076 0.11840945 -0.8900808 -0.28046086 -0.17941032 -0.38820016 -0.074781485
576 1.4852049 -0.09024028 -0.69871575 -0.14393824 -0.40115878 0.76399064 0.17999828 0.46397007 0.8851083 -0.22830893 -0.4660826 0.01721497 -0.0064654555 0.25303578 0.031986494 0.068360664 -0.4740029 0.21549903 -0.5795104 1.1080097 0.03293511 0.15579401 -0.37629154 0.40432 -0.23436348 0.20267594 -1.5782895 0.3703873 -0.16021414 0.5958229 0.15975744 -1.441559 -0.387537 0.7580857 -0.2761635 -0.29392096 -0.22965623 0.33608547 0.76123685 -0.015034676 -0.5254895 1.948629 -0.09018817 1.0896591 -0.06386463 -0.23826708 0.6550589 -0.25154305 0.6798302 0.4666107 0.10387484 0.3302831 0.71205413 0.7413349 -0.52733624 0.6547437 -0.10938864 -0.41698447 -0.1288054 -0.30712128 1.0404724 -0.3131287 -0.5966566 0.12408068
523 0.43464917 0.1590451 -0.5390792 -0.9732248 0.13681169 0.79192543 1.0119975 -0.20478624 0.11644296 -0.5909158 0.34549898 0.07754005 -0.54347223 0.22739407 0.22341499 0.029276153 -0.66445047 0.9154054 -0.8066922 0.43512174 -1.4161564 0.07659241 0.35949367 -0.62670046 0.42901704 0.4869687 0.37770024 0.24639389 0.10044196 -0.73057795 -0.5262488 -0.0087007545 0.5496065 0.019317448 0.09428863 0.9882182 -0.37005937 0.161728 0.12150306 0.4969912 -0.34579262 -0.30887234 -0.45641327 0.38232026 -0.31056052 -0.39941406 0.7004987 0.5204925 0.3088333 0.31971803 0.29994434 0.50803727 0.10750834 -0.6664735 -0.087285526 0.5299618 0.041545995 0.2400282 -0.05564103 -0.84390014 0.2743405 0.09797561 -0.03722142 -0.64925045
566 0.14105694 0.46911678 0.32028258 -0.95419747 0.3412156 -0.5504696 0.71057314 0.014472996 0.4872124 -0.17576645 0.34278718 0.07897137 -0.30459994 0.117822036 0.15855414 -0.3127455 -0.7989666 0.666792 -0.065665595 0.490064 -0.4581477 0.38578662 -0.31283706 -0.2826731 0.7397793 0.27456394 0.20340335 -0.4438103 -0.24506465 -0.3037316 -0.2729792 0.43907773 1.1011204 0.34637532 0.059130315 0.68232584 0.084315725 0.83198553 -0.3460867 0.5945374 -0.21780017 1.1334409 -0.2984174 0.021021875 -0.7652736 -0.116555296 0.5398225 0.19986445 -0.06662438 0.07994002 -0.71187896 0.16804375 -0.1343493 -0.10588025 -0.20182987 -0.33359286 0.5971408 -0.22567104 -0.14966182 0.1615957 0.64346206 -0.087358095 -0.6146978 0.4181496
294 0.4307319 0.7089979 0.54625165 -0.20060124 0.25500464 -0.17500424 0.045055863 -0.05349597 0.6258811 -0.35110041 0.32734242 0.17033203 -0.41051447 0.028740851 0.1319599 0.44102433 -0.7448925 1.0181626 -0.19281869 0.16106816 -1.2707734 0.2653476 -0.6625582 -0.15195662 0.03801262 -0.31072387 0.113546476 -0.2768585 -0.35127124 -0.5202038 0.35247722 0.34948936 0.2545039 -0.22200783 -0.6518059 0.004141086 -0.101752914 1.2601923 -0.2091026 0.26271838 -1.2373523 0.6757973 -0.57212776 -0.015010828 -0.31571952 -0.12737542 1.365068 0.13322559 0.27244145 0.31894615 -1.0202842 0.40354112 -0.7546666 0.4248648 -0.20124853 -0.15749131 0.5778516 0.02256443 -0.6541791 -0.23642723 0.70054483 -0.15519398 -0.37949002 0.70157546
453 0.0011953502 1.8628556 0.012967655 -0.05217618 -0.068614714 0.17178519 0.66906196 0.9527767 0.26842466 -0.30012798 -1.1456393 -1.1361216 0.27413335 0.59579986 -0.19899134 -0.52538186 -0.5285672 0.3952353 0.24077493 -0.48399857 0.47248486 -0.19599661 0.1805704 0.638937 0.6178205 -0.36311442 -1.2248224 -0.6166639 0.4389205 0.41422474 0.236798 0.8808275 0.88103074 -0.36321852 0.1363469 -0.38868484 -1.0297074 -0.5324555 1.12985 0.01788603 0.6240438 1.4010767 -0.34556714 -0.20045108 0.7107127 -0.85580194 0.42819527 -0.35334557 0.019317307 0.22783166 -0.74177384 0.24878569 -0.34441018 -0.09323268 0.49087635 0.52483004 -0.06266238 0.14857556 0.5688175 -0.41369447 -0.029507384 0.4599863 0.6275135 -0.35180807
378 0.86035055 0.68325216 -0.05871831 -0.18181624 0.6007477 0.6046231 -0.45706636 0.41521937 0.8078015 -0.35116786 -0.45519432 -0.30484462 -0.6643044 0.62129354 0.75499845 -0.37779272 0.10983996 0.39662933 -0.5673111 -0.5618489 -0.5330427 0.030322285 -0.16506456 -0.16793661 0.9113087 -0.64701265 -1.3106109 0.96128815 -0.42222667 -0.46532056 -0.51958114 0.7056883 0.21343796 -0.03154955 -0.09937242 0.16903378 -0.018019166 -0.16865848 0.37819123 -0.6166485 0.4492377 0.6009033 -0.24976307 -1.0717968 -0.74589837 0.8476313 0.07212045 -0.5918988 -0.06904152 0.7875742 0.005350826 0.54299706 -0.4232969 -1.2951444 -0.15502201 -0.98175883 -0.9215369 -0.4660327 0.19811915 -0.6352735 0.57761216 0.7408883 -0.6455542 0.20423003
66 0.625288 0.8792802 0.44219342 -1.5897447 0.51408017 0.56306446 -0.34038314 0.028038345 -0.6784232 0.8886756 -0.065320335 -0.5188542 0.11247509 0.4306177 -0.59986013 0.33877632 -0.5530902 1.0529709 -0.9097665 -0.01905755 -1.2026621 -0.13759704 -0.9664344 -0.11022105 0.21939628 -0.49735132 0.042548664 0.6903301 0.11980822 0.81492877 1.3232952 0.32078114 1.1022091 0.2833025 -0.026504027 0.75514024 0.5169867 1.004297 -0.047204882 0.114218034 0.18252276 1.0313597 0.2808933 -0.193595 0.585025 0.56518364 -0.2602414 -0.7776656 -0.5439007 -0.37485254 0.46792492 -0.5536668 -0.08704748 0.14036189 -0.69083595 -0.986239 0.3616479 -0.39140463 0.6664867 -0.025785362 0.5185673 0.981637 -0.74158216 -0.32923833
136 0.621156 0.7688632 0.049098346 0.1070882 0.23876087 -0.20375499 -1.1271967 0.37314245 0.3343684 0.6259431 -0.037134696 -0.8140868 -0.52981836 0.5811259 0.31992194 0.4703792 -0.15031195 -0.37708035 -0.46183252 -0.1350417 -1.2528387 -1.2636881 0.76401174 -0.026224263 0.49326706 -0.4969675 -0.48622787 0.9024069 -0.5838224 -0.05151095 -0.03182448 0.03644207 0.29601833 -0.35022625 0.36364532 0.89750034 0.7667284 -0.39064902 -0.08137019 0.5691543 -0.13413684 1.6995294 -0.64310277 -0.3430519 -1.1326182 0.05158391 -0.21485351 -0.9267361 -0.03273973 0.16756208 -1.2990106 -0.45710015 -0.7317174 0.022864928 -0.5708663 -0.021716073 0.6135833 -0.5254093 0.65150416 -0.6579399 0.616336 -0.10721969 -0.52538514 0.101425
793 1.2263266 0.17414755 0.2698979 -0.27604526 1.4789441 0.04117819 0.8791204 -0.047906183 0.25367647 0.26372957 -0.3694445 -0.9247159 -0.8188101 0.11980371 0.72200257 0.48133013 -0.73942894 0.63366127 0.17741099 -0.014027499 -0.016931389 0.8776132 0.33847773 -0.1527578 -0.44984007 -0.14164725 0.30186293 0.21680738 0.46560115 -0.2599251 0.7066674 0.46361366 0.96568066 0.18405588 0.12436696 -0.13211317 -0.6062274 0.22328132 0.8494399 -0.6925629 -0.16530803 0.7992944 -0.80644643 0.27959025 -0.71336573 -0.2512361 0.7798733 0.4784884 0.82746446 -0.100868374 0.14483391 -0.72445834 -0.36114728 0.21526442 -0.20361401 0.22609782 -1.3782486 -0.06676484 0.54910505 -1.075042 0.1375164 -0.19622803 0.3814371 0.08667648
635 0.8081067 0.43933538 -0.54645395 0.49620226 0.48775694 0.6823342 -0.55471927 0.95353484 1.3008586 1.0889194 0.5143307 -0.018629685 -0.51556784 0.23879915 0.113959 0.19522238 -0.36097583 0.62337244 -0.13186894 -0.28530914 0.052668326 -0.24914354 -0.7822004 0.45014673 0.6937875 0.36548156 -0.13702631 -0.63382685 0.60595983 -0.54230654 0.028089551 -0.1889324 0.58834094 0.21195781 0.20645978 0.43813556 -0.12181896 -0.07247665 0.02488713 0.24129501 0.9562626 0.0017203279 -0.6450774 -1.0306196 0.026863271 0.9636736 0.81109864 -1.3701656 0.032625258 0.31799492 0.032738917 -0.34574485 -0.190183 0.4738151 -0.022802541 -0.094818175 -0.11762326 -0.68141425 -0.28793514 -0.5338663 -0.20069613 -0.24393976 0.074400604 -0.35949922
109 0.06506293 0.98851734 0.045885306 0.8416633 0.6163785 0.11175913 -0.26707312 -0.0029399898 1.0535376 1.2875353 -0.71324 -0.4147108 0.25405934 0.24071291 -0.44798553 -0.56550205 -0.08281917 0.6447083 -0.6792463 0.40819255 0.42624143 -0.06489681 0.087079324 0.17219953 0.46038675 -0.108403146 -0.2999145 -0.6860821 0.022339717 -0.80594677 -0.095827386 0.0785483 0.4758912 1.1078849 -0.030137684 -0.54349923 -0.4630281 0.15305378 0.9799218 -0.30896008 0.4477895 0.72546804 0.074275024 -0.4350064 0.60877275 0.094827615 1.042705 -1.4861548 -0.11297387 0.41655028 0.08463025 0.031998172 -0.55619794 0.7795005 0.07439582 0.46751836 0.6532181 -0.017228343 0.46034223 -0.3791009 -0.55727506 0.023179254 0.058959514 -0.66578144
14 0.7621059 1.0392203 -0.8187542 0.33688667 1.0252429 1.0662156 1.8762771 -0.32617208 0.85942847 -0.5746471 0.45743135 -0.23529458 -0.14514408 -0.19333994 -0.039365474 0.09433263 -0.6338151 -0.09916899 0.32226187 0.43210754 0.6799431 -0.5096651 -0.037736636 -0.05821158 1.2166502 -0.26737648 -0.2318322 -0.9626092 0.60605687 -0.35091972 0.2005069 0.7076879 0.23831792 -0.42445683 -0.22999333 0.48984483 -0.4842613 -0.7177302 -0.8351612 -0.48518345 0.4564539 0.80675566 -0.5376074 -0.22367562 1.5321898 -1.1102654 0.5203691 -0.855618 0.8634154 0.5704557 -0.16047893 0.53789556 0.22295502 -0.8222932 0.042922284 0.2498847 0.79885924 0.53418267 0.605541 -1.0418013 1.41665 -0.6200634 -0.40464994 0.42789367
569 -0.3952349 1.657752 0.29975295 -0.04345683 -0.013085874 0.50520045 0.9385995 0.64498013 0.4341456 -0.037958525 -0.4360712 -0.4115806 -0.8178659 0.3398156 0.5000221 -0.6314855 -0.5320856 0.11281122 0.45704553 -0.7855495 -0.6061836 -0.2435374 0.4562252 0.6553736 0.2664236 -0.115238436 -0.5849308 0.45496172 -0.111462094 -0.21683905 -0.3839289 0.54603255 0.78271866 0.3432549 -0.14279178 -0.23575012 -0.85090137 -0.28707662 0.08710571 -0.37118667 1.2711136 0.9790061 -0.4562482 -0.35288763 0.7575732 0.42964926 0.28848815 -1.0748727 0.37105924 0.48407114 -0.89784807 -0.6095451 0.9308363 -0.65731746 0.483536 0.34440455 0.36406147 0.41915894 -0.4680912 -0.27824077 0.08142617 0.89928275 0.8311778 -0.9790996
672 -0.0027395275 1.220169 -0.6216884 0.7923752 0.45903888 0.5221876 0.14366536 0.5073691 1.1811092 0.6948607 -0.7229889 -0.8649562 0.054005258 0.4309298 -0.8462643 -0.6425055 -0.33614394 0.17528328 0.08321878 -0.46420014 0.19574046 -0.70080197 -0.029865298 -0.1274503 0.49568504 -0.07262931 -0.30524823 -0.39355817 -0.6873208 -0.0785489 -0.050329488 0.7979936 0.16733317 -0.0032666575 -0.3993771 -0.10848055 -0.58115876 0.17987166 0.07955526 -0.29581335 -0.06608982 1.0612075 -0.15809692 0.04041435 0.49788624 -0.6920572 0.39681286 -1.20069 0.7168721 -0.10018847 0.6211437 0.15103866 -0.34336492 0.388278 -0.315826 0.83820844 0.514845 -0.15815356 0.5951841 -0.506986 -0.6035445 0.48057178 -0.039524198 -1.0531647
1527 0.3179919 -0.29493368 0.044660088 -0.48903576 0.6472358 0.10299472 0.32036406 1.6014006 0.14333582 0.6737072 -0.40922144 -0.00883947 1.0596775 -0.8824684 -0.08140968 -0.38223854 -0.2365702 0.4691911 -0.9029859 -0.43419728 0.039847754 0.04214714 -0.28587684 0.38445702 1.3423816 0.2684555 0.2171327 0.27486315 -0.4846908 -0.30759722 0.4084095 -0.5734254 0.23719193 -0.7611294 -0.11219936 -0.30539295 0.09274039 -0.18384993 -0.31640694 1.007766 -0.070458226 1.2628187 -0.609255 0.4890747 -0.27499285 0.60953116 1.0680453 -0.56371534 1.3141313 0.7902094 -0.88063204 0.21929818 0.042763803 0.05606663 -0.24008127 -0.98729455 0.63526285 0.020610593 0.40039438 -0.053705562 -0.32452095 0.4538649 -0.6163651 -0.3348985
76 0.9912115 1.5005533 0.1824276 -0.7181709 -0.5336619 0.8177709 0.6379221 -0.057259105 0.88252693 -0.7876262 0.050052326 -0.060684457 0.07184937 -0.79395616 0.3954502 -0.23150042 -0.4804804 -0.19328806 -0.11712422 0.12624308 1.0150349 -0.60314286 0.08920527 0.16396861 0.29222664 0.55455106 -0.33042726 -0.70404667 0.6970653 1.0365503 0.2011585 -0.8692777 0.1130766 -0.1305059 -0.100098915 0.3446855 -0.9591905 1.0068777 -1.3513497 0.041691393 -0.101501875 0.9039674 -0.37494355 0.9324816 0.3450489 0.84263855 0.65103984 -0.49950555 0.16196546 0.6133532 -0.80588317 -0.5108404 0.018956 -0.2656835 1.3076165 0.045422383 0.13849886 -0.07079914 0.8463618 -0.44435436 0.50145453 0.94989604 -0.3793869 -0.38370636
1252 0.7126557 0.9807156 0.5401826 -0.5494404 0.7291866 0.7095548 -0.2368027 -0.47095495 1.7693082 0.471946 -0.2237795 0.39245474 0.1225469 0.20834266 0.080606766 -1.2361407 0.05600267 1.8727225 0.9771102 0.3273794 -0.16895892 0.30034018 0.6766425 -1.134233 0.5069042 1.7648463 -0.3369536 -0.035712212 0.8605782 0.25412905 -0.55978805 -0.64195406 0.7914959 -0.687421 -0.18268946 -0.7719544 0.40627992 0.4809001 -0.28878188 0.41150966 0.3829347 0.889771 -1.1024159 -0.9749387 -0.9190542 -1.081581 0.7819268 -0.28785646 -0.1860325 -0.05556027 -0.42985997 -1.2779557 0.38825282 -0.64024085 -0.7529435 0.7958621 -0.32989416 -0.14550592 1.547032 -0.28540993 1.6669154 -0.39879298 1.2333752 0.62483835
2499 2.0783606 -0.31058773 -0.88819504 0.4639011 0.17465185 -0.083077505 1.0270476 -0.11934119 0.93662477 0.6256207 -0.057687346 -0.8813167 -0.49252132 -0.049638987 -0.13442573 -0.3956257 -0.6242776 0.36176658 -0.45545906 0.7414173 0.49875057 0.16935869 -1.0474157 -0.690553 0.211599 0.6040254 -1.0940045 1.3707807 -0.23880696 0.3284773 -0.37211028 -1.628494 0.48258796 0.21937259 -1.0736796 -0.8794558 0.14298932 -0.14600869 0.45995596 0.15132083 0.104960985 0.6515126 -1.473477 0.27628323 -0.28805944 0.61351115 1.1201468 -0.45333916 -0.82234955 0.63025004 -0.69229907 -0.3584757 0.27947825 -0.2942928 -0.78365284 -0.055837456 -0.33217463 -0.7491143 1.0351434 -0.1228521 0.91893554 -0.3158042 -0.7103385 0.09717651
1328 -0.04745293 1.1954548 0.03267267 -0.0051858574 0.006540511 0.64644396 -0.052581582 0.12179015 1.0560905 0.8192837 0.05078547 -0.036149565 -0.90922356 0.2710658 0.26833305 -1.054538 -0.6848009 0.37002861 -0.3459977 0.073251344 0.33751088 -0.9764714 -0.37092182 -0.49330428 0.9663932 -0.24267802 -0.2876075 0.15433496 -0.26956156 -0.49026138 0.7167815 -0.08008558 0.5450544 -0.46734858 0.54118353 1.3001361 0.4219716 0.16390155 -0.5512773 -0.47928652 0.4388312 0.8288651 0.7507635 -0.3906843 0.30862948 0.10950957 0.01578047 -1.0173557 0.0036330547 1.6031016 0.55464876 -0.7332294 0.6694861 -0.22399145 -1.2691102 -1.14324 -0.04612524 0.28203604 0.65429354 -0.3414009 0.78580445 0.32886854 -0.6109608 -0.03567901
1240 0.7005812 -0.073259704 -0.78404284 -1.0791656 0.2951066 0.93560845 0.6923584 0.65499806 0.68428886 0.8991768 -0.5519084 -0.25214407 0.72396594 -0.689435 -0.075776346 0.26814952 -0.7651317 0.4962508 -0.3982085 -0.2172241 0.57282495 -0.21166906 1.3373847 0.058035284 1.3930684 -0.3816614 -0.24126206 0.3817531 0.35269827 -0.16214825 -0.03413596 0.095504366 -0.21564624 -0.45190096 -0.4244233 -0.85464174 0.2983183 -0.59285915 -0.05763549 0.4115206 -0.31623414 0.7436405 -0.1738317 -0.12467623 -0.008614103 1.108097 0.11266031 0.007151402 1.2543153 0.8527878 -1.6702905 0.4512339 0.14272498 0.027245894 -0.5643297 -0.3223758 0.4863152 -0.33172464 0.6202777 -0.26081204 -0.14296573 0.45986545 -0.43353978 0.350248
1644 0.59209174 0.31074816 -0.3417211 0.561198 0.71532696 0.57288593 -0.19542584 -0.2322657 0.52877355 -0.16470438 -0.7460621 -0.3425777 -0.2960845 -0.5819423 -0.081073105 -0.65322906 -0.41923425 0.3815536 -0.22503649 -0.46834943 -0.53572375 -0.7168086 0.46625656 0.019064818 0.13110659 -0.84556925 -0.6569215 -0.16003017 -0.596796 -0.74627876 -0.22140604 0.35883933 -0.4260828 -0.3895704 -0.25705418 0.85427034 0.74010843 0.4610136 -0.059701037 -0.26459447 0.077580586 1.102292 0.12887757 0.24444737 -0.5213806 0.40771982 0.09601967 -1.4560766 -0.19245423 0.6863681 -0.7212255 -0.7932188 0.035002857 -0.18019043 -0.98500174 -0.23446037 -0.4883271 0.38008425 -0.20310822 -0.52919006 0.9166579 0.53810376 -0.21904683 -0.0804955
1569 -0.022597099 1.2583485 -1.0497458 -0.44084975 0.15017605 0.61885595 -1.5646085 1.6740837 0.5060445 0.52437514 0.42977118 0.4585837 -1.0217276 0.0801728 -0.21752438 -0.3798053 -0.8842098 1.4086238 -0.5846159 -0.979172 0.14483069 -1.0696478 0.9180102 0.82843435 0.6393126 1.2276767 -0.09846537 0.2861547 -0.37527078 -0.15242617 -0.35886794 -0.21821207 -0.13353421 0.167564 -0.16448699 0.3468013 0.14557053 0.03576562 0.44490826 -0.30101246 0.41732323 0.2869455 -0.8503274 -1.1445446 -0.18688442 0.8709698 0.40622842 -0.6331969 0.32922238 0.37422696 0.88741493 -0.61240476 -0.22895093 0.16413565 -1.1114016 0.014743509 -0.16334198 -0.8045826 -0.0435554 -0.5485907 0.21142927 -0.32310754 -0.7444176 -0.23018049
41 0.081588164 1.3845369 -0.2717168 -0.1553818 1.3605499 0.6818793 -0.22762403 0.65474653 0.6691843 -0.24663308 0.015725167 0.28416315 0.45579132 0.67934245 0.5168277 0.68415135 -0.20795694 0.6713837 -0.39752913 1.580438 -1.1963079 -0.048046112 0.52934 0.8518399 -0.053812258 -0.48240983 0.22841144 -0.013261787 1.2996395 -1.0458237 0.06818154 -0.8179092 1.1608349 -0.51546973 0.20317636 0.26994446 0.6794122 -0.0050420715 0.9543389 -1.1836812 0.16045494 0.5918464 -0.31911397 0.24649122 1.3572903 -0.041212205 0.087444805 -1.1994885 0.38557184 0.062386412 -0.8623737 0.20258926 0.97391456 0.17591354 -0.051394638 0.2734626 0.36643484 -0.2271082 0.81537694 0.21502502 -0.17566077 0.5917972 -0.61582613 0.3803435
1153 0.74937457 0.120736405 0.24500251 -0.3741947 1.0929863 0.4593518 0.8237759 0.7005178 -0.3060541 0.53985476 -0.2154527 -0.650953 -0.8556598 0.0090078125 0.60499245 0.8317058 -0.3967841 0.21178621 -0.085439816 0.7487316 -0.268261 0.6462725 0.82136154 0.14967379 -0.10522862 0.410768 0.9788898 0.33683944 0.31328288 0.10791953 0.42350587 -0.15425654 0.6153964 -0.30390978 0.39670846 -0.566112 -0.842211 0.22088073 0.08766225 -0.9758362 -0.14539099 1.0980978 -0.4531733 0.6710059 -1.2647322 -0.641421 1.0336971 0.19139843 0.28936535 0.34208554 -0.3709613 -1.1198926 -0.4750887 0.44085917 -0.12743413 1.12696 -1.2183499 -0.014675164 0.8051623 -0.5249258 -0.0989092 -0.09932488 -0.56110746 -0.5122331
910 0.37646535 0.47517622 0.14128675 -0.9892537 0.8423477 0.25748423 0.79376894 0.4709534 -0.90107566 0.1198198 0.0914597 -1.0761011 -0.81792146 0.32551315 0.18902011 0.46189833 -0.8325291 0.848372 -0.40695596 1.0459193 -0.6120475 1.4670633 -0.48829594 -0.5145285 0.9580788 0.36986023 0.16891597 1.2238286 -0.6269515 0.042990416 0.6415878 -0.24275479 1.0499424 0.96806526 0.3755108 -0.18154849 -0.3587106 0.19220372 0.80338514 -0.08906338 0.23101996 -0.40174446 -0.341229 -0.35736033 -0.20888612 -0.10798049 0.9498583 0.08068882 -0.39079076 0.9019521 -0.25511828 -0.07202448 0.11718076 -0.042286336 -0.34539083 0.16980506 0.119927146 -0.06625369 0.0033836986 0.08903055 0.50541884 0.6344083 0.36124426 -0.660015
478 0.6680791 0.3426061 1.1149049 -1.0733236 0.34921318 0.9997269 0.15007767 0.25992113 0.017811114 -0.40090162 0.42649224 0.3906461 -0.32761958 -0.02657169 0.24116737 -0.05836085 -0.3034695 -0.43099055 -0.13386294 0.37651983 -1.628061 -0.4330629 -0.17605083 -0.2504506 0.653671 -0.68630284 -0.0991245 0.8679249 -0.67919403 -0.32741898 -0.1355415 0.48138547 0.97654444 0.22864202 0.029288799 0.8144499 -0.8292436 0.2954544 0.091588706 0.27834985 0.015979704 0.14592601 -0.79843795 -0.47844845 -0.5152804 0.74008363 0.7024214 -0.12533946 -0.12697084 0.18175817 0.2423109 0.2272855 0.1072111 -0.36129308 -0.7164403 -0.13314605 0.73586047 -0.23775437 -0.37307435 -0.6595368 1.0358417 -0.15623796 -0.83909136 -0.610737
1520 0.9829859 0.7759633 -1.2809476 -0.09334246 -0.18071389 0.79905736 0.7978833 0.41347134 0.9485966 -0.5950131 -0.3196443 -0.57108253 0.16558051 -0.19581321 0.19995794 -0.5127902 -0.39939326 0.6956858 -0.2926594 0.83891606 -0.41973716 -0.14234497 -0.68068004 -0.57262766 -1.0752299 -0.19908702 -1.7432371 0.4921323 0.08945803 0.3117747 0.020303551 -0.938403 -0.18814835 1.1855413 0.63674635 0.29254758 0.04619966 -0.03295114 0.8274044 0.07762849 -0.39245167 2.2119908 -0.31200817 1.2388564 0.17318453 -0.3073358 0.62184745 -0.020375492 0.57700485 0.22016867 0.66510373 0.18385267 0.8503705 0.8367745 -0.12182123 0.44602716 0.10556562 -1.2966828 0.76145285 -0.25729865 1.1760249 -0.017403115 -0.70105463 -0.093711786
1136 0.24297376 0.5167735 0.2853581 0.52447844 0.5888493 0.34516507 0.31890917 0.37544397 -0.32676363 0.28023404 -0.6837488 -0.79717743 -1.3230243 0.5416521 0.85844356 0.5948384 -1.116188 0.19858979 0.126617 1.381675 0.06691383 -0.23993935 0.8328401 0.8990715 0.2873731 0.58026385 0.22160818 0.51292336 0.13720503 -0.9001488 0.47701782 0.14054404 0.95407265 0.5861675 0.52854496 0.37893203 0.05316366 0.1745159 0.18742864 0.03956833 -0.7126316 0.2495236 -0.60228175 -0.19018556 -1.0662153 -0.416133 1.1281953 -0.014620799 0.34951788 0.08726816 -0.5104611 -1.2625116 -0.24887235 -0.08888148 0.06127126 0.58609027 -1.4876921 -0.3886281 0.79651797 0.06361245 0.32712463 -0.28269562 0.3256067 -0.021523383
250 0.72156143 1.1954831 0.75465727 0.040283166 -0.4027828 0.35711348 1.5906247 0.45798364 0.25122574 -0.6246034 -0.12400042 0.28802654 -0.056545947 -0.4331003 1.0148513 -0.19174337 -0.509574 0.31970468 -0.46101654 0.010487683 0.35439256 -1.114651 -0.4019039 -0.263999 1.2888699 0.7904138 0.10466739 -1.0295837 0.37602258 0.7754137 0.04358186 -0.59481937 0.4942579 -0.052099366 -0.12465084 -0.52479285 -0.33900076 -0.4272907 -0.99322355 -0.39318103 -0.21079275 0.6064536 0.053137615 0.6984453 0.80233777 -0.0057932716 0.09472953 -0.69823396 0.42851856 0.5854601 -0.51988256 -0.07246368 -0.20824271 -0.065232255 0.32587278 0.5636343 0.23411633 0.06527227 0.060332038 -1.1935972 0.79884505 -0.789148 -0.80960286 0.23933978
1713 0.013379758 1.399485 -0.19749668 -0.37824485 1.3016808 1.0265296 -0.70997715 1.0405271 1.0091871 -0.083581045 -0.28592587 0.033697568 -0.0382978 0.68095994 -0.199899 -0.11723654 -0.69399107 0.3986363 -0.6013726 1.6768712 -0.12940882 -0.371689 1.631768 0.36142367 -0.7999234 -0.31912872 0.30945897 0.59140456 1.2383215 -0.9565671 0.23787573 0.5317262 1.2892857 -0.36052755 0.45454022 0.6594237 0.55970746 0.025452022 0.5179539 -0.7285777 0.13687584 1.1474693 -0.6750237 0.27506122 1.2832685 -0.15158458 0.17967741 -0.721454 0.6187207 0.3477747 0.09506411 0.42416778 0.66775835 -0.13180201 -0.5107711 0.94034106 0.60374725 -0.42109236 0.80085015 -0.45034096 0.13813516 0.47729906 -0.3202557 0.47509935
2153 0.03332488 1.313853 0.029804027 -0.08706648 1.1516234 1.2393333 -0.9117869 0.78799206 0.9493276 -0.16736092 -0.45721397 0.1491286 -0.45686805 1.0609212 -0.5247932 -0.13960055 -0.24484353 0.89892906 -0.60403067 1.1550952 -0.020072103 -0.5199415 1.7441795 0.9173914 -0.047661163 -0.20947576 0.9727175 0.48421112 1.4088204 -0.8528479 0.22824286 0.46064058 0.8997342 -0.222258 0.99145657 0.7459953 0.28173608 -0.4504679 0.30254897 -0.67143327 0.42068854 1.3717322 -0.85145307 -0.2751424 1.3523103 -0.23026818 0.16819528 -0.64083004 1.3230326 0.57009274 -0.24207984 0.2604096 0.8986541 -0.31606105 -0.7241215 0.6118977 0.13531475 -0.7236885 0.8375133 -0.3946452 0.037102293 0.28086182 -0.23168556 0.8997722
188 0.92821574 -0.3872279 -0.5471836 -0.55990016 1.3958521 -0.1501369 1.122033 0.37357518 -0.15648583 -0.3137348 -0.24976094 0.16605224 -0.36123708 -0.48281276 0.22164597 0.3377377 -0.5094412 1.0861567 0.23613432 -0.22032996 -0.42538235 -0.101590164 0.7767031 -0.36193907 -0.27026987 0.5078366 0.14621896 0.3819025 -0.010985798 -0.48111373 -0.14723833 0.5995301 -0.024955884 0.30263457 -0.5300233 0.45494732 -0.3350268 0.10493759 0.45869097 -0.10066397 0.28637528 -0.1552705 -0.7064373 0.30446738 -0.70125335 -0.45839125 0.7445582 -0.018919455 1.0411994 0.8117647 0.031222353 -0.18418245 -0.37232727 -0.4632697 -0.5751831 0.47057605 -0.7085039 -0.1162216 0.8957046 -0.74249506 -0.03628966 0.05538262 0.19105054 -0.98174596
2421 1.0266764 1.9809265 -0.24906893 -0.78843266 1.0166701 1.2591081 -0.7338931 -0.9743266 0.7307491 0.22428063 -1.1867933 -0.19036396 0.15142354 0.1393843 -0.26794925 -0.34440005 -1.0363703 -0.4399328 0.16715701 0.99890894 0.2638246 0.02419213 0.9642406 -0.19171597 -0.6095253 0.32787186 -1.3809276 0.42672378 1.2280375 0.23591904 -0.14499626 -0.5430238 0.5654958 -0.08845856 -0.3206929 1.0502311 -0.36831167 0.7104842 0.101599485 -0.30248693 -1.0618447 -0.48198432 -0.83886266 0.24629794 0.8976611 -0.5210342 0.60521346 -0.08817963 -0.043001935 0.35033885 -1.5723146 0.3818773 0.6844663 -0.5628039 0.0084030945 0.3914534 0.2978675 -0.31906778 0.76715565 0.37289426 -0.23348242 0.836323 -0.4155177 0.035374083
99 -0.06320919 0.9745235 0.32822174 -1.0184089 0.10161659 0.6523769 0.6859686 0.67906576 0.7383034 1.4452258 -0.2533648 -0.6707345 0.029206796 1.1438068 0.6505551 0.6986058 -0.25931886 0.4175275 0.4464277 0.3629663 0.0035001107 -1.0367213 0.85986114 0.8723597 -0.08004673 -0.9744325 0.72051436 0.80325717 1.0579778 -0.95384604 0.09731455 -1.0317872 0.2120046 0.73214304 0.29462433 -0.37300354 0.27578276 0.5773813 1.3220755 0.3275836 -0.033277467 1.0512214 1.2059826 -0.44379684 0.14362413 0.1764447 -0.44498208 0.07319849 -0.08017147 0.5895689 -1.0878806 0.65370226 -0.48647353 -0.41497892 -0.47593442 1.5055382 -0.008829778 -1.0327576 1.2943095 -1.6541094 0.45509574 0.68622696 -0.2610045 -0.4284737
1290 1.0284295 0.7873875 0.18915966 -0.007873177 0.40948668 0.57936454 0.03844505 0.33544007 0.8655372 -1.0680015 -0.41210374 -0.14161561 -0.49472442 0.33364215 -0.10475492 -0.1851471 -1.014514 -0.553318 -0.48867494 -0.5730322 0.053473435 -0.63941205 0.7150329 -0.027303047 0.2313595 -0.3355132 -1.1379596 0.2911683 -0.9081722 -0.44301185 -0.8791719 0.5286364 0.72950655 -0.3848303 0.0067488574 0.20228247 -0.98751503 -0.61823857 0.5886878 0.4676326 0.19266894 0.7369345 0.22164966 0.0036841785 -0.08388799 0.56993896 -0.13257931 -0.72596437 0.2870767 0.5703346 -0.5297112 -0.09976818 0.3234913 -0.97320265 0.051447816 -0.2793325 0.4679998 -0.3335133 0.11336585 -1.1208074 0.2620199 0.6925833 -0.31944168 -0.4259121
438 0.35494453 1.2534751 0.68402 0.23494217 0.9425532 0.09959537 0.7421804 -0.25720304 -0.13937554 -0.5693704 0.035561018 0.31489438 -0.07886604 0.47903356 0.578348 0.52309626 -0.72654116 -0.08283696 0.7038569 -0.52821016 -0.9300635 -0.4856083 -0.8034192 -0.10787246 1.2150607 -1.5691574 -0.42348838 0.81234974 -0.46924463 -0.37649575 0.71500766 0.09136526 0.5124326 0.208856 0.038780194 -0.07080321 -1.125273 1.1952504 0.36299312 -0.05707988 0.5507235 0.19698645 -0.9008949 -0.5647933 0.60416627 0.4651937 0.33517468 0.012152204 0.3881653 0.35151076 -1.0303884 0.27069122 0.4261438 -0.5513789 -0.18804021 -0.35327187 0.9174561 -0.085701466 -0.6378844 -0.71723366 0.6395775 0.27236277 -0.49864504 0.071908794
359 1.9297206 0.19553198 -0.89969313 0.6671544 0.029057395 0.0037668664 0.872095 -0.2232483 0.7207473 0.810954 0.1307489 -0.95950586 -0.39950475 -0.11020359 0.010054172 -0.28251603 -0.76615727 0.8388459 -0.6681268 0.56276155 0.5570032 -0.29102597 -1.0823643 -0.5966122 -0.3936875 0.45696983 -0.9400788 1.5034044 -0.26048186 0.16401435 -0.4290978 -1.1790189 0.51491976 -0.06262808 -0.71090907 -0.95099866 0.114996664 -0.2991072 0.8502365 -0.04060629 -0.36824632 0.55792874 -1.5897506 0.6305378 -0.21689036 0.47575238 1.5718738 -0.41075468 -0.9065471 0.5784486 -0.5709958 -0.16416906 0.30071983 -0.20070298 -0.51667625 -0.07429596 -0.26587525 -1.039587 0.6597898 -0.39063057 1.0264833 -0.38367102 -0.6703516 -0.056054585
686 1.0084676 0.9602657 -0.28025723 0.84367317 0.6386006 0.87502223 -0.57927966 0.2580722 0.34094143 0.8959758 1.3310617 0.2027165 -0.29448003 0.41089338 -0.25739056 0.13332146 -0.8342604 0.8673737 -0.23944323 -0.55270725 -0.13371417 0.55283195 -0.24506167 -0.46533665 0.021837633 -0.04735409 0.029237373 0.14528221 0.41455743 -0.20920604 -0.15283103 0.6153397 0.8194853 0.68304193 0.08152874 0.32965934 0.21354362 0.13683334 -0.12074709 -0.4900568 0.9634559 0.6809255 -0.05948374 -0.9889858 0.028506763 1.0701758 0.59135 -1.9095391 0.12204769 -0.026750023 -0.010732331 -0.809479 0.46783444 0.019417217 -0.4629523 -0.3985048 -0.095600426 -0.72578645 0.366831 -0.6597234 0.18422437 -0.11757037 0.038502157 -0.4552156
570 1.5624315 0.68571556 -0.85741156 -0.11021552 -0.38831013 1.3479639 0.7019904 0.660952 0.5788803 -0.35142547 -0.39483103 -0.24161695 0.09342057 0.5530689 0.10090562 -0.29221255 -0.2946842 0.64654213 -0.45415214 1.1008523 -0.45089856 -0.4362421 -0.12998442 -0.11013946 -0.8985195 -0.43325126 -1.4311535 0.28082877 -0.529109 0.81617415 0.018778767 -1.1280991 -0.22683206 1.0588576 0.4073325 -0.08550473 -0.110147186 0.21794227 0.5262139 0.21679883 -0.23843685 2.318167 -0.0015362657 1.202837 0.44421998 -0.39737156 0.57317936 -0.15550181 0.9814378 0.69064313 0.7009042 0.4724981 0.59520316 0.4830185 -0.39587915 0.78552556 0.1008301 -1.183375 0.44087234 -0.29143196 1.3535025 -0.3612947 -0.30876067 0.2603028
1459 0.05706528 0.27206755 -0.61643296 -1.2975147 0.8103861 -0.36304495 -0.27324945 -0.14973955 0.18815327 -0.2161162 0.40471572 -0.59692574 -0.2936673 -0.11532336 0.36562854 -0.2002036 -0.38138554 1.2650394 -0.038328163 0.8384587 -0.04247844 0.027297266 -0.2128949 -0.2584691 0.5617804 0.18325202 0.16859767 -0.7915826 -0.7403293 0.21635471 -0.8200812 0.052311867 0.5933496 0.548039 -0.023648132 0.7793559 -0.19865455 1.0679384 -0.8584688 0.5702757 -0.08581991 2.0147994 -0.2970445 0.010164363 -0.4184947 -0.094430074 1.1425211 -0.2202642 0.15935852 0.2468662 -0.7050778 0.37246874 -0.12632883 -0.059433475 -0.5204885 0.11859208 1.0706753 -0.052144226 -0.20122455 -0.4058874 -0.03779873 -0.6444335 -0.28766248 0.3175341
809 -0.37832248 1.4566299 -0.5530456 -0.89759463 0.52057344 0.50665516 -0.5889921 0.31504074 0.8486256 1.0351098 0.02017254 -0.20443253 -1.3479522 -0.88307965 0.26928103 -1.4008509 -0.938572 0.100405626 -1.1249202 0.2337348 -1.3571839 -0.4513228 -0.05775284 0.6811321 -0.20889546 -1.2567359 -0.82429534 0.347479 0.30283856 0.8561567 0.101037696 -1.1655807 1.8288704 0.0044786544 -0.4568635 -1.0803941 -0.24815364 1.0013194 -0.38499755 -0.66205287 0.3877261 0.597227 -0.103224665 -0.43133324 0.14010237 -1.1468989 0.0336631 -0.62932724 -0.18605563 -0.86408633 -0.8829159 0.20432071 -0.41709587 0.22391744 -0.47747734 0.28601444 0.24897137 1.0237873 0.63581604 -0.30044386 1.2703032 0.6100436 -0.99618614 -0.5847568
881 0.5122883 0.8206172 0.21034005 -0.33400962 -0.07029011 0.7157411 1.1122158 -0.45793337 0.7188065 0.4227752 -0.37313086 -0.107626654 0.44195622 -1.1325301 1.1249352 -0.4073148 -1.2123097 -0.4097668 0.392739 -1.1087536 0.36374763 -0.4594083 -0.15641776 -0.38593626 0.58160526 -0.5106564 -0.23052682 0.97385323 -0.62960595 -1.1287614 -0.44294512 -0.2586674 0.7224809 0.23616245 -1.2089545 0.3245067 -0.21383625 1.0371591 0.06795914 0.30139747 -0.56774944 -0.04867995 -0.3728038 0.2175165 0.39262512 -0.40368104 0.9231652 -0.39210594 0.5850113 0.70461446 -0.010841512 -1.2170244 1.6158069 0.73941016 -0.60296905 0.62254524 -0.27327785 -0.22197592 -0.48810297 0.13083988 0.5219547 0.21520029 -0.5696725 -0.61341137
1550 0.18109979 0.8366393 -0.7790004 -1.2736957 0.47445574 -0.40583938 1.0654886 0.63069063 1.2959775 0.7255799 0.509278 -0.90061074 -0.033273764 0.040623464 -0.7818479 0.23290369 -0.39335924 -1.0608449 -0.27226114 -0.49104092 0.52271175 -0.67716986 0.7397461 0.12080122 -0.17362893 -0.04490072 -0.63188225 0.61500275 -0.464656 -0.6559117 -0.15136422 0.005418724 0.17780901 0.8295643 -0.7267219 -0.6384225 -1.1515993 -0.52522916 -0.061662823 -0.29057717 0.112539016 1.1033652 0.73119354 -0.16535467 0.19877994 0.57127255 0.6259268 -0.07833992 -0.18811522 0.91737026 -0.9739925 0.5418902 0.21907441 -0.7389271 0.015598331 0.46553528 0.5804852 0.3209837 1.0851495 -0.28470972 0.3463881 0.6735519 -0.5263707 -0.024957806
1498 0.63522106 0.95392215 -0.08022277 0.04589598 -0.2178909 0.3808435 -0.28464517 -0.13726144 0.18675794 -0.6015915 -0.8695846 -0.48117682 0.052500788 0.84194773 1.1009042 -0.47836253 -0.38095945 1.2310008 -0.2658422 0.10259749 0.14215605 -0.21894485 0.64764166 0.7281786 0.28305647 -0.18912716 1.2792292 1.1839952 -0.1265299 0.17648229 -0.6998534 0.60421664 1.060398 -0.1528105 0.15966006 0.37685186 -0.34357622 0.28179863 -0.9169541 -0.26804957 1.0270113 0.27353045 0.5777389 -0.31654468 -0.3134098 -0.6362378 0.71205544 -0.0031998302 -0.28696254 -0.044794023 0.36148638 -0.7521912 -0.10632401 -0.08515926 -0.07476031 0.90920085 -1.0079594 0.10893851 0.9571384 0.012000245 0.65352464 -0.17083645 -0.36434725 0.1465432
591 -0.33933818 1.6170068 -0.70842415 -0.05409271 0.9334893 -0.16976401 -0.12019469 0.23989789 0.7790701 0.2801573 -1.2215214 -1.2897122 0.1189555 0.38680217 -0.28264698 -0.47859427 -0.3253453 0.24208073 -0.24708726 0.1250591 -0.04175875 -0.06635203 -0.34036484 0.7627745 1.0179468 -0.71258014 -0.29997876 -1.0113527 -0.15657333 0.06528027 -0.53181285 0.5373812 -0.31614533 0.29667196 -0.16737929 -0.6796751 -1.3570069 -0.10757404 0.22252744 0.05759235 0.53826565 1.104038 -0.6004824 -0.35642248 0.5240429 0.053909544 0.6853374 -0.5278122 -0.36423016 0.18828544 -0.5419175 0.06523878 0.3790698 0.08975201 -0.34652364 0.78196657 -0.027403405 -0.073277116 0.527347 -0.36562955 -0.61944133 -0.40622982 0.019187964 -1.3521363
1484 0.36208752 1.1891893 -0.53175706 -0.36932796 -0.24764605 0.9012712 -0.06251078 0.1381933 1.0813164 0.12176752 -0.009130367 0.1384574 -1.2572192 -0.54601127 0.61851704 -0.25682977 -0.899403 0.6733315 -0.071950324 -0.8474268 -0.58605224 -0.9272946 0.27810556 -0.28536436 -0.10314345 0.25183707 -0.8303632 0.20852411 -0.16393737 -0.8563603 -1.1775707 0.2822125 -0.035365 0.5827639 -0.18842368 -1.110832 0.19449449 -0.15449029 -0.2320229 -0.041964512 1.0253274 0.46939817 -0.9400796 -0.76883435 0.22432458 0.6747314 0.44064564 -0.40668947 1.039244 1.0329728 -0.9220003 -0.74601394 1.264203 -0.4124387 0.41268447 0.28888187 0.29324234 0.41145346 0.4095552 -0.8216564 -0.09432476 0.80565834 0.43561542 -0.33330205
2175 0.2546248 -0.23258303 -0.87830204 -0.692638 1.8786612 -0.038603175 0.9427812 0.89355564 0.19584359 -0.36139667 -0.07547385 -0.5978763 0.22354832 0.096226744 -0.23889573 0.4638756 -0.62196755 0.665421 0.8281569 -0.32023463 -0.55638134 0.0451904 0.85157704 -0.31554177 0.06635035 0.5091683 -0.30785802 0.7411835 0.27018645 -0.4156091 0.32079345 0.2638701 0.32079154 -0.12757067 0.49471158 0.13475412 -0.5825048 0.75289106 0.5323569 -0.22768447 -0.2573356 -0.45390862 -0.31522694 0.1407074 -0.84549654 -0.22844711 0.7476271 -0.65384895 -0.32382512 0.63843656 -0.15670799 -0.77053225 -0.6308641 0.7324938 -0.18553175 0.64450604 0.5768656 -0.07833027 1.3123604 -0.13404024 0.016771624 0.6763865 -0.0155546935 -0.9747575
415 0.05056142 0.47818696 -0.26976788 -0.83947146 1.6445888 0.28368706 1.0871994 0.67118835 -0.01369535 -0.6289303 0.2230107 0.40937272 -0.33419892 0.050995626 0.3710511 0.9300188 -0.3437376 0.48378998 -0.59700155 0.5783619 -0.65754455 0.0706661 0.48509267 -0.68301237 0.26344687 0.94724584 -0.0287802 0.75494933 0.53132445 -0.70292115 0.13852805 0.023058996 -0.2718266 0.5842994 -0.46142957 0.6497209 -0.4817248 0.6847716 0.0769016 0.3624734 0.30976024 -0.17057765 -0.49400133 0.27415818 -1.0049413 -0.124597505 1.4223607 -0.4396482 0.43778378 -0.09572151 0.33250538 0.8970367 -0.33670428 -0.90246 0.089251034 0.7973236 -0.35940474 -0.22502242 0.9780138 -0.7853287 -0.20283286 -0.23224027 0.43468615 -0.69527733
558 0.43741903 -0.10240552 -0.00041253414 -1.2992408 1.0822009 0.17172375 0.7303837 0.28510308 1.0284992 -1.3049259 -0.20003146 -0.7582733 -0.14673997 -0.16557187 0.33585724 0.07838958 -0.84035033 0.2842788 -0.30866173 -0.65759546 0.3306098 -1.0924183 0.57091117 0.8316868 -0.6851149 0.65663064 -0.4029718 -1.1038654 0.0948487 -0.03966432 -0.38554004 0.1655036 -0.34918907 0.49074993 -0.24187934 -0.16643415 -0.97430843 0.40872598 -0.9132511 0.7501689 -0.021697037 1.1003716 0.8137611 -0.07670745 -0.10438631 1.3433094 0.7222917 -0.28694797 -0.1852176 0.06964804 -0.9649911 0.39776963 -0.38093626 -0.6639483 0.21473002 0.27647978 1.5683082 -0.35974044 1.2868637 -0.41100678 -0.050833616 -0.009047331 -0.608639 -0.0955168
426 0.3786866 0.4232843 -0.52752656 -0.3196106 0.81008226 0.7378369 -0.62057704 0.6828228 0.33906072 -0.44265628 -0.025976557 0.3941872 -0.55272263 1.0515732 -0.9164566 -0.7700053 -0.21511208 1.2592411 -0.67549634 0.09515925 0.09680977 -0.26117402 0.10022039 0.073132336 0.39601415 0.26934692 -0.8949397 0.85189617 -0.8616205 0.41334412 -0.45906097 0.424139 0.06562495 0.88869745 -0.033141367 0.9432251 0.77578735 -0.45517388 0.42683062 0.14784162 0.7916378 0.89797235 -0.38900277 -0.41816664 0.20589133 0.90418977 0.102273904 -1.3817129 0.012027702 0.88517743 0.28673914 0.015360167 -0.6600737 -0.14740139 -1.012454 -0.0022239275 -0.017864283 -1.1725681 0.023846278 -0.4926372 -0.7695414 0.8603079 -0.11551236 -0.2758384
1178 -0.41464034 1.2490758 -0.16352272 -0.60992014 1.3710587 0.42019737 0.5925055 1.4436473 0.53558934 -0.36402735 0.10648025 0.33819082 -0.13563374 0.060207322 1.0406966 0.4887996 -0.041100934 0.8108934 0.2522099 0.108935185 -0.7485787 -0.16896555 0.63520247 -0.46503058 0.5546375 0.39487463 0.45310318 -0.113587044 0.9914369 0.025918588 -0.44199443 0.5769952 0.85923445 -0.14515318 -0.13030937 0.4274643 0.68415844 1.346763 -0.34362516 -0.5048046 0.2594807 -0.80417365 -0.4359794 -0.31391534 -1.2525887 -0.9083368 1.1617569 -0.60770994 -0.35705885 0.48448512 -0.1463505 -0.2654107 -1.213269 -0.37656507 0.2695861 0.9737884 -0.8694613 0.089609206 0.7660572 -0.23265736 0.10062826 0.06449108 -0.2631083 -0.5857362
2208 -0.3792508 1.1190605 0.38810423 -1.9685462 1.0850766 0.2792444 -0.38404605 1.4552794 -0.6418014 -1.5150914 0.6969934 0.4780803 -0.90599626 -0.62266517 0.79908365 -0.014845136 -1.2641519 1.7216452 -0.45540252 0.19319199 -1.5772861 -0.39314184 0.6377854 -0.29663184 1.0588074 0.045637213 -1.1065842 0.8073487 0.10559969 0.09193868 0.51126117 -0.9097477 1.459298 -1.3523445 0.2872924 -0.4243037 0.79480714 0.30768448 1.4301438 -0.8199949 0.6018145 0.63635767 -0.47033453 0.40100697 1.2423309 0.114177264 1.7310705 -1.1615818 0.2789899 -0.11327344 -0.053516023 0.42526048 0.47974107 0.0960978 1.0219471 -0.9263947 0.9392152 0.5926866 0.35017493 0.55654347 0.33787644 0.84839153 -0.8198751 -0.5148767
129 1.0243343 0.25558895 -0.14687017 -0.46493873 0.79417837 0.061569937 1.0223929 0.99837625 -0.10653995 -0.9110348 -0.51563007 -0.4869027 -0.69324464 -0.7506424 -0.4390538 0.52745837 -0.48390988 0.14788726 -0.35378107 -0.20499963 -0.43571144 0.20781036 0.77284896 -0.3937856 -0.30438405 -0.16329893 0.7908911 0.5558311 -0.21815635 -0.49705514 -0.22010729 -0.14569433 -0.18496752 0.35680354 0.23671286 -0.045611605 -0.2625183 0.22137088 0.26263726 0.14970021 0.8932889 -0.5565874 0.1871972 -0.30044833 -0.5497151 -0.44109496 1.3529775 -0.063601404 0.59416723 0.7337843 -0.074971735 -0.36371544 -0.45889765 0.2835233 -0.49778956 0.6476281 -1.146515 -0.6697342 0.6191865 -0.70028573 0.11897208 -0.21877992 -0.18854533 -0.26469564
649 0.4948782 1.9976835 0.5622259 -0.96500164 -0.2259646 -0.8876229 -0.018817084 1.0163966 0.23443843 0.11783339 -0.5666835 -0.3697242 -0.20987022 -0.72963107 0.6555884 -0.15175265 -0.7410814 0.20485458 0.09753499 0.41171604 -0.24836121 0.5359775 -0.0044486206 0.3723341 0.37900472 -1.3814155 0.20164861 1.5172149 0.5818292 -0.3550358 0.37880942 0.50158983 1.1516242 -0.31547597 0.3636531 0.9375867 0.39566517 0.74225295 -0.6104506 0.46989447 0.8927527 0.53732836 -0.8718644 -0.64725256 0.62348014 0.16215645 0.22746001 0.40071273 -0.030258253 0.11228343 -0.3874156 -0.30099583 -0.10410556 0.29635593 -0.94491774 0.5616317 0.08822891 0.21016555 -0.8240099 -0.48886323 0.016915778 -0.7887645 -1.3106967 0.27184632
1333 0.16806678 0.26668894 -0.37334388 0.3774795 0.8175063 0.93664193 0.53424674 0.28423113 0.14764205 -0.17629433 -0.47240996 -0.6235601 -1.6440828 0.44557428 -0.07963622 0.33357182 -1.0960436 1.0872962 0.5027175 0.41641876 -0.38851762 0.75076413 0.24759734 0.65143734 0.29697245 0.08085056 -0.7046563 1.2858825 0.360895 -0.33746806 -0.059685763 0.73230135 0.8484031 0.57166857 0.41637555 -0.15091676 0.0018039412 -0.35977203 0.7682607 -0.07616165 -0.45312476 0.12251405 -0.51554143 -0.29222196 -0.8069547 0.19004034 0.42070273 0.051253967 0.7406822 0.71538115 0.4105963 -0.4398782 -0.5807196 0.41526183 -0.37472475 0.26159698 -1.1401572 0.28607136 0.63555855 -0.44243315 -0.13352348 -0.5857434 -0.023169054 -0.19054371
84 0.5001979 0.6099313 -0.44700253 -1.1785058 -0.11552344 0.56828564 0.4599374 0.8952078 0.9459611 1.0171177 -0.56636316 -0.47330397 0.8354568 0.105982736 -0.4933813 0.6167191 -0.7322001 0.09776672 -0.21225178 -0.08089719 1.0052613 -0.48787126 1.4177045 -0.030887613 0.8217205 -0.90996546 -0.21817039 0.7246879 0.22896206 0.15282445 0.07446045 0.44925588 -0.07097453 1.0344245 -0.050481413 -0.67532676 -0.26036483 -0.09365291 0.044646066 -0.5937117 -0.40588015 0.7194866 0.6947721 -0.3304457 -0.027796827 1.0761247 0.16720062 -0.058466636 0.93550426 0.6537334 -1.4690758 0.96968025 -0.26500085 -0.29036847 -0.7164578 0.409571 0.085373834 -0.26032272 1.1378882 -0.78155357 0.029016936 0.42297947 -0.3316074 0.8305242
967 0.5571594 0.73941445 0.31776115 -0.17616397 -0.20971456 -0.71294725 -0.16337492 0.13660346 0.76398057 0.8753239 -1.205109 -0.2762785 -0.34410658 -0.1017188 -0.71108335 -0.07716136 -0.16356191 0.74117893 -0.67091024 0.61112344 0.1262439 0.013453186 -0.5363121 0.15418391 1.6062777 -0.24493375 0.87594986 -0.5066762 0.9451101 -0.22754094 -0.44781485 1.0903457 0.057061587 1.1175305 -1.0365703 -0.39362156 -0.9620519 0.4289412 0.46640456 -1.0549191 0.18558043 1.4595143 0.30713475 -0.06878104 0.40615624 0.33279872 1.3143603 -0.40548763 -0.26807293 0.13527307 -0.090849586 -1.0786166 -0.14440039 0.27889225 -0.37990618 0.2525585 0.6908553 -0.1737731 -0.050357483 -0.9500677 0.053681627 -0.4750052 0.39501598 -0.77016485
1595 0.5017785 0.5936091 -0.46698478 0.082866065 1.1069151 0.2305363 -0.19879079 0.5347061 0.50344974 -0.8331938 0.22690293 -0.47820514 -0.6041487 0.031267058 0.709566 -0.23160908 -0.12007352 0.59534353 -0.33991373 0.36691707 -0.28360927 -0.650067 0.0061788135 -0.14326881 0.2004494 -0.30081913 -0.86156845 0.192469 -0.23532575 -0.59853625 -0.4818506 0.45703828 -0.30107823 0.7324168 -0.84365505 1.1257252 0.89026415 -0.45871672 -0.8317204 0.31163645 0.5354008 0.90981036 -1.0313756 -0.4549974 -0.12929395 1.0355445 0.75434387 -1.6388013 0.57994914 1.316832 0.78118044 -0.9283255 -0.23407932 -0.6511686 -1.1207134 0.3151896 -0.30004725 0.61677617 -0.37826723 -0.37390205 0.6697741 0.82980406 0.38852707 0.1587199
1687 -0.09400692 0.13348816 -0.37164235 -0.79009527 0.75420976 -0.13108449 0.79792035 -0.09798694 0.16202553 -0.9307527 0.2915835 -0.1923422 -0.6029454 0.03916508 0.40719283 -0.51405746 -0.6063917 1.2839234 -0.723312 0.9509194 -0.53626513 0.21892475 0.14758343 -0.2006162 1.1144929 0.048873674 0.39898443 -0.17784588 0.11623561 0.27426532 -0.95362586 0.122195214 0.5955113 0.42338496 0.16216455 1.2131549 -0.86543435 0.54863775 -0.74545527 -0.21381858 0.87535936 0.5647077 -0.85514915 0.75950944 -0.66062 -0.25899577 1.0033187 -0.23323949 0.65565205 -0.058284923 -0.12536697 0.86869097 -0.81299603 -0.8242943 0.050461102 0.8395346 0.56079555 0.53332007 -0.00054737076 -0.56325734 -0.05210442 -0.4551296 -0.6010683 -0.16979615
667 0.21665873 1.263043 0.9570507 -0.939985 -1.0238726 1.094863 0.17725945 0.62180555 0.7819842 -0.75810206 -0.6312852 -0.4704589 -0.14110716 -0.64087796 -0.20192295 -0.9106203 -0.6990502 1.3659014 -0.7041 -0.048430897 0.57168186 -0.39516988 0.23022333 0.613375 0.39373702 0.38785562 -0.72925067 0.44542235 0.46937338 -0.029613324 -0.9901184 -0.8326995 -0.8509784 0.21779229 0.04218914 0.00021728051 1.1393253 1.1145749 0.19150831 -0.23170274 0.4883934 0.025042305 -0.9431619 -0.8470518 0.60104465 -0.10566566 0.793665 -0.65591645 -0.14914842 1.1542451 -1.0586437 -0.50063074 -0.47044215 0.4135197 0.50813377 0.31824318 0.36784688 0.2563147 0.33197823 0.91571945 0.079511225 1.0640587 -0.86310834 -0.9513187
1335 0.87171745 1.1999617 -0.26605496 -0.33010513 -0.28219405 1.0872482 -0.46190515 0.27015236 0.895463 0.6845181 -0.023222117 0.25495973 -0.11997078 -0.57187533 0.287667 0.36596987 -0.30778512 0.19809693 -0.9026659 0.5811907 0.16093692 -0.4488935 -0.13867016 0.66254574 1.8052783 0.09298017 0.17434748 -0.24992646 0.51593655 -0.27783522 -0.34474644 -0.06991481 0.15419048 -0.10059436 -0.092786506 0.27198136 -0.67725873 0.21339744 0.2656209 -0.61617464 1.0792927 -0.35457298 0.013427643 -1.3732464 0.24949037 0.45337692 0.26461384 0.13412923 0.09015277 0.51445067 -0.41401324 -0.8858015 0.6404957 -0.27773818 -0.7075504 0.208563 0.021964934 0.0028584707 1.0029292 -1.3936785 0.34303865 -0.524252 0.2676802 -0.36999887
640 -0.29099488 1.3315398 -0.41521186 0.6285794 0.7278674 0.3829413 0.38150606 0.6280631 0.78525954 0.98024553 -0.29735342 -1.0669541 0.15516679 0.38214004 -0.5449179 -0.84403634 -0.24385488 0.16233845 0.23335706 0.17899552 -0.62275916 -0.6374267 -0.33731467 0.6382068 0.8798541 0.008161104 -0.55256575 -0.8692877 0.13556828 -0.67848116 -0.31026214 0.16454878 0.051433682 0.56876135 0.06507076 -0.41684282 -0.8819787 -0.30314013 0.13186905 0.1347846 0.77871686 1.0599065 -1.3045683 -0.60506016 0.63835305 -0.17088431 0.986266 -1.15003 -0.361884 0.0041617495 0.47639212 0.1689112 -0.21357381 0.70710266 0.22604254 -0.24001633 -0.18657194 0.08386118 1.033302 -0.24791129 -0.96386385 -0.24823318 -0.18063715 -0.7621006
519 0.5047699 0.7936071 -0.06138734 -0.311016 0.6152628 1.549659 1.563398 -0.12948933 -0.39393958 0.9619235 -0.33505648 0.056573562 0.80587894 -0.36674955 -0.13880718 -0.76620907 -1.0239166 -0.099291146 -1.4515619 0.27258927 0.027858993 -0.29690143 -0.0064170207 0.46163335 0.20633467 -0.38604376 -1.0239377 0.9105105 0.21272635 1.0692288 0.06793608 0.5378544 0.3666837 0.54540056 -0.8460766 0.5381859 -0.99675083 0.407732 -0.13025463 -0.11908829 -1.4442784 1.0334576 -0.10102114 -0.14985797 0.48854733 -1.3095536 1.001394 -0.30855384 -0.11954798 0.105994776 -1.4093325 0.39951968 -0.27301785 -0.25476298 0.1476807 0.8593632 -0.9602168 -0.7981811 0.52465564 0.83377963 -0.65578383 0.373066 -0.6614299 -0.18556637
1910 0.097637884 0.68918324 0.43929225 -0.9904576 0.09300672 0.8030999 2.4470677 0.20476878 0.5468588 0.28908294 -0.046971362 -0.6995711 0.34007877 -0.19349618 -0.1082849 -0.055199787 -0.32098594 0.60037535 -0.86205524 -0.65087706 0.26741594 -0.17410284 0.16937108 0.11423361 0.24885863 0.58688134 -1.1220539 0.6448812 -0.8995853 -0.72111833 -0.08632494 -1.3455318 0.51554906 -0.25576055 -0.58773303 -0.974897 -0.11218957 0.28566197 1.2756125 -0.16361432 -1.2570233 0.59026366 0.014573508 -0.22402944 0.45943922 -0.840862 0.85782015 -0.21724434 -0.9971817 -0.7737283 -1.7484549 0.26937404 -0.698455 0.77074105 -0.4199635 0.6889275 -0.60871685 -1.0322824 1.1864376 0.44051948 -0.6039532 0.022865618 -0.5038952 -0.6243146
2220 0.28603196 0.14432399 -0.68767947 -0.84365124 1.255667 0.391793 0.55726135 0.80741805 -0.8717057 -0.5265756 0.6358522 -0.4469404 -0.605456 -0.43959296 -0.1283342 0.47637933 -0.58055437 -0.009876956 -0.33819532 -0.62005645 -0.81683934 0.5523711 0.4620044 -0.8220279 -0.17790088 0.19129504 -0.14553893 1.6476352 0.5681666 0.07312481 -0.5124909 0.25014535 -0.033131775 0.34813923 0.49154913 -0.43657395 -0.50614244 0.7519375 0.23806824 -0.18953662 0.4866498 0.01660092 0.27899808 0.025109021 -0.55804586 -0.21524617 1.7076226 -1.4200238 -0.088949986 1.2580451 -0.6100094 -0.2935303 -0.12724076 -0.273377 0.5940464 0.88123745 -0.1891664 -1.052828 1.5513254 -0.47885692 0.016689435 0.32446498 -0.048510816 -0.20271325
2334 0.20256972 0.88278043 -0.3345663 -1.1324694 1.105853 0.49975276 1.0189712 0.3172083 -0.43978584 -0.44958377 0.20710886 -0.07729732 -0.7492165 0.162475 -0.07681977 0.8398362 -0.62836355 0.6965266 -1.1631826 1.46535 0.27032068 0.1644898 0.33194727 -0.63770926 -0.21641867 1.194573 -0.72612345 1.1535875 0.4912682 -0.3602867 0.016146837 0.14920409 0.54767746 0.5962322 0.04263644 0.0993498 -0.43823388 0.86845917 0.106448956 0.8265777 0.2456492 -0.07028723 -1.0102217 0.51306134 -1.0219876 -0.15809436 1.4970362 -0.25675446 0.42171866 -1.1435404 0.35458466 1.125652 -0.60916066 -0.50285786 0.062224083 0.3985765 0.14596076 0.22845939 0.7941791 -0.59765 -0.44983172 0.42832446 0.05752476 -1.3527162
538 0.3065885 0.6093394 -0.81151384 -0.05715115 0.81092715 0.33273178 1.4485713 1.2928463 -0.16422583 -0.67781216 -0.79413265 -0.738444 -0.9829474 -1.0108196 -0.1867408 0.50198054 -1.1226792 -0.23425902 -0.06307364 0.2330652 -0.030716283 -0.2107326 0.9736347 -0.4655125 -0.17109448 -0.36028385 0.17074461 0.36581764 -0.97118485 -0.12899655 0.10607184 -0.9933768 0.16407217 0.8487531 0.10650107 -0.22436234 0.21448286 1.0745081 0.007958616 0.66402423 0.466556 0.13589278 0.7202562 0.26424605 -0.59313035 -0.45889387 1.0695282 0.069138505 0.4019 0.98194706 0.036240608 -0.33011645 -0.12870744 0.26360145 -0.38125953 0.5441286 -0.32260844 -0.943616 0.1779035 -0.5571004 -0.17977452 -1.1655642 -0.13080817 0.13634221
772 0.64525115 -0.056677226 -0.18210457 -0.93422854 8.059282e-05 0.88505286 1.4423128 0.9792844 0.52257115 0.9239016 -0.6578624 -0.17797215 0.43723148 -0.30839124 0.06967195 0.2616261 -0.13736703 0.33929726 -0.34526527 0.21142003 0.29766017 -0.48890623 0.86730134 0.26555634 1.1411062 0.13383868 -0.5983541 0.21716979 -0.26590914 -0.22791134 0.65763366 -0.14463013 0.11577166 -0.5701498 -0.42109948 -0.79418224 0.23552701 -0.97786945 -0.2491645 0.51809764 -0.72876084 0.84318984 -0.7593095 0.077457584 0.928606 1.1549482 0.5735675 0.32603022 1.2779236 0.9624587 -1.4349962 0.7175796 -0.22734545 0.53271407 -0.65825754 -0.44961143 0.30355033 -0.6100471 0.23339434 -0.46536958 -0.39699617 -0.4221903 -1.1432613 0.0956758
562 -0.17582312 0.59318155 -0.6924182 -1.6813371 0.036485914 -0.22887267 0.1715272 -0.10332801 -0.025873203 0.22581519 -0.009827758 -0.6117425 0.1252849 0.18730147 0.49324873 0.92470384 -0.73222435 1.211965 0.14104995 0.07497724 -0.37494528 -0.124890864 -0.8402031 -0.17795213 0.1970268 0.64225394 0.21686532 0.7238843 0.41327736 1.057068 -0.46740317 0.22450767 0.81949717 0.47634026 -0.33933708 0.71452904 0.36308384 0.43259275 0.029884286 1.1155653 -0.20954397 0.48414293 -0.48924407 -1.0883753 0.39771035 -0.82721657 0.85767096 -0.29335728 0.34338316 -0.47021958 -0.49729964 0.32502836 -0.12339039 1.3451122 0.5161461 0.07767042 0.91921085 -0.4431733 0.08824201 -0.6509561 1.4364823 0.68039876 -0.06249276 0.38115177
145 -0.33955902 0.47240436 -0.6845686 0.17887217 0.7174372 -0.24662216 0.7273884 0.18873635 -0.25889492 0.17910852 -0.44884795 -0.37170836 -1.1539422 -0.24683431 -0.26850617 1.4288108 -1.2677151 0.6047216 -0.4078 0.35974008 -0.4484857 0.25728536 -0.18597917 -0.34117043 0.434794 0.9279092 -0.035954524 0.6174088 0.7847833 -0.5440579 0.5857979 0.52798486 0.20335558 -0.038868748 -0.18846658 0.17434005 0.5610862 0.4875878 0.25999415 0.79908395 -0.35438573 0.6025001 0.09671666 0.29001924 -1.0968249 0.068158254 1.2328475 -0.07275921 0.8037197 -0.05628283 -0.19806506 -1.108281 -0.24099241 0.5892237 -0.9627384 0.9823281 -1.1688685 0.28966296 0.91691667 0.07384784 -0.025154142 0.46022752 -0.12385555 0.43219188
342 -0.114154555 0.9338195 0.7586285 -0.20047443 0.18907224 0.9614372 1.0893695 0.9684965 0.53198814 0.1807779 -0.44472006 -0.5686533 -0.78417933 0.84896785 -0.11371168 -0.2665872 -0.35041124 0.6183972 -0.7283919 0.8651704 -0.12486165 0.8523878 0.045221817 0.66953444 0.9651586 -0.17256284 0.54498357 1.0689015 0.55201524 0.15419134 0.476373 -1.4448155 -0.005212875 -1.1560513 -0.5829694 -1.4865143 0.8074675 -0.390543 0.2066992 0.28932253 0.41364256 0.54879326 0.69982624 0.7497993 0.016476694 -0.7090269 0.7257878 -1.2242192 1.3794158 1.0031074 -0.64927506 1.0721942 -0.20626819 0.42578763 -0.1416238 -0.24348629 0.6233102 -0.73968005 0.98908126 -0.033661895 -0.058915764 0.7672315 -1.0475882 -0.7036372
2423 0.9587027 0.9323216 0.38435102 0.65562665 0.72070867 0.43316332 0.31445134 -0.294744 0.3395626 0.22343417 -0.94107443 -0.70539874 -0.60391897 -0.6265038 0.24424636 -0.3999677 -1.1224815 -0.10092188 0.07635914 -1.3111104 0.13143569 -0.8670932 -0.39619258 0.4500458 0.19862683 -0.7178052 -0.41660386 0.33752427 -0.9052497 -0.89107364 -0.13234068 -0.5638626 0.048405547 -0.045658886 -0.7224934 0.53637767 0.031072872 0.8502615 -0.07152386 -0.24401683 -0.3144483 0.5489844 -0.10373944 -0.37578887 -0.041352022 -0.39225313 -0.51580936 -0.88406956 0.49272838 -0.16742176 -1.0889151 -0.98772484 0.9311687 -0.110511445 -0.798621 0.077415146 0.5791052 -0.1923097 -0.13669755 0.09617216 0.8163492 0.12650767 0.19720463 -0.7161286
1218 -0.333742 0.91581404 -0.37353918 -0.4234099 1.0592037 -0.35331565 1.1331797 0.9189747 -0.25550112 0.73888177 -0.2465517 -0.030632634 -1.5948858 0.02274137 -0.13393997 0.28656632 -0.8573741 0.36277786 -0.04622668 1.054974 0.07767753 -0.068040065 0.3368002 0.3387972 0.5741024 0.85745645 -0.047932837 0.68907106 -0.0887621 -0.5687201 -0.01825617 -0.045050014 0.7765963 0.04963772 -0.13210899 0.16360259 -0.082769446 0.385779 0.32904312 0.36696157 -0.46427605 -0.22923376 0.28244016 0.82747936 -0.5760383 -0.4627967 1.2777712 -0.4081166 0.5115563 -0.83531433 -0.03959729 -0.6513234 -1.07036 0.5001142 -0.92775595 0.9545271 -1.5250069 0.26524752 0.63704896 -0.07615963 -0.17896959 0.5582855 -0.6342073 0.37233993
345 0.75760394 2.1166952 -0.05817274 -0.5547185 -0.05658016 0.39163765 0.111784965 -0.1835742 1.2095191 -0.52758795 -0.8645723 0.049769945 0.41888356 -0.7118821 -0.6747227 -0.5038199 -0.7660511 -0.17829585 0.3210086 -0.24491426 0.6820039 -0.4812341 0.2687931 -0.05408431 -0.23379134 0.78502655 -0.43564895 0.25151896 0.8185625 1.1762741 -0.067565225 -0.15772402 0.33575836 0.16882303 -0.53338367 0.4534323 -0.928051 0.50887066 -0.40073526 -0.5200038 -0.9671397 0.13925155 -0.22381432 0.20342968 0.328669 -0.10243106 0.542095 -0.07992635 0.20243253 0.52219653 -1.631857 0.10267494 -0.21719976 -0.36685017 0.5193583 0.2497717 0.28891164 -0.24347216 1.0257864 0.15429014 0.25268003 0.3805598 -0.16026968 0.13861597
687 0.13997886 0.62205607 0.024745215 -0.18878482 0.085574575 0.5813349 1.0589768 0.34365833 0.9557414 -0.5915541 -1.0405974 0.91167486 0.46739823 0.41850182 0.14044525 -0.68399584 0.3298645 0.20322926 0.43828687 -0.35992247 0.56646293 -0.41430458 0.2080032 0.44663993 -0.47093597 0.22637364 0.3994646 -0.30239695 0.19680013 0.35583583 0.058003724 -1.2109921 -0.18573712 0.9569165 -1.8622874 -0.7018363 -0.21139346 -0.058777522 0.29508516 -0.15870541 -0.4323956 0.8928133 -0.33800724 -0.37907338 -0.19349034 -0.84519833 0.9619271 -0.4307415 0.5095121 0.89086854 -1.083087 -0.51539636 -1.0877477 0.5399607 -1.1930472 -0.33029366 -0.12793143 -0.26383317 1.0014266 0.6116123 1.3736438 -0.1811353 -0.034865715 0.59151936
738 0.3261475 0.1926468 0.1327628 -0.75846463 0.016698465 -0.83065885 0.012858334 -0.11612634 0.46376055 0.049563058 0.027489034 0.07087356 -0.93106633 0.1406654 0.18889934 -0.25034627 -0.9892479 1.6413835 -0.036024068 -0.65066755 -0.75939834 0.3061768 0.39503628 -0.55384904 0.27424705 0.47393975 0.5277939 -0.31835663 0.19102126 0.7824374 -0.55485576 0.02709018 0.84456635 0.56584126 -0.31410748 1.0359073 -0.5666058 0.5128042 -0.026046174 0.4984353 -0.035500564 1.7809023 -0.43883175 0.44225147 0.25465953 -0.3467076 1.185364 -0.07224517 0.70912874 0.32053763 -0.54695565 0.10418916 -0.44013777 0.55791974 0.07359723 0.6937907 1.2019717 -0.612556 -0.49651825 -1.2298307 0.59346694 0.17121257 0.15027139 -0.29124746
15 1.7671949 0.39545572 -0.64118665 -0.73730534 0.5787585 0.235302 0.9689382 0.3877827 0.1926605 -0.77795887 -1.7547814 -0.07652403 -0.760045 -0.95086807 -0.7975768 -0.2935521 -0.35713112 -0.3082471 0.11036752 -0.12723696 -0.23823833 -0.54037046 0.5252504 -0.039181616 0.4237067 0.04668384 0.6269622 -0.09745375 -0.6512882 -1.1478251 -0.36041057 -0.5347337 -0.18822281 0.30390683 -0.49775258 0.037321627 -0.28469893 0.82035965 0.46329588 0.2523384 0.70606667 0.32803756 0.957545 -0.043109134 0.33621424 0.32591408 0.38393456 0.02768018 0.2675238 0.5655499 0.43115553 -0.56592846 -0.60111696 1.1985215 -1.0439286 0.0054149367 -0.6683138 -0.8521719 -1.1595427 -0.33646205 0.47653913 -0.5113279 -0.9280568 0.022040619
1287 -0.3094908 0.9339862 -0.12544067 -0.5162607 0.939676 0.5672779 0.94304156 -0.359408 0.31892902 -0.94627374 0.32099178 0.1755133 -0.586824 -0.21059242 0.8540469 0.32771584 -0.47340357 0.8228812 0.06377406 -0.4103032 0.61583155 -0.8004594 0.5852816 0.6075902 -0.040255968 0.51572984 -0.34166318 -0.6354195 -0.47856438 0.33768898 0.5257804 -0.5012395 0.39091656 0.9074138 0.3211327 -0.4029738 -0.76111126 0.76170546 -0.5781767 -0.115463845 -0.03216925 0.39255437 0.50494164 0.89533085 0.905197 1.0331751 -0.032042366 -0.9142156 0.6845646 0.017426468 -1.5966694 -0.44879773 -0.215371 0.44835064 0.676168 0.81518984 0.6728806 -0.7502276 0.52881694 -0.21322066 0.8917181 -0.9055517 -1.6009907 -0.07808142
735 0.63835347 0.68977 -0.5816831 -1.0036533 -0.6309329 0.55571127 0.022398368 0.93058574 0.13504459 -1.063995 -0.16158575 -0.13502303 -0.33317116 -0.6030842 -0.2150425 -0.35510617 -0.2677685 0.8584291 -0.22608495 0.8539882 -0.22304633 -0.658567 0.35608932 -0.49564272 -0.7589574 0.24700782 -0.38582206 -0.12989937 -0.4723002 0.2778937 1.9555587 -0.009347006 0.9731932 -1.2594693 0.5267573 -0.5107144 0.8278028 0.6516006 1.302532 0.8436381 0.9221891 1.4827428 -0.090722054 -0.63174653 0.082202524 0.54745716 1.4076031 -1.2131269 1.12078 -1.2492703 -0.5667704 -1.2641279 0.36563605 0.1246179 0.36783573 -0.027185777 -0.34452388 0.5203819 0.24266754 0.45505488 1.2946066 0.7418702 -1.0551524 -0.072488226
1079 0.80071306 0.50018114 0.07838362 -0.36675918 0.79033387 0.76041615 1.1012752 -0.48613742 0.59560996 -0.06305741 0.05755937 0.08268945 0.058810614 -0.34719315 -0.5593851 0.043700505 0.011513833 0.26967338 0.13976058 0.029036406 0.58619314 -1.1450499 -0.8869394 -0.7078799 0.3869742 -0.30535555 -0.38249692 0.006368863 0.16404608 -0.037949953 0.92634374 -1.7028357 -0.29840672 -0.03174885 -0.61307144 -0.5153529 -0.09548203 0.26487324 -0.48497173 0.51505935 0.16277881 -0.061268758 -0.38180366 0.41580027 0.35539788 -0.13285671 0.8692502 -0.37281084 -0.21654749 -0.026368182 -1.059376 -1.1153944 -0.2293816 -0.76588273 0.13137703 0.13209206 0.31771433 -0.04630602 1.1706055 0.25255996 0.5828743 0.36947063 -0.08218605 -0.4668334
1003 -0.708018 1.4174242 -0.4166042 0.7393939 1.3857409 0.35434356 0.14340162 0.7652491 1.0343553 0.36185634 -0.60441667 -1.392661 0.42184117 0.40477255 -1.0030168 -1.2560316 -0.43068916 -0.037737925 -0.6293369 -0.3176939 -0.70989364 -1.1131682 -0.6891431 0.2829911 0.48875728 -0.36082435 0.027561126 0.1027366 -0.370921 0.14358653 0.13070126 0.20740032 0.001342029 -0.24667343 -0.28073654 0.04658927 -0.8149593 -0.26912037 0.56691986 0.46898657 -0.25885966 1.4663079 -0.0156097775 -0.15012166 -0.15512854 -0.8865747 1.2130483 -1.2856991 0.52543545 -0.063697964 0.45437458 0.14177194 -0.470688 0.85891557 0.093567014 0.13382727 0.121798456 -0.32746616 0.680167 -0.5594435 -0.56940943 0.1799735 -0.12098393 -1.1131756
219 0.011569154 0.8892426 -0.70141256 -0.70673776 0.3934802 -0.2915061 0.7700169 1.1129799 -0.81308365 -0.08201903 -0.7706879 -0.6230762 -0.6160912 0.0099214865 0.4505587 1.23745 -0.21864174 0.3875969 0.5021085 0.7352702 -0.22196642 0.017647065 0.6041344 -0.32181534 -0.38822624 0.21702449 0.45766762 0.8022251 -0.34323275 -0.10077509 0.04196685 -0.47779256 0.14982258 0.4467877 -0.1466664 -0.09035274 -0.06635628 0.44934574 -0.4161391 0.045585815 0.5645898 0.11916846 0.2149008 -0.21663888 -0.7097623 -0.58437705 1.7673137 -0.3421467 0.27800503 1.0026555 -0.12834768 -0.3188172 -0.0072264816 -0.33483043 -0.3206816 0.30486852 -0.1631241 0.0012727386 0.99569637 0.038971055 -0.86437 -0.8607792 -0.09534445 -0.42679718
479 -0.08071743 1.0259646 0.4738713 -1.3143533 0.2688844 -0.010918237 -0.3729308 0.36955628 0.08453572 0.02063035 0.058461353 -0.07570463 0.11999374 0.14536019 0.71144694 0.7381768 0.08078743 -0.6019341 -0.20220417 0.61069846 -0.3837065 -0.6615316 0.7665821 0.20964222 0.5777347 -0.77472097 -0.6323609 1.1218736 0.035482086 -0.060826194 -0.58296216 0.09506023 0.5895111 -0.6660632 -0.14455308 0.46704134 0.30336595 0.4167372 -0.31705818 -0.15673633 0.4368655 1.2446789 -0.26194617 -0.83139616 -0.36313403 0.2722394 -0.342282 -0.8637798 -0.23563771 -0.5472349 -0.38353518 0.10465709 -0.28206754 0.108603045 -0.79328066 0.19378816 0.6639287 -0.39404482 -0.4678114 -1.020483 0.43156603 -0.79411805 -0.8274758 -0.17147367
350 -0.39262468 0.6916794 0.34747517 -0.8524327 0.4237648 0.60193324 0.41268706 -0.2513468 -1.2903783 0.06455827 0.60786265 0.53903717 0.61960506 -0.3882185 0.0998911 -0.22613153 0.24765839 1.1448678 0.04845318 0.26064646 -0.0093187075 -1.4118747 -0.97042465 0.11765139 1.4854982 0.14163657 -0.09312635 -0.01252984 0.14578545 0.09854528 -0.041453782 -1.0972601 0.79901546 0.6147852 -0.6298074 -0.60854775 0.9048474 0.5718897 -0.14163235 0.23254868 0.531455 0.91355664 0.031310033 -0.27098313 0.6382764 -0.50650865 1.2346165 -0.40083882 0.3578931 -0.21987462 -0.10491208 -0.82239455 0.588056 0.107450075 -0.7833248 1.586156 -0.082263485 -0.16651472 -0.19654223 -0.17287777 0.47181213 -0.79820746 -0.47883242 0.80652666
1854 1.0525234 1.3435682 0.60765404 -0.96086574 0.5949964 -0.5034643 -0.3040157 1.220521 -0.7182766 0.8139175 -1.109982 -0.75673646 -0.40646806 -0.29172432 1.1881697 -0.2820517 -0.419294 1.1388756 -0.35520956 -0.08288085 -0.74749875 -0.48937488 0.020745337 0.19356349 0.40447444 -0.118800424 -0.67183185 -0.2535245 1.0730252 -0.089617625 0.69680655 -0.8992131 1.1220213 -0.6597129 -1.1272806 0.17939726 -0.14908029 0.43665457 -0.6117327 0.08348692 0.7255028 1.3251339 0.14779681 -0.49340641 0.7663334 0.79080063 0.48023665 0.2019672 -0.8055188 0.094382234 0.67866284 -1.2229557 0.45377377 0.34709933 -0.51054543 0.66456443 0.26639807 -0.57626927 0.25699958 0.2909602 -0.5011818 0.6362581 -0.69377583 -0.80592936
1123 0.38258398 1.0789229 -0.9004594 -0.52081275 0.49247316 -0.18147515 -0.862225 0.039040577 0.18990381 -0.21030815 -1.203654 -0.5544911 0.68916285 0.4895042 1.1103671 0.30966893 0.71014833 1.0415913 0.36160642 -0.28252184 0.11372186 -1.6566616 1.0452486 0.44611 0.13616168 -0.080961734 0.23870273 0.11304415 0.76073056 -0.0026190963 1.1061791 -0.053992674 1.8570523 0.28407523 -0.83891386 0.31601238 0.103109494 0.46652487 -0.6951743 -0.7062283 -0.37448013 1.1144965 -0.12288748 0.17430481 0.39678174 0.4572915 0.10784389 -0.4111605 -0.398763 -0.7777912 0.44916883 -0.313647 0.20181881 0.4638351 -1.1744313 -0.029577915 0.05735375 -0.4924049 0.545159 -0.43470743 0.7102684 -0.1682665 -0.8116024 -0.74087834
1112 -0.24669693 0.38025862 -0.14824975 -0.23294064 0.18246935 0.6930739 -0.50282073 1.028745 1.1182134 0.26611254 -0.52097285 0.9280738 -0.7314692 -0.37289757 -0.31454188 0.49255463 -0.5591478 1.0773436 -0.72596765 -0.51401573 0.59431183 -1.2988677 0.17940801 0.59863466 1.1865494 0.39597064 -0.8097352 0.8514852 0.30938652 -0.8505171 0.18046452 -0.34535104 0.51969314 -0.42091238 0.1635074 -1.0161142 -0.070521116 0.4100418 0.61096007 -0.58427227 -0.5153653 -0.14924939 0.5286453 -0.9752432 -0.19067898 0.81761885 0.41266677 -0.8292664 -0.525394 0.24719962 -0.45630595 -0.53759056 0.47768414 -0.48085317 -0.20707224 -0.27097505 0.68087167 -0.22688231 0.08217458 0.085401654 1.3953236 -0.03989365 0.61167043 0.71828616
2275 -0.10647225 1.2083977 1.0941943 -0.8593678 -0.043727417 0.66983676 0.6202022 1.1262635 0.8342861 -0.6538825 -0.5962272 -0.25924477 -0.7448096 -0.4256134 -1.7342868 -0.30281034 0.24446882 1.4300616 -0.97065365 0.676473 -1.4209785 -0.11051254 -0.65144515 1.2690896 -0.30329084 -0.4619377 -0.74262905 1.3865144 0.700174 -0.68551147 -0.92423254 -0.5470938 0.8331152 0.1363617 0.38335758 -0.01833791 -0.5750389 1.4424345 -0.28529215 -0.6143837 -0.34181625 -0.390556 -0.025940917 -0.3793355 0.16433541 -0.7341863 1.3155854 -1.438444 -0.3669591 -0.8567448 -0.1461426 -0.6523974 0.02292574 -1.0339673 0.5743982 0.6796027 0.3993482 -0.17843528 1.2976702 0.04159504 1.1907609 1.4315522 -0.13990487 -0.2655304
1174 0.12253101 0.425882 0.1670585 -0.72369504 1.0870786 0.49480206 -0.9322374 0.31558734 0.71397865 0.5581905 -0.009777652 -0.537484 -0.23849261 0.4336731 -0.065230295 0.26243603 -0.18790334 0.79391134 -0.44761783 1.5100523 -0.88375986 -0.8834745 -0.26428154 -0.9047125 0.9893851 -0.6859249 -1.5489124 0.49689567 -1.5535345 0.1889726 -0.34637624 0.33487475 0.86899716 -0.17276327 0.84467226 0.010713419 0.6281251 -0.13551983 0.911769 1.0097715 -0.05476238 -0.6445095 -0.99752957 -0.060563058 -0.64161414 0.47415277 0.45924577 -1.2819071 -0.47266355 0.03695407 -0.514868 0.3273945 -0.10594201 0.8169621 -0.47861633 0.4595873 0.2864809 -0.77360445 0.90669554 -0.1245738 0.38741872 -0.16743104 -0.30838683 -0.23890762
995 0.20654887 1.5463014 -0.43712804 -0.49244052 1.6588407 0.45078686 0.5909048 1.7791339 0.03642162 -0.6887177 0.36866945 -0.07047893 -0.26782835 0.030418636 0.79170084 0.6887011 -0.11643382 0.6723768 -0.030001411 0.10398863 -1.1790246 -0.10732525 0.21201536 -0.49345142 0.52354074 0.49880844 -0.2529145 0.1809114 1.2884353 0.26546606 -0.46147746 0.6279278 0.33631837 0.36828747 -0.3060849 0.58600104 0.47923556 0.63983756 0.1608169 -0.6435322 0.36188564 -0.8481904 -0.40488452 -0.58556336 -0.7481239 0.056402467 1.4955477 -0.5091832 -0.38879964 0.23265809 -0.030685289 0.00871303 -0.66808933 -0.39021656 0.9262798 1.0774643 -0.3066361 -0.111604385 0.7533122 -0.2590679 -0.28616992 -0.08662724 -0.034050126 -0.8181495
1718 -0.07646726 0.60015404 -0.6847373 -0.19147015 0.9986207 0.8129021 0.78974617 -0.9057406 0.21623564 -0.30106157 0.2786528 0.50560564 0.35336554 -0.1781614 -0.3326086 0.360029 0.6358941 0.07403375 -0.044578753 -0.18947162 0.40678966 -0.81870806 -0.38992763 -0.14947902 0.4742957 0.12142519 -0.45100012 0.04708573 -0.65731615 -0.6646921 0.6295877 -1.630148 -0.56169367 0.5178299 -0.7939974 -0.3548154 -0.022480784 0.34553546 0.34227538 0.11737118 0.55049926 -0.12515251 0.30516598 0.15536879 0.1681301 -0.026734253 1.1559106 -0.12928921 0.3402394 0.3564857 -1.3025168 -0.89160043 -0.005339837 -0.1053223 -0.044722836 0.98849213 0.8250019 -0.6508748 0.55686736 0.13558063 0.7958019 0.81467825 -0.9305179 -0.075883344
636 0.3763387 0.069501914 -0.16053733 -0.4121997 0.33249742 -0.05841056 0.603704 -0.02817231 -0.46385396 0.27562934 0.22077039 -0.7390707 -1.2731767 0.2001682 0.19989362 0.10828025 -1.5519876 2.094925 0.116921544 0.69476724 -1.3657517 1.5767481 -0.0495855 -0.42081684 0.11118756 0.4139732 -0.04767574 0.060758654 -0.22881676 -0.7122281 0.12547697 0.41163856 0.2050687 0.35159263 -0.29485476 -0.6333451 -0.24692628 0.42631322 -0.1800344 0.7074963 -0.31920308 0.35864735 -0.9710394 0.1883529 -0.0018199474 -0.40184197 1.0636615 -0.48310098 0.05049243 0.7579553 -0.77535075 -1.1394147 -0.53636765 0.65902644 -0.49333307 -0.16112688 0.11736657 0.49768037 -0.2729305 -0.1034306 0.43011892 0.67297345 -0.6134848 0.47032043
1234 0.5409402 1.4831922 -0.40225977 0.056900408 0.70067513 1.1594368 0.33753735 0.27091452 0.9010836 -0.17366198 0.2775348 0.70269614 -0.47144923 0.84831685 -0.5867437 -0.99131316 -1.3948463 1.2890702 -0.9691648 -0.1642173 -0.74130684 0.16713437 0.14361104 -0.29978448 0.19743644 -0.6705668 -0.42103338 1.3536297 -1.4900422 -0.46170974 0.1273256 0.8738729 0.32983664 0.30865258 -0.26230252 -0.30557045 0.45082036 -0.3964741 0.9769712 0.9895182 0.70319915 0.8548935 0.43095502 0.7116698 0.53486323 1.3766286 0.0501447 -0.14992201 0.20021631 -0.12851778 0.18794818 0.09061868 -0.67830306 -0.00623171 -0.23811845 0.11805594 -0.45405993 -0.84431314 0.820465 -0.95048344 -0.5618641 0.9912913 -0.15016067 -0.19358309
1282 0.53229904 -0.6103994 0.42199904 -0.13339253 1.1296436 0.42939553 0.25773087 0.2050917 1.1391063 0.32807198 0.78224 -0.18574451 -0.6524263 1.1442451 0.010449879 -0.08533509 -0.64180374 0.5286858 -0.76610327 1.2341303 0.12376945 -0.59904367 0.12879744 0.22762908 0.762464 0.6072964 -0.5963351 1.2316751 -0.16324107 0.8540322 1.4807729 -0.22280245 0.39579177 -1.1183338 0.080180146 0.35303918 0.250302 1.3062983 -0.24167064 0.114220746 0.5176997 0.68973166 -1.4056536 -1.7834454 0.20090973 -0.53160703 0.004482501 -0.48636684 -0.0015945898 -1.046693 -1.0269734 -0.3434517 0.07039057 0.14588669 -0.059490066 1.9309723 -0.2690242 -0.26872626 1.049003 -0.23366837 0.09885919 0.32836363 -1.8356367 -0.87299246
1288 0.22043929 0.45129567 0.14157496 -0.78604263 0.15116042 0.6851391 0.73466855 0.2340805 0.018063387 -0.6223901 -0.25758666 0.57905257 -0.43204984 -0.28244865 0.78383017 0.18485545 -0.5766277 0.8064626 -0.21347655 0.61544406 1.0012685 -0.5352845 -0.24805644 -0.22194998 0.6136856 0.89276725 0.037911445 -0.5990021 -0.61505955 0.42880437 0.9085298 -0.44487593 0.3545526 0.44883564 0.49460462 -0.8353962 -0.68175656 0.57228214 -0.86121345 -0.68228525 -0.22674115 0.76560694 0.39056474 0.7508637 1.0477308 0.089451924 0.1499199 -0.6005361 0.68469715 -0.20004074 -1.7514952 -0.44091484 0.27096447 0.15497427 0.970401 0.5129243 0.34613708 -0.77316564 0.32739 -0.86389154 0.740443 -0.62933606 -1.2980005 -0.20993997
983 0.34558606 0.70581067 -0.69760454 -0.6716384 0.47403502 1.0492045 -1.0174446 0.7758724 -0.08766647 0.4620262 -0.040039808 -1.19465 -0.79741365 -0.23033719 -0.9900418 0.21707931 -0.9037673 1.1188219 -1.211223 -0.21352218 -0.27343524 -0.7089658 -0.7062596 1.160798 0.53295845 1.0759703 -0.662767 0.7162976 0.32132703 -0.6998065 1.1332359 -0.71169406 0.9135819 -0.07083337 0.28160986 -0.040802035 -0.09465261 0.08396508 -0.19145307 0.6599902 0.71869725 0.4459242 -0.0469484 -1.6201049 0.947565 -0.4611824 -0.5696558 -1.0143765 -0.54863304 -0.2562923 0.32985312 -0.30421755 0.1453226 0.2935074 0.14667428 -0.3969818 -0.35750732 -1.0029149 0.7531874 -0.7256354 0.7959485 0.8319821 -0.81747586 -0.062155943
583 1.4155856 0.6233954 -0.18223895 -0.7613416 0.00877476 0.30323043 -0.3100324 -0.85938054 1.0308559 -1.3215373 -0.5766508 -0.013441757 0.08989707 0.26886114 0.055111594 -0.84323645 -0.6170801 1.0174713 -0.76541024 -0.7148392 -0.7135841 -0.829181 0.6869773 0.2672178 0.7490408 -0.51210916 1.2076819 1.4431255 0.7784682 -0.11046037 0.027936405 -0.5387502 1.4994593 -0.4135132 0.93900716 -0.42251605 0.23163633 -0.4945364 0.26530325 0.01604366 0.3447205 0.62354064 0.89084375 0.08290086 -0.73193127 0.082624 0.50996685 -0.42252392 0.049686193 -0.32552287 -0.26260784 -0.11955801 -0.37299395 0.13044582 0.15956508 0.8688617 -0.55879384 0.618999 0.6710427 -0.45214018 0.08736349 -0.28106984 -0.32312524 -0.87219524
643 1.2785348 0.69132894 -0.3874215 -1.5116544 0.1135676 0.63487166 -0.4382689 -0.3231653 1.7524931 -0.93411493 0.036426857 0.48521155 -0.5226942 0.13818723 -0.1316707 -0.7801044 0.096578784 -0.07853932 -0.8352661 -0.6432524 -0.6124844 -0.930514 0.26335555 0.21819474 0.5604889 0.007196345 0.81602585 1.5934889 0.42886943 0.19144541 0.6740537 -0.43633538 1.5461215 -0.060968526 0.97289133 -0.44984874 1.2138429 0.23311935 0.7395041 0.0016405461 0.59882545 0.5728104 0.8591269 0.46137485 -0.56486344 0.50878644 0.74204594 -0.64349836 0.4664638 -0.5749292 -0.22376023 0.45004597 -0.487385 -0.123216964 -0.0116333 0.6438819 -0.78853196 0.7041795 1.270356 -0.31005797 0.16432478 0.20529886 -0.68143016 -0.6177173
668 1.0249847 1.4999237 -0.44898185 -0.8724714 0.29076222 1.0816746 0.76289237 -1.2163371 0.7736392 -0.70943224 -0.9588754 0.04602909 0.35211194 0.17304279 -0.6234124 0.30432945 0.13563298 0.50355643 0.0286215 -0.02639805 1.1158808 -0.4815724 -0.45192242 -0.8246841 0.12021674 0.029916774 -0.8290596 0.5389825 0.62372476 0.3186603 0.49814907 -1.4523531 -0.21386753 0.64985734 -0.9182921 -0.94997483 -0.38736817 0.49181053 -0.20651227 0.1082127 0.08265644 -0.13456465 0.6105774 -0.09466455 0.092575505 -0.15117048 0.996509 -0.010800005 0.120335676 0.3181639 -1.4959553 -0.94548494 -0.13328849 -1.0579954 0.17794928 -0.19080003 -0.14433752 0.15192753 0.8813804 -0.15978412 0.7863742 0.06221531 -0.361446 0.21301313
1241 1.0197853 0.2089358 -0.66693914 -1.1740329 0.10840091 0.9161975 0.8767259 0.6703557 0.54917514 0.82541597 -0.582512 -0.66504 0.59829986 -0.3809037 0.07805922 0.21754606 -0.43184873 0.6282784 -0.084217325 0.11628537 0.62716454 -0.68341726 1.4223056 0.0015824295 1.2625221 -0.83762705 0.032429338 0.31924942 0.39325047 -0.09026944 -0.13486065 0.3684497 -0.37706822 -0.12941204 -0.61712426 -1.3018193 -0.087947585 -0.6142697 -0.20488377 -0.27163127 -0.08328216 0.8409968 -0.14679375 0.06375867 -0.06771613 1.3027601 0.3217442 -0.1701077 0.9852501 0.79492164 -1.2266982 0.73281336 -0.21152422 0.09990197 -1.0225079 -0.16683331 0.3111013 -0.27611428 0.5656361 -0.3626119 -0.5260312 0.17928737 -0.45798448 0.71508145
1463 1.2058132 0.91092795 -0.7370817 -0.15896584 -0.1644874 0.5881115 0.75318235 0.23779492 0.43241736 0.20001824 -0.6533141 1.5614039 -0.108997725 -0.41343042 0.46992728 0.3484352 -0.9092479 0.5698712 -0.5512529 -0.70745224 -0.16016686 -0.6323122 0.15825576 0.49109495 1.3879228 -0.021437913 -1.0805441 0.3875331 0.3555362 -0.31805632 0.6061622 0.2682836 0.19437619 -0.07003204 0.5038127 -1.0356396 0.42701522 0.039859895 -0.17153108 0.059522495 0.03205521 -0.08354819 -0.3251654 -1.2636718 0.3281677 0.21303019 -0.16856827 0.36259365 0.5519793 0.93431544 -1.0324395 -0.9169999 0.9517751 -0.33985496 -0.050564885 0.14661656 0.7911375 -0.12963149 0.775802 -1.1467227 -0.3569212 -0.08946141 -0.27970213 -0.12378576
1512 0.13069278 1.1334466 -0.27309793 -0.5088117 -0.20469423 0.79813933 -0.4646067 0.71098727 1.569741 0.66134256 -0.7807231 0.99471164 -0.022514775 -0.56238943 0.11845162 0.29106036 -1.3573989 0.8292973 -0.72668785 0.101913296 0.060384803 -0.7413666 0.077707715 0.50225717 1.1631322 -0.41864234 -0.7671292 0.43609798 0.78304046 0.002504702 0.10459591 0.34787703 -0.12940522 -0.119549476 0.6724996 -0.48789132 0.036371447 0.59628177 0.15258776 -0.079491556 -0.30343366 -0.60616624 -0.11685958 -1.3317126 0.6065529 0.8438831 0.5708186 0.5877738 0.42309755 0.53880906 -0.7332881 -0.66476107 1.1975578 -0.20698465 0.10378185 -0.14503561 0.34836966 -0.30279654 0.65201753 -0.6896626 0.1842505 -0.82732123 0.2194139 -0.25120756
539 0.4340031 1.1527115 -0.90816116 -0.91023225 0.8358418 -0.16105345 -1.0194156 -0.42703202 0.37510112 -0.41104257 -1.7274712 -0.64523363 0.9786029 0.062459465 0.40304774 0.49685997 0.4330655 1.0741931 -0.58370394 -0.13219075 -0.36461055 -0.9073016 0.2392934 0.17232339 -0.3376529 0.12884483 0.77617383 0.25490624 1.0361172 0.42372105 1.7570871 0.52381945 1.475628 0.5181142 0.11679459 -0.2187339 -0.31821725 0.99659526 -0.41185272 -0.40376723 -0.046479583 1.4844507 -0.5064186 -0.24428709 1.4082431 0.27274236 0.2618313 -1.0463167 0.090808325 -0.85458404 -0.37570226 0.46253633 -0.15061103 -0.049068213 -0.62025046 -0.47792494 -0.0319239 -0.47207803 0.33293042 -0.01690733 0.6945865 0.0985523 -1.230036 -0.9941217
477 -0.06990667 0.8396433 0.0030912769 -0.4518585 -0.14867805 -0.1939339 0.7290344 0.2445156 0.20583084 -0.19231449 0.26403677 1.0208772 0.058502402 0.2909674 0.18031254 -0.5263545 -0.55239594 0.76105857 -0.08530295 0.002508828 -0.66548365 0.08417989 -0.40783995 -0.0906831 0.36552626 -0.045316905 -0.08530907 -0.46104655 -0.5036829 -0.2830171 0.17901608 -0.034063105 0.96011674 0.6610822 -0.4740666 -0.010628363 0.3752221 0.3881561 -0.021812294 0.50974417 -0.39407542 0.75657654 0.10176286 0.18991409 -0.82114154 -0.6958519 1.0932564 -0.12221642 -0.53008586 0.41148674 -0.53386986 -0.34183815 0.08571334 -0.094717905 -1.2391976 -0.31937683 0.38273066 -0.13390009 -0.4989413 0.1935125 0.47637123 0.17131428 -0.2637326 0.40959522
318 0.73163277 0.35905457 0.0013350182 0.30772898 1.0197588 0.46112365 -0.6319757 0.122779794 0.585229 0.46708256 -0.105828546 -0.2324912 -0.19342577 0.47862598 -0.40545475 -0.8423195 0.21043319 1.4523232 -0.33189744 -0.12335338 0.709992 0.17901579 -0.079114586 -0.22625352 -0.27882433 -0.21211945 -0.7315537 -0.39671263 -0.23784195 0.27418795 0.11694877 0.7821668 0.7022595 0.78928 -0.10304568 1.180145 0.94069266 0.75385076 0.208446 -0.43018913 0.59503067 1.4270238 -0.038514286 0.1302912 -0.10930362 0.842725 0.033270244 -0.87908584 0.20900229 0.20332208 -0.5877509 0.13175692 -0.0011349368 -0.12959062 -1.2775005 -0.8536944 -0.9869479 -0.3329943 0.23698851 -0.19679567 0.096514486 0.12667249 -1.0234374 -0.34642503
2426 0.8952299 1.0965716 0.04724146 -0.20422882 0.17705688 0.83350503 0.18050213 0.7291564 1.0009748 0.4857364 -0.45694456 0.6196458 -0.21226951 0.99160993 -0.087394655 -0.6120365 -0.597554 0.55900645 -0.50711316 0.98694515 -0.06527142 -0.1400728 -0.48901996 0.73047084 0.08031566 -0.8318836 -0.6150702 0.08766779 0.25674826 0.6719837 -0.66722125 0.29535145 0.018036684 -0.1554393 0.30623823 1.4546728 0.05674307 1.0483168 0.8058177 0.20257623 0.18686919 1.1550859 -0.4740679 -0.2602671 -0.23597373 0.78304875 0.69108564 -0.92157316 -0.5093976 -0.26406562 0.086747065 0.6884783 -1.3181202 -0.4764516 -1.0913905 0.18525702 -0.06834811 -0.49006224 0.1439039 -0.8871555 -0.7690295 0.15937693 -0.091753446 -0.68802655
204 0.3975084 0.23213531 1.0040008 -1.0974009 -0.1333923 1.4547046 1.0447502 0.66045415 0.40825364 -0.6238117 -0.4303098 1.0775503 0.195438 0.99861383 -0.29114202 -0.10960048 -0.42147666 1.0371933 0.10939494 -0.2553781 -0.4932114 -0.24747625 -0.5884923 0.39309487 -0.19776827 -0.24030685 0.2782307 -0.3481655 -0.38103312 -0.10608382 -0.06340009 -0.33260584 1.4424102 0.604815 -0.6702674 -0.26549506 -0.026777051 0.12658694 0.046082344 0.7572034 -0.5903943 0.4383588 -0.4877364 -0.07170043 -0.39133036 -0.08615754 0.99211836 -0.20687523 -0.21147315 0.62473273 0.18116644 0.242025 -0.936357 -0.19532701 -1.7261821 -0.59586793 -0.035885125 -0.17061219 -0.05258733 -0.027901832 0.12373898 0.03190394 -0.05010663 0.7525422
2164 0.20810814 0.29316738 -0.7053811 -0.5263751 0.5962412 0.7639634 0.0116495695 -0.8359291 -0.18501626 0.21798123 -0.75391024 0.73378015 -1.1376407 -1.1404052 -0.4684929 0.91463226 -1.4255766 -0.04560009 0.24729703 1.1157726 -0.053863324 0.73241127 -0.0010293383 0.30167404 0.7429009 -0.13186681 -1.2603388 0.43770844 -0.7015374 0.59793216 0.78028554 0.46735206 0.34192476 0.20028971 0.3318983 0.256965 -0.26758 0.48841286 -0.33795884 0.23570903 -0.7699769 0.5039352 0.07578494 -0.8276922 -0.43719634 0.75389165 2.0205548 -1.363164 0.5611111 -1.1490045 -0.65104604 -0.83131135 -0.5882485 -1.2063024 -1.0004588 0.23850322 0.11475388 0.11951069 1.1615428 -0.13337597 -0.5672528 -0.16974153 -1.1970129 0.042653345
1428 1.3046775 1.4135448 0.0929707 0.07423015 0.0022116743 0.69103974 0.19697246 -0.07526759 0.8221176 0.8501677 -1.3806965 0.8367277 -0.32655835 0.2299977 -0.14686248 -0.75706416 -1.3248246 0.625429 -0.57676077 -0.032744966 -0.2758345 -0.6291759 -0.1604976 0.6147767 0.025347302 -0.011558921 -0.079185426 0.5683008 -0.37004876 0.38382915 -1.0773114 -0.43211514 -0.09121903 -0.22735953 -0.08825406 0.6153966 0.055538792 0.023415688 0.29521468 -0.2553872 0.57971 0.74766225 0.19875154 -0.35027066 -0.58137 -0.5703837 -0.30746305 -1.1740664 0.31113023 -0.4717117 -0.31408367 -0.18008655 -0.42922682 -0.9472824 -0.8534437 0.052912615 0.8012844 -0.38676834 -0.0840602 -1.2464256 -1.1138726 0.24506626 -0.33577794 -0.53258103
1313 0.33403814 -0.3745102 -0.6384546 -1.1758801 1.280416 0.5760247 0.40502128 0.3369875 0.3474003 0.6960275 0.47237828 -0.07303656 0.67321116 0.27388704 0.53606904 -0.038746092 0.3093966 -0.3601025 -0.66255444 0.17447044 -1.2692082 -2.4887493 0.20174211 0.3074811 1.6172552 -0.43063056 0.48017374 -0.13052353 -0.65471494 0.5484187 0.80811685 0.23740862 2.6103332 -0.4672453 -0.21284454 -0.48303923 -0.3658333 1.0374973 -0.39493653 0.18990892 -0.29850417 2.5952818 -0.9414402 0.246584 -0.18135066 -0.54242706 0.35498643 -0.75133604 0.6845259 -0.057742085 -0.37080267 0.2578323 0.034829743 0.16302659 0.49982435 0.8422241 -0.16844776 0.17463878 -0.059942864 0.5007514 -0.6077335 0.8388284 -0.7305243 -0.021522509
456 -0.33983302 1.9083773 0.33278033 0.01591801 0.6368848 0.7156539 0.40970817 0.79064494 0.9621377 0.101441786 -0.59274346 -0.39820638 0.8784882 0.95926857 -0.5537864 -1.0384113 -0.3396165 0.55233526 0.37580925 -0.08488596 -0.057404745 -0.14954843 -0.4330737 0.413479 -0.029029263 -0.13472205 -0.249359 -0.5567291 -0.84783626 -0.5355043 0.5422545 0.5084096 0.08996332 0.08522473 -0.3669963 -0.46668416 -0.6294368 0.19282436 0.36230838 -0.17871468 0.277082 1.0525157 -0.5360607 -0.76028204 0.47778046 -0.794136 0.39399406 -1.5060152 0.041447245 0.130706 -0.0817594 -0.32921192 -0.026583709 0.13495304 0.64251757 0.45603156 0.5978243 0.0038038555 -0.07717068 -0.030356472 -0.27072084 0.37131888 -0.02388956 -1.1894776
719 0.7430363 -0.27890182 0.82973415 -0.23434034 0.5931795 0.92200714 -0.29882267 0.7672712 0.6694441 0.0763523 0.0035166482 0.47535333 -0.28653893 -0.07658183 -0.5214777 0.22361715 0.44387084 -0.1860693 -0.9813392 0.16756846 -0.059684034 -0.95771855 -0.31514215 -0.07168105 0.80904824 0.5991419 -0.35705507 0.3557046 -0.10559854 -0.77997106 0.83398986 -0.40960976 0.6575455 -0.57627803 -0.5856888 -1.0079896 -0.5201325 0.9595717 -0.2453984 -0.42048168 0.1632659 -0.034209184 -0.58317786 -0.14039253 0.0004480155 0.58662206 0.9578403 -0.16069852 -0.027426016 0.61448014 0.37640592 -0.024842959 0.21463917 -0.26102585 -0.933428 -0.323292 0.65397894 -0.071529426 0.6296099 0.41945398 0.95585126 0.051276423 -0.008350993 0.6644766
1231 0.14276072 1.6870074 -0.48822805 -0.902214 1.4385442 0.7104538 0.7578963 1.7404541 0.0918214 -0.82785845 -0.5179796 0.14983873 0.02057473 0.08318366 1.2320998 0.4381134 -0.10890736 0.92436796 0.16643846 0.18772851 -1.5067286 -0.26205996 -0.043148287 -0.20894949 0.24612576 0.20527571 0.31338242 0.17558572 1.1456816 0.74148226 -0.5422002 0.7049875 0.83936954 0.08018825 -0.3326463 0.75658745 0.64112866 0.66191745 -0.05487308 -0.89758736 0.4618906 -0.8742202 -0.23972036 -0.6404373 -0.9634842 -0.28046775 1.519309 -0.6360851 -0.2021073 0.482463 -0.064734586 -0.41217422 -0.80250967 -0.6265749 0.8697291 1.0718545 -0.20832114 0.07361613 0.55430204 -0.06024271 0.09172124 0.34180555 -0.43556255 -0.44906047
177 0.9560245 0.5494707 -0.17005065 -0.082538106 0.52913827 0.9396916 0.32203582 0.4799063 0.82794267 1.1046557 -0.13414213 -0.9076845 -0.84690607 0.23090139 1.2174968 0.12881967 -0.25695437 0.11572862 -0.62741697 -0.07645499 -0.68294173 -0.3431363 -0.11020516 0.7725599 1.1475784 0.35906804 0.23191863 0.07412704 0.29416537 -0.5142949 -0.10158262 -0.31496322 1.1690639 0.39760813 1.0454872 0.7618789 -0.36297104 0.22605501 0.5947636 -0.30001906 0.29612276 -1.074829 -0.77725273 -1.3208568 -0.1890303 0.95856375 0.03420607 -0.71797234 -0.36828306 0.3556441 -0.034664672 -0.5528451 -0.11177732 0.8973369 -0.25523582 -0.111675456 0.36500737 -0.45139974 0.39449617 -0.50186175 -0.72598463 -0.6847822 0.047915746 -0.11946856
2511 1.3209103 1.1867626 -0.1183306 1.1597832 2.2363036 1.2970964 0.8119827 0.1366394 0.5428795 0.17471965 -0.34464854 -0.18510056 0.81752473 -0.15030551 0.13980661 0.6191215 -0.37751502 0.44965303 -0.06390674 1.3451865 -0.5358239 -0.62779915 -0.72913337 -1.2003858 0.010266537 0.3954594 -0.50913095 -0.22004713 -0.15815777 -1.1047246 0.2431064 0.47920713 1.5597075 -0.5707663 -0.026180374 0.56093425 -0.3071481 -0.84723395 0.3066312 0.077946484 -0.13335145 0.59790385 -0.64195424 -0.35418323 -0.2742283 -0.3366716 0.9199084 -0.6491421 1.0579144 0.60022503 0.36823606 -1.5386635 0.18561378 0.50566983 -0.6557693 1.3310647 1.1979904 0.95892155 -0.17597535 -0.6383859 1.3389925 1.1261922 -0.24369724 -0.35363215
560 -0.2937071 1.1504261 0.13176893 0.96411765 0.40159348 0.061485887 1.135295 -0.81442267 0.9470601 0.66868854 0.3062756 -0.75141656 0.6152946 0.33396205 -0.2709842 -0.90331393 -0.28134704 0.033200752 -0.3917868 1.1735692 1.4354804 -0.11591948 0.90515745 -0.34067136 0.56158197 -0.19538026 0.4014142 0.0016184243 0.5620009 -0.6915747 -0.035710685 -1.3172168 0.08356957 0.54132986 -0.15082408 -0.19306888 -0.14396515 0.61218315 0.22081651 -0.14122775 0.35438696 1.4619824 0.44215795 -0.37434316 0.73992175 0.2801482 1.6780893 -0.51809037 -0.5329641 0.28123793 -0.4767172 -0.18887 -0.457539 0.21631838 0.5310558 -0.010497205 0.31103623 0.19609453 0.6768028 -0.58907276 0.98335254 0.5694304 -0.037272207 0.25737414
1326 0.013904627 1.116754 0.38726062 -0.45388958 0.39437366 0.59981483 0.7671392 1.0596493 0.1206522 0.108735956 -1.069587 -0.36229333 1.3904164 -0.52069473 -0.2724342 -0.48517677 -0.5040317 0.4479166 -0.241043 -0.5817097 -0.35897934 -0.1482783 0.3981898 0.094477326 0.53177226 -0.055828538 0.1767785 0.79407394 -0.5096875 -0.41279605 0.61998206 -0.71153843 0.044715907 -0.362002 0.10573513 -0.39823633 -0.019785695 -0.22062048 0.39409167 0.8961201 -0.3534843 1.7316446 -0.38080597 0.83248806 0.33236253 0.5002768 1.41135 -0.2328172 1.8880767 1.2528325 -0.3818477 0.82305586 0.28668606 -0.16920762 0.26981476 -1.5792831 0.7671872 -0.28554767 0.70428103 0.098253414 -0.49623173 0.263015 -0.9731878 -0.3918055
1378 0.1544652 0.4806897 -0.71341556 -0.7675701 0.23759066 -0.16719876 -0.012531041 -0.4452794 -0.30913725 -0.3035728 0.7751169 -0.1593447 -0.35031006 0.5265665 0.30152917 -0.027541947 -0.69932175 1.2492942 -0.33254114 -0.04699345 -1.417118 -0.18021476 0.012211923 -0.4551242 0.8072771 0.7510919 0.39383173 0.09119913 -0.27056694 -0.03561191 -0.052356612 -0.12616777 0.9547994 0.86558443 -0.054146647 0.91765815 -0.5989364 0.4261363 -0.7379026 0.944705 -0.4209226 1.0568495 -0.38785753 -0.3088448 -0.10174583 -0.39268798 0.5917715 -0.13492404 0.3750389 0.20518552 -0.89750123 0.37855574 -0.6451078 -0.36604616 -0.09410671 -0.3215843 0.75106734 -0.533502 -0.23181556 -0.26336128 0.7469696 0.2592308 -0.45808882 -0.6413314
858 1.3488666 0.82750046 0.20954093 -0.8438442 0.83342314 -0.12478877 0.6501346 -0.397944 1.2179322 0.05612341 -0.07744828 -0.4293734 0.82319164 0.40973777 0.35412985 -0.18531194 0.03183018 1.5211654 0.5796009 0.4949439 -0.08718272 1.0334498 0.14412323 -0.06648523 1.3113505 0.9323435 0.40597922 -0.13453615 -0.40264308 -0.017156383 -0.08137944 0.7115053 1.1861783 0.88491505 0.04344306 0.3158416 0.8260658 1.4531481 -0.42226043 0.30382684 0.3884739 1.0373237 0.33453444 0.6103112 0.18160017 0.55410856 0.74122363 0.33614248 -0.07336194 -1.040773 -1.4443171 0.5744054 -0.99123544 -0.17430733 -0.6760859 -0.5796804 -0.44542104 0.06917716 0.6031614 0.2392685 0.15120114 -0.04073428 -1.3340858 0.057477973
1285 0.07292494 0.22009788 -0.65434587 -0.49656186 0.59470093 0.34135842 0.6774177 -0.22959402 -0.8410128 0.26987052 0.16061713 -0.100490935 0.65409374 -0.14321882 0.52057135 0.116142996 0.9983579 0.40338847 0.56746393 -0.92527026 0.06365384 -1.791343 0.60135233 0.58237743 1.2082974 0.8527783 0.32293588 -0.47464103 0.1274119 0.032121323 0.3930758 -0.041862227 1.6678439 0.10074546 -0.9159677 0.20725787 -0.15395628 0.6681578 0.07712594 -0.30932286 -0.008800262 1.5427264 -0.62273145 -0.48638675 0.97318673 -0.70556736 0.7249246 -1.3934952 1.1512673 -0.6290215 -0.0010998506 -0.56525487 0.698305 0.7832448 -0.6633711 0.83276653 -0.0044551915 -0.119379185 -0.42974928 -0.24500212 0.27061617 0.14483973 -0.9557878 -0.14107774
2658 0.07883988 0.4910672 0.18678491 -0.39633244 -0.2159239 0.51528215 0.99126935 0.02192902 0.35890916 0.026563672 0.8794394 0.53017896 0.69305927 0.15404214 0.5162701 -0.19258505 -0.82722175 0.6751174 -0.31735766 -0.092784286 -0.39541036 0.5454562 -0.09681405 -0.6747241 0.38896894 -0.29960826 0.0032321627 -0.9167878 -0.19969006 0.028103692 0.028601265 -0.054332834 1.4329038 0.13077407 0.7926972 0.04198476 0.2185509 0.8948291 -0.53697735 0.45493364 0.008790958 1.371364 -0.11723957 -0.01708474 -0.13927618 -0.35118204 1.2118263 -0.08519535 -0.41958407 0.83735013 -0.38487664 -0.30212438 0.34362975 -0.030721031 -0.52576405 -0.3596662 0.41475913 -0.233682 -0.4915439 -0.16515277 0.70663846 -0.54036564 -0.18969092 0.38689533
1696 0.52181447 0.59272575 -0.93695605 -0.5467151 1.552377 -0.03490307 1.4539719 1.0720422 -0.31920868 -0.43175942 -0.27864623 -1.1879731 0.45574254 -0.14461316 0.15590274 0.607525 -0.7214477 0.8766632 0.4722606 0.1237846 -0.42474303 0.8862348 0.17319947 -0.09464135 -0.4232147 0.5089296 -0.07832644 0.5295913 0.6511103 0.030158151 0.14261004 0.33567682 0.23141845 0.054038744 0.5775315 0.3955004 -0.28885 0.60628486 0.35542133 -0.7945306 -0.17565627 -0.13963358 -0.23856746 -0.35766137 -1.1443068 0.0070847785 1.1925005 -0.5077337 -0.47476137 -0.12725338 -0.19703451 -0.6134874 0.07233748 0.5581939 0.04750545 0.64037555 0.16818802 0.27975512 0.63510466 -0.47735882 0.33900097 0.69338804 0.03540273 -0.8017362
1784 0.7400344 -0.14021228 -0.67679566 0.13557638 1.2389051 0.4175673 0.58474964 0.622706 0.03540058 0.1497361 -0.18327507 0.13870932 0.030815441 0.8156636 0.074119814 0.12506105 -0.7400299 0.8696678 0.8512439 0.13402866 0.025280552 0.31167454 1.05154 -0.12379201 0.3050147 1.0198251 -0.4538536 0.2179297 0.64269 -0.4990574 0.7357256 0.4293371 0.43965048 0.70462424 0.41286898 0.22930816 -0.1566738 1.3777003 0.7159589 0.24955212 -0.4147486 -0.18414769 -0.13172597 -0.36053944 -1.0979043 -0.3693917 1.8028842 0.22468802 0.591595 0.40399268 -0.44870424 -0.35829487 -0.29731032 0.3883101 0.11794778 0.4031098 -0.2627023 -0.8348574 0.96708304 -0.085825875 -0.24770331 0.1793587 0.0020804345 -0.96705014
2206 0.74734694 -0.05254203 -0.28006282 -0.5535954 1.6492122 -0.33583638 0.35553414 0.87875247 0.4639086 -0.6310807 0.11798805 -0.7036244 0.5777223 0.5130502 -0.57528734 -0.3113492 -0.596323 1.4577724 0.34502515 -0.73700756 0.117794625 0.40645543 1.4345229 0.092218354 0.8020617 0.819876 0.04890175 0.62311023 0.6704076 -0.5174018 0.05402302 0.36432377 0.053308226 -0.17178892 0.25687233 -0.17193383 0.20117022 0.9986058 1.2366626 0.56459016 -0.76719296 -0.2373874 -0.70219886 0.7769869 -0.4945742 0.1166542 0.88007534 -0.4066628 -0.0017450835 0.33891904 -0.40255687 -1.3685704 -0.6514778 0.3040452 -0.23337504 0.70380884 0.76676303 -0.7191867 1.5207651 -0.32816532 0.39984947 1.2620324 -0.26034704 -1.5012914
380 0.40490833 -0.48874837 -0.13534278 0.05485054 1.373427 0.014909767 0.9731992 0.20864142 0.63491136 -0.23516761 0.04981683 0.11480877 0.2836379 0.11292141 -0.085474454 0.39201906 -0.9783424 0.7624502 0.50254035 -0.10564067 0.075115286 0.6342058 0.9486017 -0.5087721 -0.04326891 0.7118957 0.418264 0.38476977 -0.07943631 -1.0763379 0.35327142 -0.012068709 0.3719863 0.2231469 0.027534937 1.0026203 -0.6258927 0.9154978 0.31244594 -0.080746844 -0.04765155 -0.1755095 -0.12988581 -0.16041729 -0.88056576 -0.56384754 1.6309416 -0.18217832 0.13882978 0.39212686 -0.39294285 -0.102523275 -0.6165128 -0.090066746 -0.5190628 0.5732951 -0.043492742 -0.57653016 0.8881249 -0.06459528 0.2618219 0.017391311 0.17390746 -0.3839022
2360 0.8615884 1.4111342 -0.49121475 0.4825692 0.42559612 0.40827486 0.4574722 0.25871393 1.1361076 0.23610212 -0.7000584 -0.9495056 0.4760737 0.4046894 -0.70964825 -0.31770486 -1.0417893 0.20066467 0.7240047 0.13666616 0.40785798 0.48163787 0.6159495 -0.24364184 0.89633423 -0.053811036 -0.3921014 -1.1900992 -0.12809579 -0.29472438 0.52909756 1.0441947 0.38776752 -0.44261697 -0.08787059 0.61380947 -0.2110884 0.1681189 0.09252678 -0.6700136 -0.60095316 0.9652613 -0.9249844 0.025879074 0.44933063 -0.98754096 0.38223794 -1.0311841 0.6646049 -0.19915166 0.5660579 -0.014615627 -0.69650614 -0.2645993 -0.4865936 0.3946128 0.6364981 -0.14630122 1.2253164 -0.15472966 -0.19123863 0.66284823 0.25412628 -0.69439435
